<?xml version="1.0"?>
<opencv_storage>
<my_svm type_id="opencv-ml-svm">
  <svm_type>C_SVC</svm_type>
  <kernel><type>LINEAR</type></kernel>
  <C>1.</C>
  <term_criteria><epsilon>2.2204460492503131e-016</epsilon>
    <iterations>100</iterations></term_criteria>
  <var_all>122</var_all>
  <var_count>122</var_count>
  <class_count>10</class_count>
  <class_labels type_id="opencv-matrix">
    <rows>1</rows>
    <cols>10</cols>
    <dt>i</dt>
    <data>
      1 2 3 4 5 6 7 8 9 10</data></class_labels>
  <sv_total>45</sv_total>
  <support_vectors>
    <_>
      9.21227354e-007 5.55111512e-017 5.55111512e-017 5.55111512e-017
      5.55111512e-017 5.55111512e-017 5.55111512e-017 9.21227354e-007
      5.55111512e-017 5.55111512e-017 5.55111512e-017 5.55111512e-017
      5.55111512e-017 5.55111512e-017 5.55111512e-017 5.55111512e-017
      -2.77311951e-002 -7.63468146e-002 -2.25116253e-001
      -1.40208319e-001 5.55111512e-017 -2.74797063e-002 -1.18678911e-002
      -1.29473181e-002 -2.26594999e-001 -1.36167213e-001 5.55111512e-017
      -5.23281097e-002 -2.68554757e-003 -8.86327494e-003
      -6.34215772e-002 -1.32288069e-001 5.55111512e-017 -4.75270711e-002
      1.39159383e-002 5.35661681e-003 -5.38289547e-002 -2.51042228e-002
      5.55111512e-017 -4.02846187e-002 1.35684684e-002 2.63460204e-002
      -5.73884957e-002 -1.10134659e-002 4.93124314e-002 -1.58654060e-002
      1.15028555e-002 1.09923676e-001 5.55111512e-017 4.93124314e-002
      5.55111512e-017 5.55111512e-017 5.55111512e-017 5.55111512e-017
      5.55111512e-017 5.55111512e-017 5.55111512e-017 5.55111512e-017
      5.55111512e-017 5.55111512e-017 -1.05291113e-001 5.55111512e-017
      5.55111512e-017 5.55111512e-017 1.69087574e-002 -1.13373913e-003
      5.55111512e-017 5.55111512e-017 5.55111512e-017 5.55111512e-017
      5.76284435e-003 4.50376561e-003 5.55111512e-017 5.55111512e-017
      5.55111512e-017 5.55111512e-017 5.55111512e-017 5.55111512e-017
      5.55111512e-017 5.55111512e-017 5.55111512e-017 5.55111512e-017
      5.55111512e-017 5.55111512e-017 5.55111512e-017 5.55111512e-017
      -1.70753505e-002 -1.18678911e-002 -2.27034390e-001
      -5.02515957e-002 8.02106690e-003 -5.99599853e-002 7.88286049e-003
      1.16038686e-002 -6.15032949e-002 5.55111512e-017 5.55111512e-017
      5.55111512e-017 5.55111512e-017 5.55111512e-017 5.55111512e-017
      5.55111512e-017 5.55111512e-017 5.55111512e-017 -7.07666390e-003
      -8.86327494e-003 7.07833096e-003 1.12652900e-002 5.55111512e-017
      5.55111512e-017 5.55111512e-017 5.55111512e-017 -6.87463768e-003
      7.07833096e-003 5.55111512e-017 5.55111512e-017 3.77012929e-003
      7.56421825e-003 5.55111512e-017 5.55111512e-017 3.77012929e-003
      5.55111512e-017</_>
    <_>
      2.56213013e-007 1.30104261e-017 1.30104261e-017 1.30104261e-017
      1.30104261e-017 1.30104261e-017 1.30104261e-017 2.56213013e-007
      1.30104261e-017 1.30104261e-017 1.30104261e-017 1.30104261e-017
      1.30104261e-017 1.30104261e-017 -5.74433096e-002 1.30104261e-017
      -2.99968552e-002 -2.47009039e-001 -2.99601287e-001
      -7.12126866e-002 1.30104261e-017 -1.83021829e-001 -2.16525253e-002
      -1.39098661e-002 -3.15835059e-001 -7.36922622e-002 1.30104261e-017
      -6.10330030e-002 -2.99499352e-002 -7.25798309e-004
      -2.18245983e-002 1.30104261e-017 1.30104261e-017 -2.80640516e-002
      1.79159939e-002 2.35915296e-002 -6.00053323e-003 1.30104261e-017
      1.30104261e-017 3.36093269e-003 2.24169511e-002 5.47295846e-002
      7.25238770e-002 1.30104261e-017 -3.10661733e-001 -4.55235429e-002
      3.12615857e-002 5.63631617e-002 1.30104261e-017 2.84127854e-002
      1.30104261e-017 1.30104261e-017 1.30104261e-017 1.30104261e-017
      1.30104261e-017 1.30104261e-017 1.30104261e-017 1.30104261e-017
      1.30104261e-017 -1.37742213e-003 1.30104261e-017 1.30104261e-017
      1.30104261e-017 1.30104261e-017 8.07870030e-002 1.30104261e-017
      1.30104261e-017 1.30104261e-017 1.30104261e-017 1.30104261e-017
      2.76528485e-002 1.97792379e-003 1.30104261e-017 1.30104261e-017
      1.30104261e-017 1.30104261e-017 -3.56133794e-003 1.30104261e-017
      1.30104261e-017 1.30104261e-017 1.30104261e-017 1.30104261e-017
      1.30104261e-017 1.30104261e-017 1.30104261e-017 1.30104261e-017
      -1.39867902e-001 -2.16525253e-002 -3.14870894e-001
      -5.12563288e-002 9.19220503e-003 -1.95170175e-002 9.15690362e-002
      2.34457273e-002 2.84127854e-002 1.30104261e-017 1.30104261e-017
      1.30104261e-017 1.30104261e-017 1.30104261e-017 1.30104261e-017
      1.30104261e-017 1.30104261e-017 1.30104261e-017 -3.06180045e-002
      -5.54694561e-003 4.25940845e-003 4.13818210e-002 1.30104261e-017
      1.30104261e-017 1.30104261e-017 1.30104261e-017 -2.85995658e-002
      7.43340061e-004 1.30104261e-017 1.30104261e-017 4.25940845e-003
      2.89171524e-002 1.30104261e-017 1.30104261e-017 7.43340061e-004
      1.30104261e-017</_>
    <_>
      1.86414018e-005 -1.11022302e-016 -1.11022302e-016 -1.11022302e-016
      -1.11022302e-016 -1.11022302e-016 -1.11022302e-016 1.86414018e-005
      -1.11022302e-016 -1.11022302e-016 -1.11022302e-016
      -1.11022302e-016 -1.11022302e-016 -1.11022302e-016
      -1.11022302e-016 -1.11022302e-016 -6.49471343e-001
      -7.26489365e-001 -1.11022302e-016 -1.11022302e-016
      -1.11022302e-016 -3.01947296e-001 -4.44699004e-002
      -8.16690773e-002 -2.68644422e-001 -1.11022302e-016
      -1.11022302e-016 1.79604560e-001 1.75629452e-001 2.77826756e-001
      1.43860638e-001 -1.11022302e-016 -1.11022302e-016 1.81953445e-001
      5.38412154e-001 5.76971471e-001 2.35374212e-001 -1.11022302e-016
      -1.11022302e-016 1.42686576e-001 5.06836116e-001 7.09168077e-001
      -9.00775939e-003 -1.11022302e-016 -3.12392861e-001
      -2.40684509e-001 3.27242851e-001 4.49032575e-001 -1.11022302e-016
      1.05103385e+000 -1.11022302e-016 -1.11022302e-016 -1.11022302e-016
      -1.11022302e-016 -1.11022302e-016 -1.11022302e-016
      -1.11022302e-016 -1.11022302e-016 -1.11022302e-016
      -1.11022302e-016 -1.11022302e-016 -1.11022302e-016
      -1.11022302e-016 -1.11022302e-016 8.17237273e-002 -2.49901786e-003
      -1.11022302e-016 -1.11022302e-016 -1.11022302e-016
      -1.11022302e-016 6.51139989e-002 2.78550107e-002 -1.11022302e-016
      -1.11022302e-016 -1.11022302e-016 -1.11022302e-016
      -1.11022302e-016 -1.11022302e-016 -1.11022302e-016
      -1.11022302e-016 -1.11022302e-016 -1.11022302e-016
      -1.11022302e-016 -1.11022302e-016 -1.11022302e-016
      -1.11022302e-016 -5.56674339e-002 -9.61228833e-002
      -2.64895886e-001 1.90380186e-001 5.01413524e-001 1.93992347e-001
      -1.74523309e-001 3.34597409e-001 -5.32269776e-001 -1.11022302e-016
      -1.11022302e-016 -1.11022302e-016 -1.11022302e-016
      -1.11022302e-016 -1.11022302e-016 -1.11022302e-016
      -1.11022302e-016 -1.11022302e-016 4.56353314e-002 1.71755776e-001
      5.99341281e-002 5.19748665e-002 -1.11022302e-016 -1.11022302e-016
      -1.11022302e-016 -1.11022302e-016 9.11259428e-002 -3.42137297e-003
      -1.11022302e-016 -1.11022302e-016 5.99341281e-002 4.71578017e-002
      -1.11022302e-016 -1.11022302e-016 -3.42137297e-003
      -1.11022302e-016</_>
    <_>
      1.83811756e-006 -7.32920669e-017 -7.32920669e-017 -7.32920669e-017
      -7.32920669e-017 -7.32920669e-017 -7.32920669e-017 1.83811756e-006
      -7.32920669e-017 -7.32920669e-017 -7.32920669e-017
      -7.32920669e-017 -7.32920669e-017 -7.32920669e-017
      -7.32920669e-017 -7.32920669e-017 -5.45069315e-002 4.04315107e-002
      -7.32920669e-017 -7.32920669e-017 -7.32920669e-017
      -9.85752121e-002 -2.45769694e-002 -5.23101687e-002
      -1.82747317e-003 -7.32920669e-017 -7.32920669e-017
      -1.21773183e-001 -2.35794913e-002 -5.55447415e-002
      -8.66338909e-002 -1.81698576e-002 -7.32920669e-017
      -2.43890867e-001 7.97942001e-003 -9.72021138e-004 -2.20022053e-001
      -1.29516602e-001 -7.32920669e-017 -1.62632428e-002 3.77170928e-002
      4.49661165e-002 -2.30096862e-001 -1.21925473e-001 7.22129345e-002
      -7.32920669e-017 3.19926590e-002 6.59276396e-002 -5.53460240e-001
      7.18418360e-002 -7.32920669e-017 -7.32920669e-017 -7.32920669e-017
      -7.32920669e-017 -7.32920669e-017 -7.32920669e-017
      -7.32920669e-017 -7.32920669e-017 -7.32920669e-017
      -7.32920669e-017 -7.32920669e-017 -7.32920669e-017
      -7.32920669e-017 -7.32920669e-017 6.25509918e-002 -7.32920669e-017
      -7.32920669e-017 -7.32920669e-017 -7.32920669e-017
      -7.32920669e-017 3.84929217e-002 -2.14050598e-002 -1.73056172e-003
      -7.32920669e-017 -7.32920669e-017 -7.32920669e-017
      -7.32920669e-017 -2.55618125e-001 -1.15140103e-001
      -7.32920669e-017 -7.32920669e-017 -7.32920669e-017
      -7.32920669e-017 -2.22953241e-002 -9.70764756e-002
      -7.32920669e-017 -9.85752121e-002 -3.02638505e-002
      -1.82747317e-003 -2.62953252e-001 -7.29484600e-004
      -2.23409891e-001 5.87739721e-002 2.73237731e-002 -3.16842288e-001
      -7.32920669e-017 -7.32920669e-017 -7.32920669e-017
      -7.32920669e-017 -7.32920669e-017 -7.32920669e-017
      -7.32920669e-017 -7.32920669e-017 -7.32920669e-017
      -3.73591520e-002 -5.55447415e-002 6.90001156e-003 1.29447905e-002
      -7.32920669e-017 -7.32920669e-017 -7.32920669e-017
      -7.32920669e-017 -4.41965945e-002 5.07817045e-003 -7.32920669e-017
      -7.32920669e-017 2.96673109e-003 5.07817045e-003 -7.32920669e-017
      -7.32920669e-017 1.14488986e-003 -7.32920669e-017</_>
    <_>
      -1.46076181e-005 1.11022302e-016 1.11022302e-016 1.11022302e-016
      1.11022302e-016 1.11022302e-016 1.11022302e-016 -1.46076181e-005
      1.11022302e-016 1.11022302e-016 1.11022302e-016 1.11022302e-016
      1.11022302e-016 1.11022302e-016 1.11022302e-016 1.11022302e-016
      2.11815953e-001 -1.99653134e-001 1.11022302e-016 1.11022302e-016
      1.11022302e-016 4.11644012e-001 1.76238362e-002 3.77098955e-002
      1.11022302e-016 1.11022302e-016 1.11022302e-016 8.86218846e-001
      1.63995381e-002 1.03225261e-001 3.67478848e-001 1.11022302e-016
      1.11022302e-016 1.24402806e-001 1.79481551e-001 2.11263165e-001
      3.72559190e-001 1.11022302e-016 1.32668659e-001 -3.05357099e-001
      1.39461026e-001 2.40258113e-001 1.11022302e-016 1.11022302e-016
      -2.31009200e-001 -9.68442202e-001 1.82566553e-001 1.85620040e-001
      1.11022302e-016 4.76309329e-001 1.11022302e-016 1.11022302e-016
      1.11022302e-016 1.11022302e-016 1.11022302e-016 1.11022302e-016
      1.11022302e-016 1.11022302e-016 1.11022302e-016 1.11022302e-016
      1.11022302e-016 1.11022302e-016 1.11022302e-016 1.11022302e-016
      2.13644341e-001 1.11022302e-016 1.11022302e-016 1.11022302e-016
      1.11022302e-016 1.11022302e-016 1.36140343e-002 1.11022302e-016
      1.11022302e-016 1.11022302e-016 1.11022302e-016 1.11022302e-016
      -7.30817169e-002 1.11022302e-016 1.11022302e-016 1.11022302e-016
      1.11022302e-016 1.11022302e-016 -2.63456926e-002 1.11022302e-016
      1.11022302e-016 1.11022302e-016 4.11644012e-001 1.65789202e-002
      1.11022302e-016 1.64627075e-001 1.70148268e-001 3.67478848e-001
      2.03854397e-001 1.43241644e-001 4.76309329e-001 1.11022302e-016
      1.11022302e-016 1.11022302e-016 1.11022302e-016 1.11022302e-016
      1.11022302e-016 1.11022302e-016 1.11022302e-016 1.11022302e-016
      1.07577574e-002 8.99790525e-002 7.31125399e-002 5.27929850e-002
      1.11022302e-016 1.11022302e-016 1.11022302e-016 1.11022302e-016
      3.88188027e-002 4.84967977e-002 1.11022302e-016 1.11022302e-016
      7.31125399e-002 5.27929850e-002 1.11022302e-016 1.11022302e-016
      4.84967977e-002 1.11022302e-016</_>
    <_>
      3.13297505e-007 -1.43114687e-017 -1.43114687e-017 -1.43114687e-017
      -1.43114687e-017 -1.43114687e-017 -1.43114687e-017 3.13297505e-007
      -1.43114687e-017 -1.43114687e-017 -1.43114687e-017
      -1.43114687e-017 -1.43114687e-017 -1.43114687e-017
      -9.66828838e-002 -1.00659035e-001 -7.72465114e-003
      -6.50817603e-002 -9.39949527e-002 -8.91047642e-002
      -9.66622233e-002 -3.86388265e-002 -2.77684652e-003
      -3.37988581e-003 -9.35076103e-002 -8.51039737e-002
      -9.44823399e-002 -3.83734405e-002 -1.99441053e-003
      -2.22017220e-003 -5.60509823e-002 -5.00642620e-002
      -4.72532436e-002 -3.27815562e-002 7.82074127e-003 4.46384633e-003
      -4.78025228e-002 -1.43114687e-017 -1.43114687e-017
      -2.64433660e-002 9.19563044e-003 1.13421101e-002 3.06691825e-002
      -1.43114687e-017 -1.00843674e-002 -1.04203839e-002 6.24510413e-003
      1.21886516e-002 -4.50921059e-002 -1.00843674e-002 -1.43114687e-017
      -1.43114687e-017 -1.43114687e-017 -1.43114687e-017
      -1.43114687e-017 -1.43114687e-017 -1.43114687e-017
      -4.48256135e-002 -6.69039029e-004 -1.43114687e-017
      -1.43114687e-017 -1.43114687e-017 -1.43114687e-017
      -4.07010550e-003 1.16653368e-002 -2.68585631e-004 -1.43114687e-017
      -1.43114687e-017 -1.43114687e-017 -1.43114687e-017 3.25233513e-003
      9.44054336e-004 -1.43114687e-017 -1.43114687e-017 -1.43114687e-017
      -1.43114687e-017 -6.69039029e-004 -1.43114687e-017
      -1.43114687e-017 -1.43114687e-017 -1.43114687e-017
      -1.43114687e-017 -1.43114687e-017 -3.78085906e-003
      -1.43114687e-017 -1.43114687e-017 -3.86388265e-002
      -2.77684652e-003 -9.39949527e-002 -3.56189609e-002 3.79710761e-003
      -5.49495853e-002 6.92648115e-003 6.24510413e-003 -1.40924910e-002
      -1.43114687e-017 -1.43114687e-017 -1.43114687e-017
      -1.43114687e-017 -1.43114687e-017 -1.43114687e-017
      -1.43114687e-017 -1.43114687e-017 -1.43114687e-017
      -2.15334841e-003 -2.22017220e-003 5.09680295e-003 5.33197448e-003
      -1.43114687e-017 -1.43114687e-017 -1.43114687e-017
      -1.43114687e-017 -2.15334841e-003 4.66293376e-003 -1.43114687e-017
      -1.43114687e-017 3.25071742e-003 3.10184457e-003 -1.43114687e-017
      -1.43114687e-017 2.87882984e-003 -1.43114687e-017</_>
    <_>
      -8.28604925e-007 0. 0. 0. 0. 0. 0. -8.28604925e-007 0. 0. 0. 0. 0.
      0. 0. 0. 1.09702371e-001 -2.10541543e-002 0. 0. -1.24738984e-001
      -1.36411235e-001 6.13709688e-002 5.32658957e-002 -1.13157883e-001
      -1.04304358e-001 -2.80815989e-001 -1.27466336e-001 4.67440113e-002
      2.17149928e-002 -1.31026074e-001 -1.19497858e-001 -2.25479230e-001
      -4.56111617e-002 6.79115485e-003 -3.47360899e-003 -3.51945013e-002
      -1.91979140e-001 0. 1.11852035e-001 8.85155983e-003
      9.82399378e-003 -6.23413958e-002 -1.47711515e-001 1.68836694e-002
      0. 9.75131243e-003 8.05259030e-003 0. 2.26474106e-002 0. 0. 0. 0.
      0. 0. 0. 0. 0. 0. 0. 0. 0. 0. 5.92332296e-002 0. 0. 0. 0. 0.
      1.42691042e-002 2.06362992e-003 0. 0. 0. 0. 0. 0. 0. 0. 0. 0. 0.
      0. 0. 0. -1.37644514e-001 6.09598793e-002 -1.13157883e-001
      -1.19109921e-001 4.63479897e-003 -1.20964795e-001 1.37083188e-001
      1.07222861e-002 -1.25064090e-001 0. 0. 0. 0. 0. 0. 0. 0. 0.
      4.71931621e-002 2.17149928e-002 9.01607238e-003 1.01137273e-002 0.
      0. 0. 0. 2.90834866e-002 1.01137273e-002 0. 0. 9.01607238e-003
      1.01137273e-002 0. 0. 1.01137273e-002 0.</_>
    <_>
      3.65889122e-007 2.60208521e-017 2.60208521e-017 2.60208521e-017
      2.60208521e-017 2.60208521e-017 2.60208521e-017 3.65889122e-007
      2.60208521e-017 2.60208521e-017 2.60208521e-017 2.60208521e-017
      2.60208521e-017 2.60208521e-017 2.60208521e-017 2.60208521e-017
      7.94725716e-002 -3.46805118e-002 2.60208521e-017 2.60208521e-017
      2.60208521e-017 1.66119467e-002 7.91422427e-002 7.48496503e-002
      2.60208521e-017 2.60208521e-017 2.60208521e-017 2.20978744e-002
      8.71289894e-002 8.47366080e-002 4.90394309e-002 2.60208521e-017
      2.60208521e-017 2.25577485e-002 1.07773282e-001 1.00355037e-001
      -3.82582843e-002 2.60208521e-017 -4.83074784e-002 -1.86205260e-003
      1.15782887e-001 1.21123575e-001 -1.45477116e-001 2.60208521e-017
      1.80562027e-003 -9.49740708e-002 1.10919222e-001 1.10696487e-001
      -1.66489452e-001 1.14825346e-001 2.60208521e-017 2.60208521e-017
      2.60208521e-017 2.60208521e-017 2.60208521e-017 2.60208521e-017
      2.60208521e-017 2.60208521e-017 2.60208521e-017 2.60208521e-017
      2.60208521e-017 2.60208521e-017 2.60208521e-017 2.60208521e-017
      -3.36877964e-002 2.60208521e-017 2.60208521e-017 2.60208521e-017
      2.60208521e-017 2.60208521e-017 -8.00722614e-002 5.00965514e-004
      2.60208521e-017 2.60208521e-017 2.60208521e-017 2.60208521e-017
      -7.49195814e-002 -5.05443150e-003 2.60208521e-017 2.60208521e-017
      2.60208521e-017 2.60208521e-017 2.60208521e-017 -6.26490414e-002
      2.60208521e-017 2.60208521e-017 1.66119467e-002 7.91422427e-002
      2.60208521e-017 2.21148878e-002 1.06654845e-001 4.77284789e-002
      4.87295985e-002 1.10738911e-001 -4.82699275e-002 2.60208521e-017
      2.60208521e-017 2.60208521e-017 2.60208521e-017 2.60208521e-017
      2.60208521e-017 2.60208521e-017 2.60208521e-017 2.60208521e-017
      8.71289894e-002 8.47366080e-002 1.08629249e-001 1.19264610e-001
      2.60208521e-017 2.60208521e-017 2.60208521e-017 2.60208521e-017
      8.76194537e-002 1.12035185e-001 2.60208521e-017 2.60208521e-017
      1.06916167e-001 1.18836343e-001 2.60208521e-017 2.60208521e-017
      1.10322103e-001 2.60208521e-017</_>
    <_>
      -7.89317369e-007 8.32667268e-017 8.32667268e-017 8.32667268e-017
      8.32667268e-017 8.32667268e-017 8.32667268e-017 -7.89317369e-007
      8.32667268e-017 8.32667268e-017 8.32667268e-017 8.32667268e-017
      8.32667268e-017 8.32667268e-017 8.32667268e-017 -1.73614752e-002
      -6.26462325e-002 -5.79349957e-002 -3.82456481e-001 8.32667268e-017
      8.32667268e-017 -1.86938141e-002 -3.86142284e-002 -3.71032842e-002
      -3.87186199e-001 -1.15390606e-002 8.32667268e-017 -1.83577265e-003
      -3.07486597e-002 3.02231638e-003 -1.96703113e-004 -1.18595902e-002
      -8.07734206e-003 -2.10294663e-003 2.14279778e-002 3.76117006e-002
      8.69041134e-004 -1.22442245e-002 8.32667268e-017 -2.50508753e-003
      2.74334438e-002 3.93619128e-002 1.35740358e-002 8.32667268e-017
      -1.13251517e-002 8.32667268e-017 2.02563368e-002 2.34634746e-002
      8.32667268e-017 -9.94425849e-004 8.32667268e-017 8.32667268e-017
      -2.33972073e-003 -1.78745401e-003 8.32667268e-017 8.32667268e-017
      8.32667268e-017 8.32667268e-017 -1.92317675e-004 8.32667268e-017
      8.32667268e-017 8.32667268e-017 8.32667268e-017 8.32667268e-017
      1.90827833e-003 8.32667268e-017 8.32667268e-017 8.32667268e-017
      8.32667268e-017 8.32667268e-017 2.10772105e-003 3.70200956e-004
      8.32667268e-017 8.32667268e-017 8.32667268e-017 8.32667268e-017
      8.32667268e-017 8.32667268e-017 8.32667268e-017 8.32667268e-017
      8.32667268e-017 8.32667268e-017 8.32667268e-017 8.32667268e-017
      8.32667268e-017 8.32667268e-017 -1.47529850e-002 -3.86142284e-002
      -3.87134194e-001 -1.58954319e-003 6.91093924e-003 2.35198473e-004
      -1.38432374e-002 2.03413647e-002 -9.94425849e-004 8.32667268e-017
      8.32667268e-017 8.32667268e-017 8.32667268e-017 8.32667268e-017
      8.32667268e-017 8.32667268e-017 8.32667268e-017 8.32667268e-017
      -3.07486597e-002 -1.30647831e-002 -5.05299959e-003 7.30084837e-004
      8.32667268e-017 8.32667268e-017 8.32667268e-017 8.32667268e-017
      -2.18769796e-002 1.12363399e-004 8.32667268e-017 8.32667268e-017
      -5.18121058e-003 5.37766726e-004 8.32667268e-017 8.32667268e-017
      -1.58474249e-005 8.32667268e-017</_>
    <_>
      -1.92125549e-006 -1.38777878e-017 -1.38777878e-017
      -1.38777878e-017 -1.38777878e-017 -1.38777878e-017
      -1.38777878e-017 -1.92125549e-006 -1.38777878e-017
      -1.38777878e-017 -1.38777878e-017 -1.38777878e-017
      -1.38777878e-017 -1.38777878e-017 -1.19051956e-001
      -1.38777878e-017 1.89854745e-002 2.15005614e-002 8.80954415e-002
      1.00950347e-002 -1.38777878e-017 -7.51275197e-002 1.24517176e-002
      2.51623360e-003 5.00182137e-002 1.91232394e-002 -1.38777878e-017
      -4.72228117e-002 6.60211733e-003 3.00039891e-002 1.19352318e-001
      2.42230728e-001 -1.38777878e-017 1.38066694e-001 4.11385158e-003
      1.47934984e-002 2.77626842e-001 2.63243131e-002 -1.38777878e-017
      1.08811095e-001 -2.34271400e-003 4.40519024e-003 4.40735936e-001
      -1.38777878e-017 -8.72934312e-002 7.41156191e-002 9.17649083e-003
      -7.32601508e-002 3.62157263e-002 -1.26202151e-001 -1.38777878e-017
      -1.38777878e-017 -1.38777878e-017 -1.38777878e-017
      -1.38777878e-017 -1.38777878e-017 -1.38777878e-017
      -1.38777878e-017 -1.38777878e-017 -4.77454811e-003 1.90894857e-001
      -1.38777878e-017 -1.38777878e-017 -1.38777878e-017
      -5.58292959e-004 5.68258693e-004 -1.38777878e-017 -1.38777878e-017
      -1.38777878e-017 -1.38777878e-017 -1.38777878e-017
      -1.38777878e-017 -1.38777878e-017 -1.38777878e-017
      -1.38777878e-017 -1.38777878e-017 -1.38777878e-017
      -1.38777878e-017 -1.38777878e-017 -1.38777878e-017
      -1.38777878e-017 -1.38777878e-017 -1.38777878e-017
      -1.38777878e-017 -1.38777878e-017 -1.38777878e-017
      -7.51275197e-002 1.24517176e-002 5.36268651e-002 -2.33828016e-002
      6.44411054e-003 1.24181390e-001 1.50829464e-001 3.18106194e-003
      9.06844586e-002 -1.38777878e-017 -1.38777878e-017 -1.38777878e-017
      -1.38777878e-017 -1.38777878e-017 -1.38777878e-017
      -1.38777878e-017 -1.38777878e-017 -1.38777878e-017 9.87774692e-003
      1.61724556e-002 -3.63078061e-003 -1.24572553e-002 -1.38777878e-017
      -1.38777878e-017 -1.38777878e-017 -1.38777878e-017 1.07298885e-002
      -1.16650164e-002 -1.38777878e-017 -1.38777878e-017 9.82972211e-004
      -5.60168969e-003 -1.38777878e-017 -1.38777878e-017
      -6.19912241e-003 -1.38777878e-017</_>
    <_>
      -5.01355295e-008 -6.93889390e-017 -6.93889390e-017
      -6.93889390e-017 -6.93889390e-017 -6.93889390e-017
      -6.93889390e-017 -5.01355295e-008 -6.93889390e-017
      -6.93889390e-017 -6.93889390e-017 -6.93889390e-017
      -6.93889390e-017 -6.93889390e-017 -6.93889390e-017
      -6.93889390e-017 1.70122702e-002 -7.85305863e-004 3.61521155e-001
      2.23027885e-001 -6.93889390e-017 5.09767309e-002 3.98601107e-002
      1.89127028e-002 8.90857801e-002 2.15899706e-001 -6.93889390e-017
      7.39297494e-002 3.52970809e-002 3.51190083e-002 8.99752676e-002
      2.08861753e-001 -6.93889390e-017 7.19468519e-002 3.01930439e-002
      2.23936010e-002 8.90218467e-002 1.39910011e-002 -6.93889390e-017
      6.80691376e-002 2.32135244e-002 4.35429672e-003 8.80889818e-002
      6.13798806e-003 -6.47494346e-002 5.03897108e-002 1.57294255e-002
      -1.45606518e-001 -6.93889390e-017 -6.72964826e-002
      -6.93889390e-017 -6.93889390e-017 -6.93889390e-017
      -6.93889390e-017 -6.93889390e-017 -6.93889390e-017
      -6.93889390e-017 -6.93889390e-017 -6.93889390e-017
      -6.93889390e-017 1.91029608e-001 -6.93889390e-017 -6.93889390e-017
      -6.93889390e-017 -9.12875752e-004 -1.91521330e-003
      -6.93889390e-017 -6.93889390e-017 -6.93889390e-017
      -6.93889390e-017 -4.56437876e-004 -2.54706503e-003
      -6.93889390e-017 -6.93889390e-017 -6.93889390e-017
      -6.93889390e-017 -6.93889390e-017 -6.93889390e-017
      -6.93889390e-017 -6.93889390e-017 -6.93889390e-017
      -6.93889390e-017 -6.93889390e-017 -6.93889390e-017
      -6.93889390e-017 -6.93889390e-017 5.09767309e-002 3.22189182e-002
      9.39944088e-002 7.39297494e-002 3.13862301e-002 9.22391862e-002
      4.30969382e-003 6.81468891e-003 8.34175050e-002 -6.93889390e-017
      -6.93889390e-017 -6.93889390e-017 -6.93889390e-017
      -6.93889390e-017 -6.93889390e-017 -6.93889390e-017
      -6.93889390e-017 -6.93889390e-017 3.79399396e-002 2.52913944e-002
      -5.40499296e-003 -3.16011673e-003 -6.93889390e-017
      -6.93889390e-017 -6.93889390e-017 -6.93889390e-017 3.41193341e-002
      -7.95203913e-003 -6.93889390e-017 -6.93889390e-017
      -1.87493535e-003 1.36236008e-003 -6.93889390e-017 -6.93889390e-017
      -4.42198105e-003 -6.93889390e-017</_>
    <_>
      -1.82807256e-007 0. 0. 0. 0. 0. 0. -1.82807256e-007 0. 0. 0. 0. 0.
      0. 0. 0. -5.51583525e-003 1.90716594e-001 3.05271149e-001
      1.48548827e-001 0. -4.04377207e-002 -3.26968089e-004
      -1.93006955e-002 1.11941256e-001 1.47122398e-001 0.
      -1.61167681e-002 3.43815843e-003 -1.53287984e-002 8.55532810e-002
      5.76956905e-002 0. -2.76361946e-002 -5.41210407e-003
      -3.33583206e-002 8.75859484e-002 4.20714058e-002 0.
      -1.09204119e-002 -6.53715339e-003 -3.61783765e-002 8.66915584e-002
      -3.64040732e-002 -1.43262118e-001 1.47321880e-001 -4.97453241e-003
      -1.58141926e-001 -1.92362010e-001 -8.90527666e-002 0. 0. 0. 0. 0.
      0. 0. 0. 0. 0. 1.85618140e-002 0. 0. 0. 0. 5.44142583e-003 0. 0.
      0. 0. 0. -3.22888382e-002 -8.35573971e-002 0. 0. 0. 0.
      -7.37068057e-002 -8.35573971e-002 0. 0. 0. 0. -1.02942713e-001 0.
      0. -4.04377207e-002 -4.78219846e-003 1.13169350e-001
      -1.61167681e-002 -8.06116033e-003 8.82698074e-002 -1.51035963e-002
      -1.45516703e-002 2.01956853e-002 0. 0. 0. 0. 0. 0. 0. 0. 0.
      -8.16668093e-004 -1.53287984e-002 -2.19854303e-002
      -3.98990251e-002 0. 0. 0. 0. -3.55189946e-003 -2.37667970e-002 0.
      0. -1.22473696e-002 -2.22602766e-002 0. 0. -1.09718461e-002 0.</_>
    <_>
      -1.34664708e-006 -6.93889390e-018 -6.93889390e-018
      -6.93889390e-018 -6.93889390e-018 -6.93889390e-018
      -6.93889390e-018 -1.34664708e-006 -6.93889390e-018
      -6.93889390e-018 -6.93889390e-018 -6.93889390e-018
      -6.93889390e-018 -6.93889390e-018 -6.93889390e-018
      -6.93889390e-018 2.41643097e-002 1.80610325e-002 1.25861049e-001
      7.85757899e-002 -6.93889390e-018 4.76362258e-002 9.10615269e-003
      5.96503075e-003 1.28143013e-001 7.74840787e-002 -6.93889390e-018
      6.51429519e-002 7.51686888e-003 8.42890795e-003 1.29023328e-001
      7.64767453e-002 4.78322734e-004 7.09478883e-003 3.63655272e-003
      5.03646396e-003 1.29920885e-001 5.12494035e-002 -6.93889390e-018
      5.58221946e-003 1.10200769e-003 -1.63042150e-003 1.30662575e-001
      2.20984835e-002 -3.36843990e-002 -6.47830591e-002 2.80229608e-003
      -4.60819118e-002 -6.93889390e-018 -3.36843990e-002
      -6.93889390e-018 -6.93889390e-018 -6.93889390e-018
      -6.93889390e-018 -6.93889390e-018 -6.93889390e-018
      -6.93889390e-018 -6.93889390e-018 -6.93889390e-018
      -6.93889390e-018 2.52310708e-002 -6.93889390e-018 -6.93889390e-018
      -6.93889390e-018 -6.93889390e-018 2.28609843e-003 -6.93889390e-018
      -6.93889390e-018 -6.93889390e-018 -6.93889390e-018
      -4.63150106e-002 -6.93889390e-018 -6.93889390e-018
      -6.93889390e-018 -6.93889390e-018 -6.93889390e-018
      -8.29228573e-003 -6.93889390e-018 -6.93889390e-018
      -6.93889390e-018 -6.93889390e-018 -6.93889390e-018
      -4.62556537e-003 -6.93889390e-018 -6.93889390e-018
      -6.93889390e-018 4.76362258e-002 9.10615269e-003 1.27885133e-001
      1.10262586e-002 5.48274070e-003 1.30772248e-001 2.43168175e-002
      2.12764600e-003 7.67936036e-002 -6.93889390e-018 -6.93889390e-018
      -6.93889390e-018 -6.93889390e-018 -6.93889390e-018
      -6.93889390e-018 -6.93889390e-018 -6.93889390e-018
      -6.93889390e-018 9.73263662e-003 7.05156336e-003 -6.22163585e-004
      -4.89004236e-003 -6.93889390e-018 -6.93889390e-018
      -6.93889390e-018 -6.93889390e-018 9.73263662e-003 -1.25056761e-003
      -6.93889390e-018 -6.93889390e-018 3.74235609e-003 -1.99935143e-003
      -6.93889390e-018 -6.93889390e-018 3.11395223e-003 -6.93889390e-018</_>
    <_>
      3.85408256e-008 -1.04083409e-017 -1.04083409e-017 -1.04083409e-017
      -1.04083409e-017 -1.04083409e-017 -1.04083409e-017 3.85408256e-008
      -1.04083409e-017 -1.04083409e-017 -1.04083409e-017
      -1.04083409e-017 -1.04083409e-017 -1.04083409e-017
      -1.84116051e-001 -2.30061382e-001 3.40457354e-003 -1.60339531e-002
      -1.94270853e-002 -3.66443917e-002 -2.22596765e-001
      -1.90492831e-002 4.80618235e-003 -2.60320981e-003 -1.80042647e-002
      -2.92787720e-002 -2.18082801e-001 -1.23055475e-002 1.80634984e-003
      3.45459743e-003 -1.33444006e-002 -2.56463289e-002 -1.13325827e-001
      -1.03869820e-002 5.81859471e-003 4.23461944e-003 -1.66546588e-003
      1.43005578e-002 -3.45767364e-002 -1.34136090e-002 3.15301074e-003
      5.67284087e-003 9.69093964e-002 4.35729790e-003 -6.56067729e-002
      9.22932848e-003 4.43041185e-003 -1.27330865e-003 -7.71038979e-002
      -2.15838198e-002 -1.04083409e-017 -1.04083409e-017
      -1.04083409e-017 -1.04083409e-017 -1.04083409e-017
      -1.04083409e-017 -1.04083409e-017 -1.32883281e-001
      -1.47258223e-003 -1.04083409e-017 1.49220740e-002 -1.04083409e-017
      -1.04083409e-017 -3.88670489e-002 -3.60600348e-003
      -1.89468963e-003 -1.04083409e-017 -1.04083409e-017
      -1.04083409e-017 -1.04083409e-017 -2.45430367e-003
      -1.04083409e-017 -1.04083409e-017 -1.04083409e-017
      -1.04083409e-017 -1.04083409e-017 -1.47258223e-003
      -1.04083409e-017 -1.04083409e-017 -1.04083409e-017
      -1.04083409e-017 -1.04083409e-017 -1.60407531e-003
      -7.19721466e-002 -1.04083409e-017 -1.04083409e-017
      -1.90492831e-002 4.09326004e-003 -2.01537721e-002 -1.22515075e-002
      3.17810173e-003 -1.50891440e-002 1.33014366e-003 4.43041185e-003
      9.76337865e-002 -1.04083409e-017 -1.04083409e-017 -1.04083409e-017
      -1.04083409e-017 -1.04083409e-017 -1.04083409e-017
      -1.04083409e-017 -1.04083409e-017 -1.04083409e-017 5.01626218e-003
      2.56344303e-003 1.57060567e-003 -7.65359611e-004 -1.04083409e-017
      -1.04083409e-017 -1.04083409e-017 -1.04083409e-017 4.30333940e-003
      -2.57258047e-003 -1.04083409e-017 -1.04083409e-017 1.45806081e-003
      -1.94242154e-003 -1.04083409e-017 -1.04083409e-017
      -2.09323992e-003 -1.04083409e-017</_>
    <_>
      -1.13715350e-006 -2.77555756e-017 -2.77555756e-017
      -2.77555756e-017 -2.77555756e-017 -2.77555756e-017
      -2.77555756e-017 -1.13715350e-006 -2.77555756e-017
      -2.77555756e-017 -2.77555756e-017 -2.77555756e-017
      -2.77555756e-017 -2.77555756e-017 -6.87178299e-002
      -2.77555756e-017 1.27407357e-001 1.14854164e-001 1.76065594e-001
      1.02126732e-001 -1.53209776e-001 -3.90128344e-002 4.59533744e-002
      3.95055190e-002 1.05737813e-001 4.55608293e-002 -1.88533783e-001
      -3.54537629e-002 2.57582422e-002 7.14798970e-003 2.51533575e-002
      1.07381895e-001 -7.46066868e-002 5.65442257e-002 -1.17307529e-002
      -1.59609411e-002 1.17155820e-001 -1.32531580e-002 -2.77555756e-017
      1.38159916e-001 -1.54095730e-002 -2.95487028e-002 1.85535714e-001
      -5.03726341e-002 -6.41956404e-002 5.70481159e-002 -1.17002632e-002
      -8.08843896e-002 -7.81285316e-002 -4.32039127e-002
      -2.77555756e-017 -2.77555756e-017 -2.77555756e-017
      -2.77555756e-017 -2.77555756e-017 -2.77555756e-017
      -2.77555756e-017 -2.77555756e-017 -2.77555756e-017
      -2.77555756e-017 6.21886179e-002 -2.77555756e-017 -2.77555756e-017
      -2.77555756e-017 -2.77555756e-017 2.05579167e-003 -2.77555756e-017
      -2.77555756e-017 -2.77555756e-017 -2.77555756e-017
      -2.77555756e-017 -2.77555756e-017 -2.77555756e-017
      -2.77555756e-017 -2.77555756e-017 -2.77555756e-017
      -2.77555756e-017 -2.77555756e-017 -2.77555756e-017
      -2.77555756e-017 -2.77555756e-017 -2.77555756e-017
      -2.77555756e-017 -2.77555756e-017 -2.77555756e-017
      -2.77555756e-017 -4.27610762e-002 4.59533744e-002 1.05121650e-001
      -3.54189500e-002 -8.25598277e-003 2.95864381e-002 7.59826899e-002
      -1.52322957e-002 2.01587868e-003 -2.77555756e-017 -2.77555756e-017
      -2.77555756e-017 -2.77555756e-017 -2.77555756e-017
      -2.77555756e-017 -2.77555756e-017 -2.77555756e-017
      -2.77555756e-017 2.97065862e-002 7.14798970e-003 -9.31291003e-003
      -1.88078154e-002 -2.77555756e-017 -2.77555756e-017
      -2.77555756e-017 -2.77555756e-017 1.37832211e-002 -9.51745640e-003
      -2.77555756e-017 -2.77555756e-017 -6.28350303e-003
      -1.27865719e-002 -2.77555756e-017 -2.77555756e-017
      -5.99412248e-003 -2.77555756e-017</_>
    <_>
      8.03466271e-009 1.38777878e-017 1.38777878e-017 1.38777878e-017
      1.38777878e-017 1.38777878e-017 1.38777878e-017 8.03466271e-009
      1.38777878e-017 1.38777878e-017 1.38777878e-017 1.38777878e-017
      1.38777878e-017 1.38777878e-017 1.38777878e-017 1.38777878e-017
      5.03176004e-002 4.67403382e-002 1.27361432e-001 7.65671879e-002
      1.38777878e-017 3.54743637e-002 5.29713258e-002 4.73553464e-002
      1.29564539e-001 7.59497508e-002 1.38777878e-017 3.31687778e-002
      5.25100902e-002 4.80859354e-002 6.56996071e-002 7.44345859e-002
      1.38777878e-017 2.63196751e-002 4.69759107e-002 4.27892320e-002
      4.14720550e-002 4.35142778e-002 -8.54956452e-003 2.76027005e-002
      4.77618016e-002 4.26476821e-002 4.25058715e-002 1.90901347e-002
      -4.72247750e-002 -2.85413433e-002 4.39882614e-002 -1.04659470e-002
      -7.76060224e-002 8.08741059e-003 1.38777878e-017 1.38777878e-017
      1.38777878e-017 1.38777878e-017 1.38777878e-017 1.38777878e-017
      1.38777878e-017 1.38777878e-017 1.38777878e-017 1.38777878e-017
      3.03033181e-002 1.38777878e-017 1.38777878e-017 1.38777878e-017
      -1.43588837e-002 1.96516095e-003 1.38777878e-017 1.38777878e-017
      1.38777878e-017 1.38777878e-017 -7.53076375e-002 1.38777878e-017
      1.38777878e-017 1.38777878e-017 1.38777878e-017 1.38777878e-017
      -6.80896789e-002 -3.49593349e-002 1.38777878e-017 1.38777878e-017
      1.38777878e-017 1.38777878e-017 1.38777878e-017 -3.03846728e-002
      1.38777878e-017 1.38777878e-017 3.54743637e-002 5.29713258e-002
      1.29606888e-001 3.01087499e-002 4.95788343e-002 5.40402606e-002
      2.83181276e-002 4.28957902e-002 4.40197401e-002 1.38777878e-017
      1.38777878e-017 1.38777878e-017 1.38777878e-017 1.38777878e-017
      1.38777878e-017 1.38777878e-017 1.38777878e-017 1.38777878e-017
      5.45845516e-002 4.80859354e-002 4.47400250e-002 4.21642438e-002
      1.38777878e-017 1.38777878e-017 1.38777878e-017 1.38777878e-017
      5.31361215e-002 4.56677750e-002 1.38777878e-017 1.38777878e-017
      4.87503223e-002 4.63684648e-002 1.38777878e-017 1.38777878e-017
      4.98683676e-002 1.38777878e-017</_>
    <_>
      -2.45410524e-006 -2.77555756e-017 -2.77555756e-017
      -2.77555756e-017 -2.77555756e-017 -2.77555756e-017
      -2.77555756e-017 -2.45410524e-006 -2.77555756e-017
      -2.77555756e-017 -2.77555756e-017 -2.77555756e-017
      -2.77555756e-017 -2.77555756e-017 -2.77555756e-017
      -5.30599177e-001 -1.74047556e-002 6.81321649e-003 2.76946276e-002
      8.72888267e-002 -2.77555756e-017 -7.61159733e-002 -2.21782532e-002
      -2.32777297e-002 -1.89872514e-002 -3.29047479e-002
      -2.77555756e-017 6.51733801e-002 -2.75367182e-002 7.32326042e-003
      1.03382006e-001 5.97974993e-002 -3.09784144e-001 8.79737362e-002
      -3.63335870e-002 -2.38597989e-002 1.69458300e-001 -7.84654841e-002
      -2.77555756e-017 6.99492767e-002 -1.35269240e-002 -2.85558235e-002
      5.79709291e-001 -6.34879433e-003 3.09616104e-002 9.81226447e-004
      -9.06587020e-003 -1.58777670e-003 5.41985817e-002 -2.04332352e-001
      -2.77555756e-017 -2.77555756e-017 -4.40097041e-002
      -4.44274731e-002 -2.40816802e-001 -2.77555756e-017
      -2.77555756e-017 -2.77555756e-017 -1.54715609e-002
      -2.81713307e-001 2.43183538e-001 -2.77555756e-017 -2.77555756e-017
      -2.77555756e-017 -2.77555756e-017 3.31079634e-003 -2.77555756e-017
      -2.77555756e-017 -2.77555756e-017 -2.77555756e-017
      -2.77555756e-017 -2.77555756e-017 -2.77555756e-017
      -2.77555756e-017 -2.77555756e-017 -2.77555756e-017
      -2.77555756e-017 -2.77555756e-017 -2.77555756e-017
      -2.77555756e-017 -2.77555756e-017 -2.77555756e-017
      -2.77555756e-017 -2.77555756e-017 -2.77555756e-017
      -2.77555756e-017 -8.12662095e-002 -2.21782532e-002
      -1.25814360e-002 8.28921348e-002 -2.61841025e-002 1.16953783e-001
      1.05533287e-001 -1.16097871e-002 1.42855614e-001 -2.77555756e-017
      -2.77555756e-017 -2.77555756e-017 -2.77555756e-017
      -2.77555756e-017 -2.77555756e-017 -2.77555756e-017
      -2.77555756e-017 -2.77555756e-017 -1.97257586e-002
      -1.00464290e-002 -2.81354189e-002 -3.40093710e-002
      -2.77555756e-017 -2.77555756e-017 -2.77555756e-017
      -2.77555756e-017 -1.84504893e-002 -3.17119844e-002
      -2.77555756e-017 -2.77555756e-017 -2.02587433e-002
      -2.05034912e-002 -2.77555756e-017 -2.77555756e-017
      -2.25600377e-002 -2.77555756e-017</_>
    <_>
      1.64479718e-006 1.94289029e-016 1.94289029e-016 1.94289029e-016
      1.94289029e-016 1.94289029e-016 1.94289029e-016 1.64479718e-006
      1.94289029e-016 1.94289029e-016 1.94289029e-016 1.94289029e-016
      1.94289029e-016 1.94289029e-016 1.07671954e-001 -1.55024663e-001
      3.66415526e-003 -1.33544788e-001 5.32862425e-001 1.54949397e-001
      1.94289029e-016 2.04256803e-001 5.32822125e-002 3.85063477e-002
      3.62831891e-001 1.59597114e-001 -1.07526383e-003 1.21223800e-001
      1.02254532e-001 5.54714166e-002 3.53936572e-003 1.94289029e-016
      -1.07526383e-003 5.73500730e-002 1.00642823e-001 4.82300222e-002
      -4.60105501e-002 1.94289029e-016 1.94289029e-016 3.39950398e-002
      7.60164335e-002 2.45983638e-002 -1.96286514e-001 1.94289029e-016
      2.85061628e-001 3.58346887e-002 3.25601175e-002 1.94274150e-002
      1.94289029e-016 1.03138937e-002 1.94289029e-016 1.94289029e-016
      1.94289029e-016 1.94289029e-016 1.94289029e-016 1.94289029e-016
      1.94289029e-016 1.94289029e-016 -1.06389476e-002 2.99469265e-003
      1.94289029e-016 1.94289029e-016 1.94289029e-016 1.94289029e-016
      -6.64258748e-003 -1.88737037e-003 1.94289029e-016 1.94289029e-016
      1.94289029e-016 1.94289029e-016 -2.95307022e-003 -1.88737037e-003
      1.94289029e-016 1.94289029e-016 1.94289029e-016 1.94289029e-016
      3.52598098e-003 1.94289029e-016 1.94289029e-016 1.94289029e-016
      1.94289029e-016 1.94289029e-016 1.94289029e-016 1.94289029e-016
      1.94289029e-016 1.94289029e-016 2.04256803e-001 4.76200990e-002
      3.63442898e-001 1.18675642e-001 9.94234830e-002 3.53936572e-003
      -1.09874122e-001 3.48831825e-002 1.03138937e-002 1.94289029e-016
      1.94289029e-016 1.94289029e-016 1.94289029e-016 1.94289029e-016
      1.94289029e-016 1.94289029e-016 1.94289029e-016 1.94289029e-016
      9.11888629e-002 5.06595634e-002 2.72400770e-002 2.92839669e-002
      1.94289029e-016 1.94289029e-016 1.94289029e-016 1.94289029e-016
      8.83577988e-002 3.35461162e-002 1.94289029e-016 1.94289029e-016
      2.20849421e-002 4.44813557e-002 1.94289029e-016 1.94289029e-016
      2.83909794e-002 1.94289029e-016</_>
    <_>
      7.49327057e-007 -4.33680869e-017 -4.33680869e-017 -4.33680869e-017
      -4.33680869e-017 -4.33680869e-017 -4.33680869e-017 7.49327057e-007
      -4.33680869e-017 -4.33680869e-017 -4.33680869e-017
      -4.33680869e-017 -4.33680869e-017 -4.33680869e-017 6.14021532e-002
      -4.33680869e-017 -1.44742727e-002 1.88867316e-001 2.09835261e-001
      7.57329166e-002 -4.33680869e-017 6.04467243e-002 -9.62475035e-003
      -2.46713869e-002 9.37331766e-002 7.96007663e-002 -4.33680869e-017
      8.17157514e-003 4.78658658e-005 -2.82589532e-002 -5.78263290e-002
      -2.57772543e-002 -4.33680869e-017 -1.30755842e-001
      -7.78710004e-003 -3.57710905e-002 -1.17944278e-001
      -5.76581098e-002 -4.33680869e-017 -1.14361227e-001
      -2.51433776e-005 -2.37553548e-002 -2.09228933e-001
      -5.71151637e-002 1.39593437e-001 1.45252481e-001 -3.37968906e-003
      -1.83680505e-002 -2.34897643e-001 2.80536786e-002 -4.33680869e-017
      -4.33680869e-017 -4.33680869e-017 -4.33680869e-017
      -4.33680869e-017 -4.33680869e-017 -4.33680869e-017
      -4.33680869e-017 -4.33680869e-017 2.01426563e-003 -4.33680869e-017
      -4.33680869e-017 -4.33680869e-017 -4.33680869e-017 4.66544268e-004
      -4.33680869e-017 -4.33680869e-017 -4.33680869e-017
      -4.33680869e-017 -4.33680869e-017 -6.88271757e-005
      -3.65284905e-002 -2.42267400e-002 -4.33680869e-017
      -4.33680869e-017 -4.33680869e-017 1.32047711e-003 -8.43331739e-002
      -5.40606081e-002 -4.33680869e-017 -4.33680869e-017
      -4.33680869e-017 -4.33680869e-017 -4.57753986e-002
      -2.97272447e-002 -4.33680869e-017 6.07565567e-002 -1.31222103e-002
      9.30183008e-002 -6.44201785e-003 -6.08470151e-003 -9.03912336e-002
      -9.99464542e-002 -8.30430910e-003 -1.26860708e-001
      -4.33680869e-017 -4.33680869e-017 -4.33680869e-017
      -4.33680869e-017 -4.33680869e-017 -4.33680869e-017
      -4.33680869e-017 -4.33680869e-017 -4.33680869e-017
      -4.14070208e-003 -2.80982740e-002 -3.38872988e-003
      -2.34003197e-002 -4.33680869e-017 -4.33680869e-017
      -4.33680869e-017 -4.33680869e-017 -6.22235658e-003 3.56140081e-004
      -4.33680869e-017 -4.33680869e-017 -5.49919764e-003
      -1.71171091e-002 -4.33680869e-017 -4.33680869e-017 3.56140081e-004
      -4.33680869e-017</_>
    <_>
      -2.00874774e-006 -5.55111512e-017 -5.55111512e-017
      -5.55111512e-017 -5.55111512e-017 -5.55111512e-017
      -5.55111512e-017 -2.00874774e-006 -5.55111512e-017
      -5.55111512e-017 -5.55111512e-017 -5.55111512e-017
      -5.55111512e-017 -5.55111512e-017 3.71087925e-003 -5.55111512e-017
      6.32625669e-002 1.15645826e-002 2.06687048e-001 7.55227953e-002
      -5.55111512e-017 2.31684446e-001 1.27300723e-002 1.22416709e-002
      2.20362335e-001 7.56829754e-002 -5.55111512e-017 2.16581315e-001
      2.23336257e-002 1.29007008e-002 1.01460963e-001 -5.55111512e-017
      -5.55111512e-017 -1.49963275e-002 1.40535245e-002 3.87087511e-003
      5.17921289e-003 -5.55111512e-017 -5.55111512e-017 -1.99506115e-002
      2.21227575e-003 -5.11929300e-003 -5.55111512e-017 -5.55111512e-017
      1.30847067e-001 -2.13048570e-002 4.85438667e-003 -7.01765670e-003
      -5.55111512e-017 -1.64915156e-002 -5.55111512e-017
      -5.55111512e-017 -5.55111512e-017 -5.55111512e-017
      -5.55111512e-017 -5.55111512e-017 -5.55111512e-017
      -5.55111512e-017 -5.55111512e-017 1.45287486e-003 -5.55111512e-017
      -5.55111512e-017 -5.55111512e-017 -5.55111512e-017
      -5.55111512e-017 -5.55111512e-017 -5.55111512e-017
      -5.55111512e-017 -5.55111512e-017 -5.55111512e-017
      -7.09002465e-002 -5.55111512e-017 -5.55111512e-017
      -5.55111512e-017 -5.55111512e-017 -5.55111512e-017
      -1.46850357e-002 -5.55111512e-017 -5.55111512e-017
      -5.55111512e-017 -5.55111512e-017 -5.55111512e-017
      -8.78263824e-003 -5.55111512e-017 -5.55111512e-017
      -5.55111512e-017 2.31684446e-001 1.22920973e-002 2.18936160e-001
      9.06189308e-002 1.85221191e-002 1.01460963e-001 1.54474042e-002
      2.27777683e-003 -1.64915156e-002 -5.55111512e-017 -5.55111512e-017
      -5.55111512e-017 -5.55111512e-017 -5.55111512e-017
      -5.55111512e-017 -5.55111512e-017 -5.55111512e-017
      -5.55111512e-017 2.18374468e-002 1.30898152e-002 1.11524109e-002
      -1.05712237e-002 -5.55111512e-017 -5.55111512e-017
      -5.55111512e-017 -5.55111512e-017 2.18374468e-002 1.09260306e-002
      -5.55111512e-017 -5.55111512e-017 1.11524109e-002 -3.76199232e-003
      -5.55111512e-017 -5.55111512e-017 1.09260306e-002 -5.55111512e-017</_>
    <_>
      8.83851499e-007 -1.73472348e-017 -1.73472348e-017 -1.73472348e-017
      -1.73472348e-017 -1.73472348e-017 -1.73472348e-017 8.83851499e-007
      -1.73472348e-017 -1.73472348e-017 -1.73472348e-017
      -1.73472348e-017 -1.73472348e-017 -1.73472348e-017
      -1.17197402e-001 -1.88682973e-001 -1.04295863e-002
      -1.07393721e-002 -4.05569002e-002 -8.28570351e-002
      -1.81825638e-001 -9.14427824e-003 -1.27365650e-003
      -7.13031332e-004 -2.30498575e-002 -7.33185560e-002
      -1.79608315e-001 -9.04956087e-003 -1.05417718e-003
      -6.43399265e-003 -5.60072921e-002 -8.43765214e-002
      -9.32960063e-002 -1.28609836e-001 3.28953611e-003 -2.54515302e-003
      -7.63317719e-002 -1.73472348e-017 -1.73472348e-017
      -5.67006804e-002 1.08119212e-002 7.14729168e-003 -1.73472348e-017
      -1.73472348e-017 -6.26121229e-003 -3.08482032e-002 2.64383969e-003
      -3.03918659e-003 -8.39527994e-002 3.81908170e-003 -1.73472348e-017
      -1.73472348e-017 -1.73472348e-017 -1.73472348e-017
      -1.73472348e-017 -1.73472348e-017 -1.73472348e-017
      -8.15369338e-002 -1.21696910e-003 2.02997937e-003 -1.73472348e-017
      -1.73472348e-017 -1.73472348e-017 -1.73472348e-017
      -1.81804306e-003 -1.73472348e-017 -1.73472348e-017
      -1.73472348e-017 -1.73472348e-017 -1.73472348e-017
      -1.98705820e-003 -1.73472348e-017 -1.73472348e-017
      -1.73472348e-017 -1.73472348e-017 -1.73472348e-017
      -1.21696910e-003 -1.73472348e-017 -1.73472348e-017
      -1.73472348e-017 -1.73472348e-017 -1.73472348e-017
      -1.73472348e-017 -1.73472348e-017 -1.73472348e-017
      -1.73472348e-017 -9.14427824e-003 -8.53179023e-004
      -2.51404177e-002 -9.04956087e-003 -8.86528927e-004
      -7.22778291e-002 -9.46943015e-002 4.72480105e-003 1.71231683e-002
      -1.73472348e-017 -1.73472348e-017 -1.73472348e-017
      -1.73472348e-017 -1.73472348e-017 -1.73472348e-017
      -1.73472348e-017 -1.73472348e-017 -1.73472348e-017
      -1.27892673e-003 -4.82833106e-003 4.44547320e-003 6.23186305e-003
      -1.73472348e-017 -1.73472348e-017 -1.73472348e-017
      -1.73472348e-017 -1.27892673e-003 9.54120979e-003 -1.73472348e-017
      -1.73472348e-017 1.20022218e-003 4.56213020e-003 -1.73472348e-017
      -1.73472348e-017 6.29595900e-003 -1.73472348e-017</_>
    <_>
      3.85256378e-008 5.55111512e-017 5.55111512e-017 5.55111512e-017
      5.55111512e-017 5.55111512e-017 5.55111512e-017 3.85256378e-008
      5.55111512e-017 5.55111512e-017 5.55111512e-017 5.55111512e-017
      5.55111512e-017 5.55111512e-017 1.25357667e-002 5.55111512e-017
      1.91587776e-001 1.75022289e-001 2.14502484e-001 1.03500083e-001
      -2.98246235e-001 3.62129845e-002 6.69793636e-002 5.64338416e-002
      1.23169422e-001 -1.83254667e-002 -3.30766857e-001 1.08835287e-002
      4.31504846e-002 -1.07662920e-002 -4.88657616e-002 -1.41355917e-001
      -8.33466500e-002 -4.13682871e-002 -2.64093187e-002
      -4.40417603e-002 -3.40918712e-002 -2.08130732e-001 5.55111512e-017
      -1.03926733e-002 -1.42661519e-002 -4.29084711e-002
      -6.23881370e-002 -6.67748079e-002 4.83638793e-002 7.14927390e-002
      -2.15044357e-002 -4.80670109e-002 -1.60960123e-001 5.57707138e-002
      5.55111512e-017 5.55111512e-017 5.55111512e-017 5.55111512e-017
      5.55111512e-017 5.55111512e-017 5.55111512e-017 5.55111512e-017
      5.55111512e-017 4.13226848e-003 5.55111512e-017 5.55111512e-017
      5.55111512e-017 5.55111512e-017 5.55111512e-017 5.55111512e-017
      5.55111512e-017 5.55111512e-017 5.55111512e-017 5.55111512e-017
      5.55111512e-017 5.55111512e-017 5.55111512e-017 5.55111512e-017
      5.55111512e-017 5.55111512e-017 6.49933936e-004 5.55111512e-017
      5.55111512e-017 5.55111512e-017 5.55111512e-017 5.55111512e-017
      5.55111512e-017 5.55111512e-017 5.55111512e-017 5.55111512e-017
      3.07720676e-002 6.69793636e-002 1.17477536e-001 1.15293423e-002
      -1.12761604e-002 -4.89386991e-002 -3.48213986e-002
      -2.19238531e-002 -1.02096967e-001 5.55111512e-017 5.55111512e-017
      5.55111512e-017 5.55111512e-017 5.55111512e-017 5.55111512e-017
      5.55111512e-017 5.55111512e-017 5.55111512e-017 4.35305238e-002
      -4.36654501e-003 -5.11562033e-003 -1.55306859e-002 5.55111512e-017
      5.55111512e-017 5.55111512e-017 5.55111512e-017 1.95007324e-002
      1.30777364e-003 5.55111512e-017 5.55111512e-017 -5.11562033e-003
      -1.32559193e-002 5.55111512e-017 5.55111512e-017 1.30777364e-003
      5.55111512e-017</_>
    <_>
      2.18048484e-007 1.38777878e-017 1.38777878e-017 1.38777878e-017
      1.38777878e-017 1.38777878e-017 1.38777878e-017 2.18048484e-007
      1.38777878e-017 1.38777878e-017 1.38777878e-017 1.38777878e-017
      1.38777878e-017 1.38777878e-017 3.08077540e-002 1.38777878e-017
      5.60661815e-002 2.70824470e-002 1.12654559e-001 3.43539715e-002
      1.38777878e-017 7.98453242e-002 6.00198582e-002 5.48650883e-002
      1.20061539e-001 3.56838033e-002 1.38777878e-017 2.46931612e-002
      6.63399324e-002 5.43859862e-002 4.45493460e-002 1.38777878e-017
      1.38777878e-017 1.82443690e-002 6.22289777e-002 5.17336018e-002
      -4.08654958e-002 1.38777878e-017 -6.41308129e-002 1.61281619e-002
      6.27724305e-002 5.27130663e-002 -9.29074585e-002 1.38777878e-017
      8.09166133e-002 1.78369116e-002 5.36639877e-002 4.76584658e-002
      -9.78405997e-002 5.47447167e-002 1.38777878e-017 1.38777878e-017
      1.38777878e-017 1.38777878e-017 1.38777878e-017 1.38777878e-017
      1.38777878e-017 1.38777878e-017 1.38777878e-017 6.64915598e-004
      1.38777878e-017 1.38777878e-017 1.38777878e-017 1.38777878e-017
      -1.07706875e-001 1.38777878e-017 1.38777878e-017 1.38777878e-017
      1.38777878e-017 1.38777878e-017 -8.13968033e-002 1.38777878e-017
      1.38777878e-017 1.38777878e-017 1.38777878e-017 1.38777878e-017
      -6.29297122e-002 1.38777878e-017 1.38777878e-017 1.38777878e-017
      1.38777878e-017 1.38777878e-017 1.38777878e-017 -3.12432162e-002
      1.38777878e-017 1.38777878e-017 7.98453242e-002 6.00198582e-002
      1.19618267e-001 2.22265851e-002 6.55177385e-002 4.45493460e-002
      2.99408399e-002 5.70171066e-002 -3.89849357e-002 1.38777878e-017
      1.38777878e-017 1.38777878e-017 1.38777878e-017 1.38777878e-017
      1.38777878e-017 1.38777878e-017 1.38777878e-017 1.38777878e-017
      6.67832047e-002 5.68240099e-002 6.36231676e-002 5.86043932e-002
      1.38777878e-017 1.38777878e-017 1.38777878e-017 1.38777878e-017
      6.67832047e-002 6.58395514e-002 1.38777878e-017 1.38777878e-017
      6.36231676e-002 6.28082454e-002 1.38777878e-017 1.38777878e-017
      6.58395514e-002 1.38777878e-017</_>
    <_>
      4.01857214e-008 -5.55111512e-017 -5.55111512e-017 -5.55111512e-017
      -5.55111512e-017 -5.55111512e-017 -5.55111512e-017 4.01857214e-008
      -5.55111512e-017 -5.55111512e-017 -5.55111512e-017
      -5.55111512e-017 -5.55111512e-017 -5.55111512e-017 2.93818891e-001
      -6.10059619e-001 -8.58092681e-002 -5.81965968e-002
      -2.28520453e-001 -7.48950429e-003 -5.55111512e-017 3.52136105e-001
      -6.76374882e-002 -6.64324090e-002 -5.03216572e-002 2.24878080e-002
      -5.55111512e-017 3.64653587e-001 -4.59188744e-002 -6.53275400e-002
      1.83312997e-001 -4.54088420e-001 -1.92456227e-002 -1.37272656e-001
      -7.15889856e-002 -5.80023676e-002 4.18042690e-002 -8.10651258e-002
      -5.55111512e-017 -1.18568309e-001 -3.23773944e-004
      -6.60491362e-002 -1.60245970e-002 -3.38790603e-002 4.18766618e-001
      -1.06585417e-002 -3.69918682e-002 2.09094491e-002 -5.55111512e-017
      1.15515642e-001 -5.55111512e-017 -5.55111512e-017 -5.55111512e-017
      -3.24212736e-003 -1.92119509e-001 -5.55111512e-017
      -5.55111512e-017 -5.55111512e-017 -3.23115359e-003
      -1.03720278e-002 -5.55111512e-017 -5.55111512e-017
      -5.55111512e-017 -5.55111512e-017 8.24045856e-003 -5.55111512e-017
      -5.55111512e-017 -5.55111512e-017 -5.55111512e-017
      -5.55111512e-017 -5.55111512e-017 -5.55111512e-017
      -5.55111512e-017 -5.55111512e-017 -5.55111512e-017
      -5.55111512e-017 -5.55111512e-017 -5.55111512e-017
      -5.55111512e-017 -5.55111512e-017 -5.55111512e-017
      -5.55111512e-017 -5.55111512e-017 -5.55111512e-017
      -5.55111512e-017 -5.55111512e-017 3.51894528e-001 -6.76374882e-002
      -6.80072606e-002 3.64653587e-001 -4.56917956e-002 1.83474049e-001
      -2.29811341e-001 -2.43137144e-002 6.56119883e-002 -5.55111512e-017
      -5.55111512e-017 -5.55111512e-017 -5.55111512e-017
      -5.55111512e-017 -5.55111512e-017 -5.55111512e-017
      -5.55111512e-017 -5.55111512e-017 -4.44639288e-002
      -6.28342256e-002 -1.81828439e-003 -1.90011896e-002
      -5.55111512e-017 -5.55111512e-017 -5.55111512e-017
      -5.55111512e-017 -4.44639288e-002 1.35455700e-002 -5.55111512e-017
      -5.55111512e-017 -1.37953591e-002 -1.79193057e-002
      -5.55111512e-017 -5.55111512e-017 1.56849518e-003 -5.55111512e-017</_>
    <_>
      -7.43023278e-008 -3.46944695e-018 -3.46944695e-018
      -3.46944695e-018 -3.46944695e-018 -3.46944695e-018
      -3.46944695e-018 -7.43023278e-008 -3.46944695e-018
      -3.46944695e-018 -3.46944695e-018 -3.46944695e-018
      -3.46944695e-018 -3.46944695e-018 -3.46944695e-018
      -3.46944695e-018 -7.95862917e-003 2.79925674e-001 -3.46944695e-018
      -3.46944695e-018 -3.46944695e-018 -3.05134207e-002
      -3.73357534e-002 -3.81859057e-002 6.15065992e-002 -3.46944695e-018
      -3.46944695e-018 -9.47102755e-002 -3.97507995e-002
      -5.28946370e-002 -7.48767797e-003 -3.27323377e-002
      -3.46944695e-018 -2.26767763e-001 -5.04968539e-002
      -4.80878390e-002 -1.17720403e-001 -1.15102388e-001
      -3.46944695e-018 -7.74264038e-002 -2.21484322e-002
      -2.57947333e-002 -1.21660709e-001 -1.09523296e-001
      -3.31650786e-002 1.89544395e-001 2.63129990e-003 -1.44969737e-002
      -3.37360531e-001 -3.18164006e-002 -3.46944695e-018
      -3.46944695e-018 -3.46944695e-018 -3.46944695e-018
      -3.46944695e-018 -3.46944695e-018 -3.46944695e-018
      -3.46944695e-018 -3.46944695e-018 -3.46944695e-018
      -3.46944695e-018 -3.46944695e-018 -3.46944695e-018
      -3.46944695e-018 2.38290080e-003 1.35417690e-003 -3.46944695e-018
      -3.46944695e-018 -3.46944695e-018 -3.46944695e-018 1.19145040e-003
      -1.35537367e-002 -3.05365324e-002 -3.46944695e-018
      -3.46944695e-018 -3.46944695e-018 -3.46944695e-018
      -1.29619509e-001 -1.03829056e-001 -3.46944695e-018
      -3.46944695e-018 -3.46944695e-018 -3.46944695e-018
      -3.79191786e-002 -7.25043118e-002 -3.46944695e-018
      -3.05134207e-002 -3.70769985e-002 5.94753399e-002 -2.25219861e-001
      -4.89948243e-002 -1.15301125e-001 -5.83729818e-002 3.34099215e-003
      -1.71936631e-001 -3.46944695e-018 -3.46944695e-018
      -3.46944695e-018 -3.46944695e-018 -3.46944695e-018
      -3.46944695e-018 -3.46944695e-018 -3.46944695e-018
      -3.46944695e-018 -4.14694361e-002 -4.40342687e-002
      -1.07800250e-003 -2.71380078e-002 -3.46944695e-018
      -3.46944695e-018 -3.46944695e-018 -3.46944695e-018
      -4.40342687e-002 2.65340321e-004 -3.46944695e-018 -3.46944695e-018
      -1.93453871e-003 -2.47551072e-002 -3.46944695e-018
      -3.46944695e-018 2.65340321e-004 -3.46944695e-018</_>
    <_>
      -1.41496903e-005 -2.22044605e-016 -2.22044605e-016
      -2.22044605e-016 -2.22044605e-016 -2.22044605e-016
      -2.22044605e-016 -1.41496903e-005 -2.22044605e-016
      -2.22044605e-016 -2.22044605e-016 -2.22044605e-016
      -2.22044605e-016 -2.22044605e-016 -2.22044605e-016 9.66556594e-002
      1.65060773e-001 4.76244763e-002 -2.22044605e-016 -2.22044605e-016
      -2.22044605e-016 6.26102626e-001 4.70345793e-003 -2.44167298e-002
      -2.22044605e-016 -2.22044605e-016 -2.22044605e-016 6.10612452e-001
      -1.40242800e-001 -8.15206692e-002 1.81990638e-002 -2.22044605e-016
      -2.22044605e-016 5.46011887e-002 -1.92129955e-001 -1.36700958e-001
      1.80336181e-002 -2.22044605e-016 -2.22044605e-016 -5.98827124e-001
      -1.75960332e-001 -1.38936996e-001 1.73718333e-002 -2.22044605e-016
      -1.77833021e-001 -6.03274584e-001 -4.75288108e-002
      -7.79851824e-002 -2.22044605e-016 3.18083167e-002 -2.22044605e-016
      -2.22044605e-016 -2.22044605e-016 -2.22044605e-016
      -2.22044605e-016 -2.22044605e-016 -2.22044605e-016
      -2.22044605e-016 6.63323142e-003 -2.22044605e-016 -2.22044605e-016
      -2.22044605e-016 -2.22044605e-016 -2.22044605e-016 7.28134811e-003
      -2.22044605e-016 -2.22044605e-016 -2.22044605e-016
      -2.22044605e-016 -2.22044605e-016 2.90566916e-003 1.65446036e-004
      -2.22044605e-016 -2.22044605e-016 -2.22044605e-016
      -2.22044605e-016 -1.81947462e-002 -2.22044605e-016
      -2.22044605e-016 -2.22044605e-016 -2.22044605e-016
      -2.22044605e-016 -3.25757936e-002 -2.22044605e-016
      -2.22044605e-016 -2.22044605e-016 6.26102626e-001 5.28251939e-003
      -2.22044605e-016 6.18481152e-002 -1.78359807e-001 1.81990638e-002
      1.92137361e-001 -9.02436301e-002 8.74625325e-001 -2.22044605e-016
      -2.22044605e-016 -2.22044605e-016 -2.22044605e-016
      -2.22044605e-016 -2.22044605e-016 -2.22044605e-016
      -2.22044605e-016 -2.22044605e-016 -6.66978359e-002
      -7.83704668e-002 -1.07633576e-001 -1.02812342e-001
      -2.22044605e-016 -2.22044605e-016 -2.22044605e-016
      -2.22044605e-016 -6.63669407e-002 -6.06927350e-002
      -2.22044605e-016 -2.22044605e-016 -9.73434970e-002
      -9.64786112e-002 -2.22044605e-016 -2.22044605e-016
      -5.04026562e-002 -2.22044605e-016</_>
    <_>
      7.45973523e-008 9.54097912e-018 9.54097912e-018 9.54097912e-018
      9.54097912e-018 9.54097912e-018 9.54097912e-018 7.45973523e-008
      9.54097912e-018 9.54097912e-018 9.54097912e-018 9.54097912e-018
      9.54097912e-018 9.54097912e-018 -1.16222233e-001 -5.44136539e-002
      -7.10436143e-003 -4.91017802e-003 -1.12424560e-001
      -1.07088916e-001 -1.15701720e-001 -4.94535193e-002
      -1.07507417e-002 -1.09307952e-002 -7.32002333e-002
      -1.02295376e-001 -1.05828807e-001 -5.80425076e-002
      -1.36637110e-002 -1.33904843e-002 -6.98546842e-002
      -6.22965172e-002 -5.59000522e-002 -5.58989942e-002
      -1.03020845e-002 -1.00172153e-002 -6.25273213e-002
      -1.06333457e-002 9.54097912e-018 -4.88386899e-002 -6.54014992e-003
      -5.85993892e-003 3.42773050e-002 9.54097912e-018 -1.30792393e-003
      -4.05559689e-003 -1.05386442e-002 -4.04160889e-003
      -4.99544144e-002 -9.17888153e-003 9.54097912e-018 9.54097912e-018
      9.54097912e-018 9.54097912e-018 9.54097912e-018 9.54097912e-018
      9.54097912e-018 -5.77298179e-002 2.77635967e-003 9.54097912e-018
      9.54097912e-018 9.54097912e-018 9.54097912e-018 -3.31594609e-003
      -7.46714533e-004 1.41683719e-004 9.54097912e-018 9.54097912e-018
      9.54097912e-018 9.54097912e-018 -9.54261690e-004 3.60502483e-004
      9.54097912e-018 9.54097912e-018 9.54097912e-018 9.54097912e-018
      -4.88079706e-004 9.54097912e-018 9.54097912e-018 9.54097912e-018
      9.54097912e-018 9.54097912e-018 9.54097912e-018 -3.08029493e-003
      9.54097912e-018 9.54097912e-018 -4.94535193e-002 -9.66923498e-003
      -7.42393732e-002 -5.05913198e-002 -1.32799158e-002
      -6.98406473e-002 -5.90347638e-003 -8.63792934e-003
      -1.24443313e-002 9.54097912e-018 9.54097912e-018 9.54097912e-018
      9.54097912e-018 9.54097912e-018 9.54097912e-018 9.54097912e-018
      9.54097912e-018 9.54097912e-018 -1.09363860e-002 -1.08796787e-002
      -5.93983429e-003 -7.90478941e-003 9.54097912e-018 9.54097912e-018
      9.54097912e-018 9.54097912e-018 -1.03956312e-002 -5.93281072e-003
      9.54097912e-018 9.54097912e-018 -6.35037385e-003 -9.12131090e-003
      9.54097912e-018 9.54097912e-018 -6.29285350e-003 9.54097912e-018</_>
    <_>
      -2.73820638e-006 9.71445147e-017 9.71445147e-017 9.71445147e-017
      9.71445147e-017 9.71445147e-017 9.71445147e-017 -2.73820638e-006
      9.71445147e-017 9.71445147e-017 9.71445147e-017 9.71445147e-017
      9.71445147e-017 9.71445147e-017 9.71445147e-017 9.71445147e-017
      1.10826574e-001 1.08099006e-001 9.71445147e-017 9.71445147e-017
      -1.25226289e-001 -1.05342418e-001 5.90459295e-002 6.13535792e-002
      -6.90245032e-002 -8.74996185e-002 -1.95124254e-001
      -2.93241084e-001 2.95170285e-002 -1.87444687e-003 -1.45016760e-001
      -1.16747230e-001 -7.84875154e-002 -1.62188560e-001
      -4.47018817e-002 -5.17242700e-002 -1.13741852e-001
      -2.86119044e-001 9.71445147e-017 9.63404179e-002 -3.49367373e-002
      -4.69623394e-002 1.84435938e-002 -1.86321154e-001 4.85582948e-002
      1.06069222e-001 -1.30263716e-002 -3.66420187e-002 9.71445147e-017
      -6.97341189e-002 9.71445147e-017 9.71445147e-017 9.71445147e-017
      9.71445147e-017 9.71445147e-017 9.71445147e-017 9.71445147e-017
      9.71445147e-017 9.71445147e-017 9.71445147e-017 9.71445147e-017
      9.71445147e-017 9.71445147e-017 9.71445147e-017 1.02123304e-003
      3.57532059e-004 9.71445147e-017 9.71445147e-017 9.71445147e-017
      9.71445147e-017 5.35406114e-004 1.83697324e-003 9.71445147e-017
      9.71445147e-017 9.71445147e-017 9.71445147e-017 3.30527910e-005
      9.71445147e-017 9.71445147e-017 9.71445147e-017 9.71445147e-017
      9.71445147e-017 9.71445147e-017 9.71445147e-017 9.71445147e-017
      9.71445147e-017 -1.05620280e-001 6.52039573e-002 -6.95608035e-002
      -1.31326512e-001 -3.91549021e-002 -1.42296761e-001 1.45886883e-001
      -1.41258072e-002 -7.03854039e-002 9.71445147e-017 9.71445147e-017
      9.71445147e-017 9.71445147e-017 9.71445147e-017 9.71445147e-017
      9.71445147e-017 9.71445147e-017 9.71445147e-017 5.21879382e-002
      7.08869379e-003 -6.11083931e-004 -3.01297083e-002 9.71445147e-017
      9.71445147e-017 9.71445147e-017 9.71445147e-017 3.35525088e-002
      6.64281147e-003 9.71445147e-017 9.71445147e-017 -5.11925551e-004
      -2.91415285e-002 9.71445147e-017 9.71445147e-017 6.74196985e-003
      9.71445147e-017</_>
    <_>
      -7.47312527e-007 1.31838984e-016 1.31838984e-016 1.31838984e-016
      1.31838984e-016 1.31838984e-016 1.31838984e-016 -7.47312527e-007
      1.31838984e-016 1.31838984e-016 1.31838984e-016 1.31838984e-016
      1.31838984e-016 1.31838984e-016 1.31838984e-016 5.29653542e-002
      1.68968558e-001 1.61608562e-001 1.31838984e-016 1.31838984e-016
      1.31838984e-016 7.10030273e-002 1.06483229e-001 9.21544731e-002
      4.76098955e-002 1.31838984e-016 1.31838984e-016 9.46892332e-003
      9.45615321e-002 8.18259940e-002 5.52671365e-002 1.31838984e-016
      9.11759883e-002 1.22195890e-003 8.94759968e-002 7.70988315e-002
      -1.02467157e-001 1.31838984e-016 -1.13627821e-001 4.52518323e-003
      9.87693518e-002 9.65199694e-002 -1.61470667e-001 1.31838984e-016
      -8.68896097e-002 -1.79347433e-002 9.27873775e-002 8.74201655e-002
      -2.57241786e-001 5.55817857e-002 1.31838984e-016 1.31838984e-016
      1.31838984e-016 1.31838984e-016 1.31838984e-016 1.31838984e-016
      1.31838984e-016 1.31838984e-016 4.05347068e-003 1.31838984e-016
      1.31838984e-016 1.31838984e-016 1.31838984e-016 1.31838984e-016
      -1.86845198e-001 4.42882767e-004 1.31838984e-016 1.31838984e-016
      1.31838984e-016 1.31838984e-016 -1.78551599e-001 8.60616739e-004
      1.31838984e-016 1.31838984e-016 1.31838984e-016 1.31838984e-016
      -1.45576894e-001 -2.06387471e-002 1.31838984e-016 1.31838984e-016
      1.31838984e-016 1.31838984e-016 1.31838984e-016 -9.06939432e-002
      1.31838984e-016 1.31838984e-016 7.10030273e-002 1.09273948e-001
      4.69455756e-002 3.48620955e-003 9.25744027e-002 4.75276038e-002
      3.28593813e-002 9.14591625e-002 -5.89056090e-002 1.31838984e-016
      1.31838984e-016 1.31838984e-016 1.31838984e-016 1.31838984e-016
      1.31838984e-016 1.31838984e-016 1.31838984e-016 1.31838984e-016
      1.03477173e-001 9.10972953e-002 9.53632221e-002 1.15256883e-001
      1.31838984e-016 1.31838984e-016 1.31838984e-016 1.31838984e-016
      1.04009524e-001 1.07024223e-001 1.31838984e-016 1.31838984e-016
      1.00443192e-001 1.15996793e-001 1.31838984e-016 1.31838984e-016
      1.12104192e-001 1.31838984e-016</_>
    <_>
      -2.84241401e-006 2.08166817e-017 2.08166817e-017 2.08166817e-017
      2.08166817e-017 2.08166817e-017 2.08166817e-017 -2.84241401e-006
      2.08166817e-017 2.08166817e-017 2.08166817e-017 2.08166817e-017
      2.08166817e-017 2.08166817e-017 2.08166817e-017 -7.24969357e-002
      -2.87572406e-002 -1.20311854e-002 -5.71332812e-001
      -6.06443286e-002 2.08166817e-017 -3.58753791e-003 -6.53373674e-002
      -5.72211444e-002 -2.92523980e-001 -1.50995731e-001 1.47302309e-002
      -2.18278319e-002 -7.38960057e-002 -4.03971598e-002 1.21610694e-001
      -9.17698741e-002 -8.53419900e-002 -1.97341368e-002
      -6.00696877e-002 -3.26572619e-002 1.18477486e-001 -9.43506211e-002
      2.08166817e-017 -1.77061334e-002 -3.13103721e-002 -2.16722246e-002
      2.13574871e-001 2.08166817e-017 3.73483561e-002 1.47825731e-002
      -2.79702786e-002 7.41092190e-002 2.08166817e-017 -3.66131365e-002
      2.08166817e-017 2.08166817e-017 2.08166817e-017 -2.03263061e-003
      -5.48131429e-002 2.08166817e-017 2.08166817e-017 2.08166817e-017
      -2.26788362e-003 -6.33727759e-002 2.08166817e-017 2.08166817e-017
      2.08166817e-017 2.08166817e-017 9.41584818e-004 2.72514205e-003
      2.08166817e-017 2.08166817e-017 2.08166817e-017 2.08166817e-017
      4.70792409e-004 2.72514205e-003 2.08166817e-017 2.08166817e-017
      2.08166817e-017 2.08166817e-017 2.08166817e-017 2.08166817e-017
      2.08166817e-017 2.08166817e-017 2.08166817e-017 2.08166817e-017
      2.08166817e-017 2.08166817e-017 2.08166817e-017 2.08166817e-017
      -4.64039808e-003 -5.71619421e-002 -2.96593428e-001
      -7.09760049e-003 -6.74937963e-002 1.22312605e-001 2.02327706e-002
      -1.82097685e-002 -6.75656348e-002 2.08166817e-017 2.08166817e-017
      2.08166817e-017 2.08166817e-017 2.08166817e-017 2.08166817e-017
      2.08166817e-017 2.08166817e-017 2.08166817e-017 -6.05157018e-002
      -4.97256257e-002 -1.02820545e-002 -1.09701138e-002 2.08166817e-017
      2.08166817e-017 2.08166817e-017 2.08166817e-017 -5.64279780e-002
      -6.22167345e-003 2.08166817e-017 2.08166817e-017 -1.03341052e-002
      -1.06332367e-002 2.08166817e-017 2.08166817e-017 -6.27372414e-003
      2.08166817e-017</_>
    <_>
      -1.93233086e-006 -3.46944695e-017 -3.46944695e-017
      -3.46944695e-017 -3.46944695e-017 -3.46944695e-017
      -3.46944695e-017 -1.93233086e-006 -3.46944695e-017
      -3.46944695e-017 -3.46944695e-017 -3.46944695e-017
      -3.46944695e-017 -3.46944695e-017 -3.46944695e-017
      -3.46944695e-017 7.50365183e-002 -5.92859425e-002 -3.46944695e-017
      -3.46944695e-017 -3.46944695e-017 1.33540750e-001 1.97097715e-002
      2.97575388e-002 1.53583065e-002 -3.46944695e-017 -3.46944695e-017
      9.52869058e-002 1.30660115e-002 3.16423774e-002 8.59476030e-002
      1.54746585e-002 -3.46944695e-017 7.25749359e-002 1.48078557e-002
      2.17196792e-002 1.90245017e-001 9.73030254e-002 -3.46944695e-017
      -6.63950518e-002 2.68651661e-003 9.08597838e-003 1.91716254e-001
      9.17877555e-002 -3.03981267e-002 -1.68570533e-001 7.77572021e-003
      7.26496009e-003 2.08180934e-001 -7.65298551e-004 -3.46944695e-017
      -3.46944695e-017 -3.46944695e-017 -3.46944695e-017
      -3.46944695e-017 -3.46944695e-017 -3.46944695e-017
      -3.46944695e-017 -3.46944695e-017 -3.46944695e-017
      -3.46944695e-017 -3.46944695e-017 -3.46944695e-017
      -3.46944695e-017 -3.46944695e-017 -3.46944695e-017
      -3.46944695e-017 -3.46944695e-017 -3.46944695e-017
      -3.46944695e-017 -1.75665710e-002 3.49052425e-004 1.45438509e-002
      -3.46944695e-017 -3.46944695e-017 -3.46944695e-017
      -9.83352680e-003 6.45466521e-002 8.67937878e-002 -3.46944695e-017
      -3.46944695e-017 -3.46944695e-017 -6.00595679e-003 1.79180242e-002
      7.16984197e-002 -3.46944695e-017 1.33540750e-001 2.23200582e-002
      1.53583065e-002 7.24650994e-002 1.77569184e-002 1.90245017e-001
      2.96094548e-002 5.59623400e-003 8.50823373e-002 -3.46944695e-017
      -3.46944695e-017 -3.46944695e-017 -3.46944695e-017
      -3.46944695e-017 -3.46944695e-017 -3.46944695e-017
      -3.46944695e-017 -3.46944695e-017 1.64964888e-002 2.88631674e-002
      6.04358362e-003 5.76887606e-003 -3.46944695e-017 -3.46944695e-017
      -3.46944695e-017 -3.46944695e-017 2.05228832e-002 5.42671047e-003
      -3.46944695e-017 -3.46944695e-017 6.04358362e-003 5.76887606e-003
      -3.46944695e-017 -3.46944695e-017 5.42671047e-003 -3.46944695e-017</_>
    <_>
      1.51588395e-008 3.46944695e-018 3.46944695e-018 3.46944695e-018
      3.46944695e-018 3.46944695e-018 3.46944695e-018 1.51588395e-008
      3.46944695e-018 3.46944695e-018 3.46944695e-018 3.46944695e-018
      3.46944695e-018 3.46944695e-018 -1.21020280e-001 -7.96070546e-002
      2.49666889e-004 -8.00340250e-002 -1.24266095e-001 -1.19353838e-001
      -1.32971674e-001 -4.90835756e-002 2.05570459e-003 7.85276294e-003
      -8.09095651e-002 -1.13271214e-001 -1.28599077e-001
      -7.91811442e-004 7.10136374e-004 6.75340695e-003 -3.81061919e-002
      -3.65118869e-002 -9.56008136e-002 5.64634276e-004 4.59968671e-003
      1.06009217e-002 -2.81412415e-002 2.89838370e-002 3.46944695e-018
      2.41593851e-004 4.13655391e-004 1.09820832e-002 4.76150699e-002
      2.89838370e-002 -2.14365218e-002 -4.22280766e-002 -1.30848831e-003
      3.93007929e-003 1.68314693e-003 -2.14365218e-002 3.46944695e-018
      3.46944695e-018 3.46944695e-018 3.46944695e-018 3.46944695e-018
      3.46944695e-018 3.46944695e-018 -3.00305896e-002 -4.48217732e-004
      3.46944695e-018 3.46944695e-018 3.46944695e-018 3.46944695e-018
      -2.61633322e-002 -8.37366213e-004 -2.06898153e-003 3.46944695e-018
      3.46944695e-018 3.46944695e-018 3.46944695e-018 -7.47029553e-004
      4.85199504e-003 2.78690737e-002 3.46944695e-018 3.46944695e-018
      3.46944695e-018 -4.48217732e-004 3.87115441e-002 2.78690737e-002
      3.46944695e-018 3.46944695e-018 3.46944695e-018 3.46944695e-018
      9.71175265e-003 3.46944695e-018 3.46944695e-018 -4.90835756e-002
      4.01599891e-003 -8.14739987e-002 -7.91811442e-004 4.43068752e-003
      -3.69072221e-002 2.48224195e-003 3.29383626e-003 8.19350127e-003
      3.46944695e-018 3.46944695e-018 3.46944695e-018 3.46944695e-018
      3.46944695e-018 3.46944695e-018 3.46944695e-018 3.46944695e-018
      3.46944695e-018 1.65905221e-003 6.75340695e-003 4.46782541e-003
      2.86229374e-003 3.46944695e-018 3.46944695e-018 3.46944695e-018
      3.46944695e-018 3.50102503e-003 2.41407473e-003 3.46944695e-018
      3.46944695e-018 3.10512632e-003 1.36823452e-003 3.46944695e-018
      3.46944695e-018 1.21882756e-003 3.46944695e-018</_>
    <_>
      -1.79527092e-006 -1.38777878e-017 -1.38777878e-017
      -1.38777878e-017 -1.38777878e-017 -1.38777878e-017
      -1.38777878e-017 -1.79527092e-006 -1.38777878e-017
      -1.38777878e-017 -1.38777878e-017 -1.38777878e-017
      -1.38777878e-017 -1.38777878e-017 -5.63280955e-002
      -1.38777878e-017 1.75636619e-001 -4.33702357e-002 -5.39384149e-002
      -5.53039424e-002 -1.63122132e-001 -5.28338067e-002 6.74272776e-002
      7.61637539e-002 -1.65027231e-002 -1.02591656e-001 -2.75547445e-001
      4.16883975e-002 4.22203057e-002 3.95595878e-002 -9.12083164e-002
      -1.26572335e-002 -1.34815186e-001 1.36449471e-001 -9.59865842e-003
      4.90192557e-003 2.09669340e-002 -1.12011403e-001 -1.38777878e-017
      1.78986847e-001 -1.46942930e-002 -7.84177426e-003 1.37799487e-001
      -2.00831648e-002 3.72135378e-002 -1.38777878e-017 -9.53342952e-003
      -2.18572561e-002 1.81952506e-001 3.90086435e-002 -1.38777878e-017
      -1.38777878e-017 -1.38777878e-017 -1.38777878e-017
      -1.38777878e-017 -1.38777878e-017 -1.38777878e-017
      -1.38777878e-017 -1.38777878e-017 -1.38777878e-017
      -1.38777878e-017 -1.38777878e-017 -1.38777878e-017
      -1.38777878e-017 -1.38777878e-017 -1.38777878e-017
      -1.38777878e-017 -1.38777878e-017 -1.38777878e-017
      -1.38777878e-017 -1.38777878e-017 2.68237442e-002 -1.38777878e-017
      -1.38777878e-017 -1.38777878e-017 -1.38777878e-017
      -1.38777878e-017 7.90083632e-002 8.38218182e-002 -1.38777878e-017
      -1.38777878e-017 -1.38777878e-017 -1.38777878e-017 9.75343734e-002
      8.36281851e-003 -1.38777878e-017 -5.59062436e-002 7.03544989e-002
      -1.85510181e-002 5.73398471e-002 4.42377385e-003 -5.47036901e-002
      2.16200396e-001 -7.00135157e-003 -9.53526888e-003 -1.38777878e-017
      -1.38777878e-017 -1.38777878e-017 -1.38777878e-017
      -1.38777878e-017 -1.38777878e-017 -1.38777878e-017
      -1.38777878e-017 -1.38777878e-017 5.32074608e-002 3.75952944e-002
      2.29094038e-003 1.18945644e-003 -1.38777878e-017 -1.38777878e-017
      -1.38777878e-017 -1.38777878e-017 3.68459113e-002 2.00295029e-003
      -1.38777878e-017 -1.38777878e-017 4.23965044e-003 2.00295029e-003
      -1.38777878e-017 -1.38777878e-017 2.40969402e-003 -1.38777878e-017</_>
    <_>
      1.17472958e-007 1.38777878e-017 1.38777878e-017 1.38777878e-017
      1.38777878e-017 1.38777878e-017 1.38777878e-017 1.17472958e-007
      1.38777878e-017 1.38777878e-017 1.38777878e-017 1.38777878e-017
      1.38777878e-017 1.38777878e-017 1.38777878e-017 1.38777878e-017
      7.60722607e-002 -5.85286953e-002 1.38777878e-017 1.38777878e-017
      1.38777878e-017 7.20530748e-002 7.87497610e-002 8.17454904e-002
      1.38777878e-017 1.38777878e-017 1.38777878e-017 5.40853553e-002
      7.49475807e-002 8.15116540e-002 3.80744748e-002 1.89976189e-002
      1.38777878e-017 8.83332640e-002 7.49495700e-002 7.84946829e-002
      2.27883756e-002 5.05760349e-002 -3.92495953e-002 3.83010460e-003
      6.88603893e-002 7.38666728e-002 2.03684699e-002 4.88415658e-002
      1.78356562e-002 -7.49419332e-002 6.63434342e-002 6.49290532e-002
      3.56877595e-002 9.03903693e-002 1.38777878e-017 1.38777878e-017
      1.38777878e-017 1.38777878e-017 1.38777878e-017 1.38777878e-017
      1.38777878e-017 1.38777878e-017 1.38777878e-017 1.38777878e-017
      1.38777878e-017 1.38777878e-017 1.38777878e-017 1.38777878e-017
      -6.59191906e-002 1.38777878e-017 1.38777878e-017 1.38777878e-017
      1.38777878e-017 1.38777878e-017 -1.01838872e-001 1.38777878e-017
      1.38777878e-017 1.38777878e-017 1.38777878e-017 1.38777878e-017
      -8.73038843e-002 3.83542515e-002 4.64042947e-002 1.38777878e-017
      1.38777878e-017 1.38777878e-017 1.38777878e-017 -8.09626747e-003
      2.81579047e-002 1.38777878e-017 7.20530748e-002 8.16331282e-002
      1.38777878e-017 8.89496654e-002 8.01267177e-002 7.43078142e-002
      9.37887132e-002 6.57495484e-002 6.37339577e-002 1.38777878e-017
      1.38777878e-017 1.38777878e-017 1.38777878e-017 1.38777878e-017
      1.38777878e-017 1.38777878e-017 1.38777878e-017 1.38777878e-017
      7.96382725e-002 8.15116540e-002 7.57445619e-002 8.04880783e-002
      1.38777878e-017 1.38777878e-017 1.38777878e-017 1.38777878e-017
      8.15116540e-002 7.64624774e-002 1.38777878e-017 1.38777878e-017
      7.57445619e-002 8.04880783e-002 1.38777878e-017 1.38777878e-017
      7.64624774e-002 1.38777878e-017</_>
    <_>
      -6.03088097e-007 -1.38777878e-017 -1.38777878e-017
      -1.38777878e-017 -1.38777878e-017 -1.38777878e-017
      -1.38777878e-017 -6.03088097e-007 -1.38777878e-017
      -1.38777878e-017 -1.38777878e-017 -1.38777878e-017
      -1.38777878e-017 -1.38777878e-017 -1.38777878e-017
      -1.50174677e-001 -4.50317888e-003 -1.83892697e-001
      -2.69549578e-001 -2.83651575e-002 -1.38777878e-017
      -1.62797663e-002 -9.86855570e-003 7.13152438e-003 -1.49778485e-001
      -1.27939582e-001 -1.38777878e-017 7.86404982e-002 -1.07113607e-002
      1.32457819e-002 4.37254757e-002 -6.83490783e-002 -7.59022161e-002
      8.27840641e-002 -5.63762709e-003 1.64417159e-002 8.01584125e-002
      -4.13908698e-002 -1.38777878e-017 7.18975440e-002 -3.80674424e-003
      2.34782640e-002 1.37068450e-001 3.50859910e-002 2.50076130e-002
      -4.07455303e-002 -3.29507212e-003 6.85041323e-002 2.16196969e-001
      2.50076130e-002 -1.38777878e-017 -1.38777878e-017 -5.67148551e-002
      -3.79362435e-004 -1.38777878e-017 -1.38777878e-017
      -1.38777878e-017 -1.38777878e-017 -4.85454965e-003
      -5.53181842e-002 -1.38777878e-017 -1.38777878e-017
      -1.38777878e-017 -1.38777878e-017 3.20654857e-004 -1.38777878e-017
      -1.38777878e-017 -1.38777878e-017 -1.38777878e-017
      -1.38777878e-017 -1.38777878e-017 2.11578738e-002 5.98742962e-002
      -1.38777878e-017 -1.38777878e-017 -1.38777878e-017
      -1.38777878e-017 8.57336596e-002 5.98742962e-002 -1.38777878e-017
      -1.38777878e-017 -1.38777878e-017 -1.38777878e-017 7.37651363e-002
      -1.38777878e-017 -1.38777878e-017 -1.90501958e-002
      -5.50989807e-003 -1.48222670e-001 7.86404982e-002 -1.44815689e-003
      4.78671268e-002 -1.12477853e-003 6.96748449e-003 7.07565621e-002
      -1.38777878e-017 -1.38777878e-017 -1.38777878e-017
      -1.38777878e-017 -1.38777878e-017 -1.38777878e-017
      -1.38777878e-017 -1.38777878e-017 -1.38777878e-017
      -5.55004785e-003 9.83151700e-003 1.05568825e-003 1.24258567e-002
      -1.38777878e-017 -1.38777878e-017 -1.38777878e-017
      -1.38777878e-017 -2.03477684e-003 2.85703689e-003 -1.38777878e-017
      -1.38777878e-017 -2.42777169e-004 1.03680063e-002 -1.38777878e-017
      -1.38777878e-017 3.98527714e-004 -1.38777878e-017</_>
    <_>
      7.34483422e-007 -1.95156391e-018 -1.95156391e-018 -1.95156391e-018
      -1.95156391e-018 -1.95156391e-018 -1.95156391e-018 7.34483422e-007
      -1.95156391e-018 -1.95156391e-018 -1.95156391e-018
      -1.95156391e-018 -1.95156391e-018 -1.95156391e-018
      -7.67565221e-002 -7.97856823e-002 -1.50078461e-002
      -1.26378071e-002 -7.49003738e-002 -7.12266788e-002
      -7.64298216e-002 -8.12142268e-002 -3.93168489e-003
      -4.44283197e-003 -7.45450407e-002 -6.82349131e-002
      -7.48617500e-002 -4.19692583e-002 -4.06555645e-003
      -5.60755376e-003 -7.18481764e-002 -4.36012670e-002
      -3.88590135e-002 -7.04884809e-003 -1.74140080e-003
      -2.69632181e-003 -6.66368380e-002 -6.70606270e-003
      -1.95156391e-018 -5.48795378e-003 4.54526278e-004 7.55809655e-004
      -1.72692281e-003 -1.95156391e-018 -4.15749010e-003 2.34631058e-002
      -1.81629718e-003 2.00299150e-003 -3.06135118e-002 2.22782663e-004
      -1.95156391e-018 -1.95156391e-018 -1.95156391e-018
      -1.95156391e-018 -1.95156391e-018 -1.95156391e-018
      -1.95156391e-018 -4.08468060e-002 -5.05875738e-004
      -1.95156391e-018 -1.95156391e-018 -1.95156391e-018
      -1.95156391e-018 -1.78117189e-003 -9.84306447e-004
      -1.17539254e-004 -1.95156391e-018 -1.95156391e-018
      -1.95156391e-018 -1.95156391e-018 3.01850885e-002 -1.95156391e-018
      -1.95156391e-018 -1.95156391e-018 -1.95156391e-018
      -1.95156391e-018 4.55136225e-003 -1.95156391e-018 -1.95156391e-018
      -1.95156391e-018 -1.95156391e-018 -1.95156391e-018 3.09629343e-003
      -1.65459095e-003 -1.95156391e-018 -1.95156391e-018
      -8.12142268e-002 -3.93168489e-003 -7.49003738e-002
      -9.39476863e-003 -3.78100690e-003 -7.18481764e-002
      -2.81081279e-003 -1.50993397e-003 -1.53126474e-003
      -1.95156391e-018 -1.95156391e-018 -1.95156391e-018
      -1.95156391e-018 -1.95156391e-018 -1.95156391e-018
      -1.95156391e-018 -1.95156391e-018 -1.95156391e-018
      -4.14934475e-003 -4.74186568e-003 -1.13619724e-003 5.62044675e-004
      -1.95156391e-018 -1.95156391e-018 -1.95156391e-018
      -1.95156391e-018 -4.14934475e-003 -1.21445477e-003
      -1.95156391e-018 -1.95156391e-018 -2.51232367e-003
      -1.37127354e-003 -1.95156391e-018 -1.95156391e-018
      -2.56345677e-003 -1.95156391e-018</_>
    <_>
      9.63785055e-007 -1.38777878e-017 -1.38777878e-017 -1.38777878e-017
      -1.38777878e-017 -1.38777878e-017 -1.38777878e-017 9.63785055e-007
      -1.38777878e-017 -1.38777878e-017 -1.38777878e-017
      -1.38777878e-017 -1.38777878e-017 -1.38777878e-017
      -1.38777878e-017 -1.38777878e-017 -1.93323067e-003 2.58023641e-003
      -1.38777878e-017 -1.38777878e-017 -7.86451846e-002
      -1.62309140e-001 2.06716191e-002 1.44731840e-002 -7.44395629e-002
      -7.44395629e-002 -1.41750887e-001 -7.97834545e-002 1.80214848e-002
      4.54338128e-003 -1.68280393e-001 -7.69629329e-002 -1.36973143e-001
      -5.98411374e-002 -8.56804941e-003 -1.40461950e-002
      -8.77009854e-002 -7.60445297e-002 -1.38777878e-017 6.29894957e-002
      -3.50675569e-003 -8.26942269e-003 -7.10489005e-002
      -7.60445297e-002 -1.38777878e-017 1.04663700e-001 -3.38595081e-003
      -3.76362191e-003 -1.38777878e-017 -1.38777878e-017
      -1.38777878e-017 -1.38777878e-017 -1.38777878e-017
      -1.38777878e-017 -1.38777878e-017 -1.38777878e-017
      -1.38777878e-017 -1.38777878e-017 -1.38777878e-017
      -1.38777878e-017 -1.38777878e-017 -1.38777878e-017
      -1.38777878e-017 -1.38777878e-017 -1.38777878e-017
      -1.38777878e-017 -1.38777878e-017 -1.38777878e-017
      -1.38777878e-017 -1.38777878e-017 1.92520190e-002 -1.38777878e-017
      -1.38777878e-017 -1.38777878e-017 -1.38777878e-017
      -1.38777878e-017 6.90571684e-003 -1.38777878e-017 -1.38777878e-017
      -1.38777878e-017 -1.38777878e-017 -1.38777878e-017 9.24002888e-005
      -1.38777878e-017 -1.38777878e-017 -1.38777878e-017
      -1.63570821e-001 2.02510599e-002 -7.44395629e-002 -7.90354609e-002
      -9.67818033e-003 -1.67170271e-001 6.29894957e-002 -3.39125516e-003
      -7.60445297e-002 -1.38777878e-017 -1.38777878e-017
      -1.38777878e-017 -1.38777878e-017 -1.38777878e-017
      -1.38777878e-017 -1.38777878e-017 -1.38777878e-017
      -1.38777878e-017 1.85846742e-002 4.54338128e-003 -3.39125516e-003
      -1.44167582e-003 -1.38777878e-017 -1.38777878e-017
      -1.38777878e-017 -1.38777878e-017 8.02131277e-003 -8.32278107e-004
      -1.38777878e-017 -1.38777878e-017 -3.39125516e-003
      -1.44167582e-003 -1.38777878e-017 -1.38777878e-017
      -8.32278107e-004 -1.38777878e-017</_>
    <_>
      1.78425830e-006 7.02563008e-017 7.02563008e-017 7.02563008e-017
      7.02563008e-017 7.02563008e-017 7.02563008e-017 1.78425830e-006
      7.02563008e-017 7.02563008e-017 7.02563008e-017 7.02563008e-017
      7.02563008e-017 7.02563008e-017 7.02563008e-017 7.02563008e-017
      3.62342298e-002 3.99952717e-002 7.02563008e-017 7.02563008e-017
      7.02563008e-017 -8.20293650e-002 7.92526901e-002 5.18899178e-003
      7.02563008e-017 7.02563008e-017 7.02563008e-017 2.81643476e-002
      9.39727351e-002 8.69850442e-002 -1.61155276e-002 7.02563008e-017
      7.02563008e-017 3.29804234e-002 1.11625046e-001 1.01691134e-001
      -1.07293196e-001 7.02563008e-017 -4.81074415e-002 9.57525745e-002
      1.16094559e-001 1.11344688e-001 -2.00719848e-001 7.02563008e-017
      -1.17106317e-003 3.88602391e-002 1.15515269e-001 1.03345148e-001
      -2.00778425e-001 7.48710185e-002 7.02563008e-017 7.02563008e-017
      7.02563008e-017 7.02563008e-017 7.02563008e-017 7.02563008e-017
      7.02563008e-017 7.02563008e-017 7.02563008e-017 7.02563008e-017
      7.02563008e-017 7.02563008e-017 7.02563008e-017 7.02563008e-017
      -8.07958320e-002 7.02563008e-017 7.02563008e-017 7.02563008e-017
      7.02563008e-017 7.02563008e-017 -1.47360098e-002 -1.47587843e-002
      7.02563008e-017 7.02563008e-017 7.02563008e-017 7.02563008e-017
      -6.73387274e-002 -2.10919213e-002 7.02563008e-017 7.02563008e-017
      7.02563008e-017 7.02563008e-017 -1.59178656e-002 -8.08337927e-002
      7.02563008e-017 7.02563008e-017 -8.20293650e-002 7.90916309e-002
      7.02563008e-017 3.13797407e-002 1.08495079e-001 -4.36541811e-002
      4.94714975e-002 1.09904461e-001 -1.24330096e-001 7.02563008e-017
      7.02563008e-017 7.02563008e-017 7.02563008e-017 7.02563008e-017
      7.02563008e-017 7.02563008e-017 -9.83918924e-003 7.02563008e-017
      9.56492200e-002 8.69850442e-002 1.17464684e-001 1.22929320e-001
      7.02563008e-017 7.02563008e-017 7.02563008e-017 7.02563008e-017
      9.48209167e-002 1.20756090e-001 7.02563008e-017 7.02563008e-017
      1.15024090e-001 1.22211806e-001 7.02563008e-017 7.02563008e-017
      1.18208133e-001 7.02563008e-017</_>
    <_>
      3.29284205e-007 -8.67361738e-018 -8.67361738e-018 -8.67361738e-018
      -8.67361738e-018 -8.67361738e-018 -8.67361738e-018 3.29284205e-007
      -8.67361738e-018 -8.67361738e-018 -8.67361738e-018
      -8.67361738e-018 -8.67361738e-018 -8.67361738e-018
      -8.67361738e-018 -6.27921224e-002 -2.92085651e-002
      -1.34032564e-002 -3.20724756e-001 -5.05820960e-002
      -8.67361738e-018 -6.42047003e-002 -2.03524586e-002
      -2.42835861e-002 -3.26777190e-001 -7.15937316e-002
      -8.67361738e-018 -6.95648789e-002 -1.35278404e-002
      -7.10562710e-003 -2.23130323e-002 -2.00602747e-002
      -8.67361738e-018 2.07148842e-003 -8.93194083e-005 2.10972596e-003
      -2.19912119e-002 -2.03820970e-002 -8.67361738e-018 8.35330635e-002
      1.14197265e-002 3.53726861e-003 -8.67361738e-018 -8.67361738e-018
      3.26989293e-002 1.25800639e-001 -6.00868510e-003 2.56781280e-002
      -8.67361738e-018 -9.25217271e-002 -8.67361738e-018
      -8.67361738e-018 -3.16419080e-002 -1.03832933e-003
      -4.71775308e-002 -8.67361738e-018 -8.67361738e-018
      -8.67361738e-018 -7.50919397e-004 -1.18001620e-003
      -8.67361738e-018 -8.67361738e-018 -8.67361738e-018
      -8.67361738e-018 -8.67361738e-018 -8.67361738e-018
      -8.67361738e-018 -8.67361738e-018 -8.67361738e-018
      -8.67361738e-018 -8.67361738e-018 -8.67361738e-018
      -8.67361738e-018 -8.67361738e-018 -8.67361738e-018
      -8.67361738e-018 2.50267913e-003 -8.67361738e-018 -8.67361738e-018
      -8.67361738e-018 -8.67361738e-018 -8.67361738e-018 4.63896757e-003
      -8.67361738e-018 -8.67361738e-018 -8.67361738e-018
      -6.52594268e-002 -2.03524586e-002 -3.25966775e-001 8.22978618e-004
      -8.52536876e-003 -2.23130323e-002 -3.30013409e-002 4.42506373e-003
      -9.25217271e-002 -8.67361738e-018 -8.67361738e-018
      -8.67361738e-018 -8.67361738e-018 -8.67361738e-018
      -8.67361738e-018 -8.67361738e-018 -8.67361738e-018
      -8.67361738e-018 -1.39445513e-002 -1.59044713e-002
      -1.62173645e-003 5.33727696e-003 -8.67361738e-018 -8.67361738e-018
      -8.67361738e-018 -8.67361738e-018 -1.39445513e-002 1.22836872e-003
      -8.67361738e-018 -8.67361738e-018 -2.47992994e-003 4.04998660e-003
      -8.67361738e-018 -8.67361738e-018 3.70175199e-004 -8.67361738e-018</_>
    <_>
      -6.70643431e-007 1.52601456e-017 1.52601456e-017 1.52601456e-017
      1.52601456e-017 1.52601456e-017 1.52601456e-017 -6.70643431e-007
      1.52601456e-017 1.52601456e-017 1.52601456e-017 1.52601456e-017
      1.52601456e-017 1.52601456e-017 1.39423594e-001 2.34232888e-001
      1.44313812e-001 1.32842526e-001 1.29611582e-001 1.20651104e-001
      3.27314176e-002 3.72360572e-002 3.27265784e-002 2.87381001e-002
      4.05798443e-002 5.40333092e-002 6.55119494e-002 3.26377526e-002
      1.58118904e-002 4.25355771e-004 1.61318723e-002 1.40305823e-002
      1.07892700e-001 1.25520825e-001 -1.59709826e-002 -1.66161377e-002
      1.15448333e-001 -7.65507668e-002 1.52601456e-017 5.06391227e-002
      -1.73262861e-002 -2.51595285e-002 1.68258809e-002 1.52601456e-017
      5.50948605e-002 1.04002863e-001 -1.17972093e-002 -3.08962502e-002
      5.92605537e-003 5.31376116e-002 1.52601456e-017 1.52601456e-017
      1.52601456e-017 1.52601456e-017 1.52601456e-017 1.52601456e-017
      1.52601456e-017 7.82669559e-002 1.16816349e-003 1.52601456e-017
      1.52601456e-017 1.52601456e-017 1.52601456e-017 1.71112977e-002
      1.94257125e-003 1.14521699e-003 1.52601456e-017 1.52601456e-017
      1.52601456e-017 1.52601456e-017 1.94693916e-003 1.52601456e-017
      1.52601456e-017 1.52601456e-017 1.52601456e-017 1.52601456e-017
      1.16816349e-003 1.52601456e-017 1.52601456e-017 1.52601456e-017
      1.52601456e-017 1.52601456e-017 1.52601456e-017 1.61211304e-002
      1.52601456e-017 1.52601456e-017 3.24270986e-002 3.27913091e-002
      3.84324789e-002 3.25584635e-002 -5.05095953e-003 1.59285609e-002
      9.76248011e-002 -1.59790982e-002 -4.87256609e-002 1.52601456e-017
      1.52601456e-017 1.52601456e-017 1.52601456e-017 1.52601456e-017
      1.52601456e-017 1.52601456e-017 1.52601456e-017 1.52601456e-017
      1.69090647e-002 -9.72486087e-005 -7.86125381e-003 -1.04343342e-002
      1.52601456e-017 1.52601456e-017 1.52601456e-017 1.52601456e-017
      4.91434708e-003 -9.33526549e-003 1.52601456e-017 1.52601456e-017
      -4.48186975e-003 -6.54045632e-003 1.52601456e-017 1.52601456e-017
      -6.22016331e-003 1.52601456e-017</_>
    <_>
      1.25240107e-009 -3.46944695e-018 -3.46944695e-018 -3.46944695e-018
      -3.46944695e-018 -3.46944695e-018 -3.46944695e-018 1.25240107e-009
      -3.46944695e-018 -3.46944695e-018 -3.46944695e-018
      -3.46944695e-018 -3.46944695e-018 -3.46944695e-018 7.50305653e-002
      6.49648979e-002 2.65491195e-002 2.46623773e-002 7.23263398e-002
      6.99553788e-002 7.43058771e-002 4.39881347e-002 2.75401212e-002
      2.50755567e-002 7.18395412e-002 6.66777119e-002 6.03926703e-002
      3.26111056e-002 2.61545666e-002 2.58159377e-002 5.95478527e-002
      5.09135202e-002 3.87621336e-002 2.96989381e-002 2.45232787e-002
      2.33676825e-002 2.51412857e-002 8.90097022e-003 -1.80164967e-002
      2.95519438e-002 2.46928483e-002 2.30082478e-002 -1.58475004e-002
      -3.46944695e-018 8.62526707e-003 1.45959705e-002 2.37784628e-002
      1.86309665e-002 -3.88387986e-003 1.95199605e-002 -3.46944695e-018
      -3.46944695e-018 -3.46944695e-018 -3.46944695e-018
      -3.46944695e-018 -3.46944695e-018 -3.46944695e-018 3.12350821e-002
      -5.58596337e-003 -3.46944695e-018 -3.46944695e-018
      -3.46944695e-018 -3.46944695e-018 2.09368020e-002 -3.27450708e-002
      1.64996833e-003 -3.46944695e-018 -3.46944695e-018 -3.46944695e-018
      -6.54718047e-003 -3.72739211e-002 -3.46944695e-018
      -3.46944695e-018 -3.46944695e-018 -3.46944695e-018
      -1.10145807e-002 -2.84949467e-002 -1.27218505e-002
      -3.46944695e-018 -3.46944695e-018 -3.46944695e-018
      -1.05348397e-002 -1.28876427e-002 4.33365908e-003 -3.46944695e-018
      -3.46944695e-018 4.35972586e-002 2.75051072e-002 7.23263398e-002
      3.15802954e-002 2.62790602e-002 4.26367521e-002 3.37854438e-002
      2.33626049e-002 4.09025140e-003 -3.46944695e-018 -3.46944695e-018
      -3.46944695e-018 -3.46944695e-018 -3.46944695e-018
      -3.46944695e-018 -3.46944695e-018 -7.09728012e-003
      -3.46944695e-018 2.76767239e-002 2.59053893e-002 2.64247451e-002
      2.65928190e-002 -3.46944695e-018 -3.46944695e-018 -3.46944695e-018
      -3.46944695e-018 2.74575762e-002 2.82407273e-002 -3.46944695e-018
      -3.46944695e-018 2.74827350e-002 2.80951560e-002 -3.46944695e-018
      -3.46944695e-018 2.89798826e-002 -3.46944695e-018</_>
    <_>
      -2.85444855e-007 -2.77555756e-017 -2.77555756e-017
      -2.77555756e-017 -2.77555756e-017 -2.77555756e-017
      -2.77555756e-017 -2.85444855e-007 -2.77555756e-017
      -2.77555756e-017 -2.77555756e-017 -2.77555756e-017
      -2.77555756e-017 -2.77555756e-017 2.14873299e-001 4.01968062e-002
      -7.72606302e-003 1.97138432e-002 2.88807172e-002 1.41993552e-001
      2.76254505e-001 1.97976921e-002 -1.15992622e-002 -3.51934996e-003
      1.38857551e-002 1.83429401e-002 2.73180127e-001 1.50761222e-002
      -1.18958233e-002 -5.63510833e-003 1.07257683e-002 2.12986860e-002
      2.76475511e-002 1.27708064e-002 -1.70667525e-002 -7.94419181e-003
      1.12468570e-001 -5.54263331e-002 -2.77555756e-017 2.17401478e-002
      -9.52803157e-003 -5.42979455e-003 8.43019411e-003 -9.40834638e-003
      8.40411037e-002 1.28590405e-001 -6.33405428e-003 5.81891313e-002
      7.93962255e-002 6.41287342e-002 -2.77555756e-017 -2.77555756e-017
      -2.77555756e-017 -2.77555756e-017 -1.65642742e-002
      -2.77555756e-017 -2.77555756e-017 1.78681746e-001 -1.57915201e-004
      -4.84689847e-002 5.13727963e-003 -2.77555756e-017 -2.77555756e-017
      5.95585676e-003 6.17956836e-003 2.01701699e-003 -2.77555756e-017
      -2.77555756e-017 -2.77555756e-017 -2.77555756e-017 4.44481941e-003
      -2.77555756e-017 -2.77555756e-017 -2.77555756e-017
      -2.77555756e-017 -2.77555756e-017 2.66689155e-003 -2.77555756e-017
      -2.77555756e-017 -2.77555756e-017 -2.77555756e-017
      -2.77555756e-017 -2.77555756e-017 5.40250391e-002 -2.77555756e-017
      -2.77555756e-017 1.91373136e-002 -1.15992622e-002 1.62771437e-002
      1.50761222e-002 -1.18111437e-002 1.19847590e-002 1.61862690e-002
      -6.33405428e-003 3.42564913e-003 -2.77555756e-017 -2.77555756e-017
      -2.77555756e-017 -2.77555756e-017 -2.77555756e-017
      -2.77555756e-017 -2.77555756e-017 -2.77555756e-017
      -2.77555756e-017 -1.22240400e-002 -6.71115378e-003
      -1.38314227e-002 -5.25816530e-003 -2.77555756e-017
      -2.77555756e-017 -2.77555756e-017 -2.77555756e-017
      -1.22240400e-002 -1.47124995e-002 -2.77555756e-017
      -2.77555756e-017 -1.05775343e-002 -5.15762484e-003
      -2.77555756e-017 -2.77555756e-017 -1.14586111e-002
      -2.77555756e-017</_>
    <_>
      7.69638064e-007 -3.46944695e-017 -3.46944695e-017 -3.46944695e-017
      -3.46944695e-017 -3.46944695e-017 -3.46944695e-017 7.69638064e-007
      -3.46944695e-017 -3.46944695e-017 -3.46944695e-017
      -3.46944695e-017 -3.46944695e-017 -3.46944695e-017 1.35369645e-002
      -7.45526748e-003 5.36413910e-003 2.68343557e-003 1.29626682e-002
      1.32908374e-002 5.26149869e-002 8.49113241e-002 3.09349820e-002
      2.83579547e-002 4.86649163e-002 4.79221717e-002 1.19923286e-001
      6.80951327e-002 3.96395735e-002 4.96440865e-002 1.07306436e-001
      3.38688642e-002 1.01053171e-001 4.51477915e-002 6.85953572e-002
      6.81439266e-002 -9.59515851e-003 8.18627104e-002 -3.15082632e-002
      -6.28653541e-002 7.01212138e-002 7.20848441e-002 -3.29535007e-002
      7.56877288e-002 -4.32872102e-002 -8.51576924e-002 6.37073293e-002
      6.61272481e-002 -8.44570622e-002 9.68700461e-003 -3.46944695e-017
      -3.46944695e-017 -3.46944695e-017 -3.46944695e-017
      -3.46944695e-017 -3.46944695e-017 -3.46944695e-017
      -3.46944695e-017 -3.46944695e-017 -3.46944695e-017
      -3.46944695e-017 -3.46944695e-017 -3.46944695e-017
      -3.46944695e-017 -5.06814234e-002 -3.46944695e-017
      -3.46944695e-017 -3.46944695e-017 -3.46944695e-017
      -3.46944695e-017 -7.61750787e-002 -3.46944695e-017
      -3.46944695e-017 -3.46944695e-017 -3.46944695e-017
      -7.78417615e-003 -6.25962391e-002 -3.56698185e-002
      -3.46944695e-017 -3.46944695e-017 -3.46944695e-017
      -8.00344907e-003 -9.75762960e-003 -4.11201976e-002
      -3.46944695e-017 -3.46944695e-017 8.61037001e-002 3.08670420e-002
      4.91571687e-002 6.55627921e-002 6.85163513e-002 6.73251450e-002
      -5.36168963e-002 6.41768426e-002 2.02340586e-003 -3.46944695e-017
      -3.46944695e-017 -3.46944695e-017 -3.46944695e-017
      -3.46944695e-017 -3.46944695e-017 -3.46944695e-017
      -5.15290536e-003 -3.46944695e-017 3.96395735e-002 4.96440865e-002
      6.45510033e-002 6.72625527e-002 -3.46944695e-017 -3.46944695e-017
      -3.46944695e-017 -3.46944695e-017 4.97984625e-002 6.49642497e-002
      -3.46944695e-017 -3.46944695e-017 6.45510033e-002 6.72625527e-002
      -3.46944695e-017 -3.46944695e-017 6.49642497e-002 -3.46944695e-017</_>
    <_>
      4.23146275e-007 -6.93889390e-018 -6.93889390e-018 -6.93889390e-018
      -6.93889390e-018 -6.93889390e-018 -6.93889390e-018 4.23146275e-007
      -6.93889390e-018 -6.93889390e-018 -6.93889390e-018
      -6.93889390e-018 -6.93889390e-018 -6.93889390e-018 5.16389981e-002
      -1.81523114e-001 -1.51476964e-001 -1.29514262e-001
      -2.42014304e-001 -2.35928595e-002 2.21597865e-001 7.79862404e-002
      -6.69546053e-002 -5.91184236e-002 -1.13644138e-001
      -4.71923985e-002 2.44900316e-001 9.71460938e-002 -3.88259999e-002
      -1.50379622e-002 4.11144309e-002 -6.98938547e-003 -2.61786580e-003
      -4.63267453e-002 3.04875989e-003 7.68027408e-003 -2.61135958e-002
      3.13718468e-002 -6.93889390e-018 -1.40673846e-001 1.12299630e-002
      2.68567707e-002 1.65068973e-002 1.62326340e-002 3.96957025e-002
      -2.17599422e-002 8.38283729e-003 4.53321263e-002 7.44853392e-002
      -1.57296639e-002 -6.93889390e-018 -6.93889390e-018
      -6.93889390e-018 -4.32567525e-004 -4.61060591e-002
      -6.93889390e-018 -6.93889390e-018 -6.93889390e-018
      -2.75795674e-003 -1.82494987e-002 -6.93889390e-018
      -6.93889390e-018 -6.93889390e-018 -6.93889390e-018
      -6.93889390e-018 -6.93889390e-018 -6.93889390e-018
      -6.93889390e-018 -6.93889390e-018 -6.93889390e-018
      -6.93889390e-018 -6.93889390e-018 -6.93889390e-018
      -6.93889390e-018 -6.93889390e-018 -6.93889390e-018
      -6.93889390e-018 -6.93889390e-018 -6.93889390e-018
      -6.93889390e-018 -6.93889390e-018 -6.93889390e-018
      -6.93889390e-018 -6.93889390e-018 -6.93889390e-018
      -6.93889390e-018 8.08834881e-002 -6.68297261e-002 -1.11523837e-001
      9.71460938e-002 -2.94974749e-003 4.03882191e-002 -1.00978136e-001
      1.18088918e-002 5.54827750e-002 -6.93889390e-018 -6.93889390e-018
      -6.93889390e-018 -6.93889390e-018 -6.93889390e-018
      -6.93889390e-018 -6.93889390e-018 -6.93889390e-018
      -6.93889390e-018 -3.97577696e-002 -2.06477866e-002 1.72877422e-004
      6.83814846e-003 -6.93889390e-018 -6.93889390e-018 -6.93889390e-018
      -6.93889390e-018 -2.72455849e-002 5.20453264e-004 -6.93889390e-018
      -6.93889390e-018 -1.69337564e-003 4.25802777e-003 -6.93889390e-018
      -6.93889390e-018 -1.34579977e-003 -6.93889390e-018</_>
    <_>
      -4.28794550e-007 1.90819582e-017 1.90819582e-017 1.90819582e-017
      1.90819582e-017 1.90819582e-017 1.90819582e-017 -4.28794550e-007
      1.90819582e-017 1.90819582e-017 1.90819582e-017 1.90819582e-017
      1.90819582e-017 1.90819582e-017 1.90819582e-017 -6.95185363e-002
      -6.92020133e-002 -6.08269759e-002 -1.35964796e-001
      -2.87892520e-002 1.90819582e-017 -1.54998880e-002 -5.76681383e-002
      -5.19754589e-002 -1.40690863e-001 -6.05848320e-002 1.90819582e-017
      3.84718319e-003 -5.61508276e-002 -4.76107709e-002 -1.78265087e-002
      -3.19184586e-002 -2.77487561e-002 7.54415197e-003 -5.27186021e-002
      -4.59971875e-002 2.96958052e-002 -3.26683149e-002 3.32340524e-002
      7.49857957e-003 -4.99216057e-002 -4.63936850e-002 5.94619215e-002
      1.90819582e-017 -1.10889841e-002 4.66937870e-002 -4.91680205e-002
      -5.03598154e-003 8.40081647e-002 -5.69279157e-002 1.90819582e-017
      1.90819582e-017 -2.56366003e-002 -2.26804448e-004 -2.68515144e-002
      1.90819582e-017 1.90819582e-017 1.90819582e-017 -1.55615772e-003
      -2.15195511e-002 1.90819582e-017 1.90819582e-017 1.90819582e-017
      1.90819582e-017 5.58161624e-002 1.90819582e-017 1.90819582e-017
      1.90819582e-017 1.90819582e-017 1.90819582e-017 6.05569258e-002
      1.90819582e-017 1.90819582e-017 1.90819582e-017 1.90819582e-017
      1.90819582e-017 5.02077937e-002 9.96623468e-003 1.90819582e-017
      1.90819582e-017 1.90819582e-017 1.90819582e-017 1.90819582e-017
      2.97657680e-002 1.90819582e-017 1.90819582e-017 -1.67027507e-002
      -5.76681383e-002 -1.40064716e-001 5.90403145e-003 -5.49461320e-002
      -1.38569623e-002 -4.10118811e-002 -4.79167216e-002 2.04202440e-003
      1.90819582e-017 1.90819582e-017 1.90819582e-017 1.90819582e-017
      1.90819582e-017 1.90819582e-017 1.90819582e-017 1.90819582e-017
      1.90819582e-017 -5.67982607e-002 -5.06208800e-002 -5.38102388e-002
      -5.45784719e-002 1.90819582e-017 1.90819582e-017 1.90819582e-017
      1.90819582e-017 -5.63310944e-002 -5.51597141e-002 1.90819582e-017
      1.90819582e-017 -5.41004539e-002 -5.53896427e-002 1.90819582e-017
      1.90819582e-017 -5.54499291e-002 1.90819582e-017</_></support_vectors>
  <decision_functions>
    <_>
      <sv_count>1</sv_count>
      <rho>4.3165219677297939e-001</rho>
      <alpha>
        1.</alpha>
      <index>
        0</index></_>
    <_>
      <sv_count>1</sv_count>
      <rho>3.9335369262568920e-001</rho>
      <alpha>
        1.</alpha>
      <index>
        1</index></_>
    <_>
      <sv_count>1</sv_count>
      <rho>3.2550315450088347e+000</rho>
      <alpha>
        1.</alpha>
      <index>
        2</index></_>
    <_>
      <sv_count>1</sv_count>
      <rho>3.5495504279785506e-001</rho>
      <alpha>
        1.</alpha>
      <index>
        3</index></_>
    <_>
      <sv_count>1</sv_count>
      <rho>-1.3752186013482443e-001</rho>
      <alpha>
        1.</alpha>
      <index>
        4</index></_>
    <_>
      <sv_count>1</sv_count>
      <rho>1.4222334782340459e-001</rho>
      <alpha>
        1.</alpha>
      <index>
        5</index></_>
    <_>
      <sv_count>1</sv_count>
      <rho>1.0360576850720244e+000</rho>
      <alpha>
