<?xml version="1.0"?>
<opencv_storage>
<my_svm type_id="opencv-ml-svm">
  <svm_type>C_SVC</svm_type>
  <kernel><type>LINEAR</type></kernel>
  <C>1.</C>
  <term_criteria><epsilon>2.2204460492503131e-016</epsilon>
    <iterations>100</iterations></term_criteria>
  <var_all>108</var_all>
  <var_count>108</var_count>
  <class_count>10</class_count>
  <class_labels type_id="opencv-matrix">
    <rows>1</rows>
    <cols>10</cols>
    <dt>i</dt>
    <data>
      1 2 3 4 5 6 7 8 9 10</data></class_labels>
  <sv_total>45</sv_total>
  <support_vectors>
    <_>
      2.77555756e-017 2.77555756e-017 -2.77311839e-002 -7.63467252e-002
      -2.25116134e-001 -1.40208274e-001 2.77555756e-017 -2.74797138e-002
      -1.18678892e-002 -1.29473107e-002 -2.26594895e-001
      -1.36167184e-001 2.77555756e-017 -5.23281209e-002 -2.68554618e-003
      -8.86326004e-003 -6.34215996e-002 -1.32288039e-001 2.77555756e-017
      -4.75270785e-002 1.39159355e-002 5.35662984e-003 -5.38289882e-002
      -2.51043029e-002 2.77555756e-017 -4.02846411e-002 1.35684712e-002
      2.63460148e-002 -5.73885255e-002 -1.10135013e-002 4.93124351e-002
      -1.58654284e-002 1.15028583e-002 1.09923594e-001 2.77555756e-017
      4.93124351e-002 2.77555756e-017 2.77555756e-017 2.77555756e-017
      2.77555756e-017 2.77555756e-017 2.77555756e-017 2.77555756e-017
      2.77555756e-017 2.77555756e-017 2.77555756e-017 -1.05291001e-001
      2.77555756e-017 2.77555756e-017 2.77555756e-017 1.69087332e-002
      -1.13374286e-003 2.77555756e-017 2.77555756e-017 2.77555756e-017
      2.77555756e-017 5.76285319e-003 4.50376235e-003 2.77555756e-017
      2.77555756e-017 2.77555756e-017 2.77555756e-017 2.77555756e-017
      2.77555756e-017 2.77555756e-017 2.77555756e-017 2.77555756e-017
      2.77555756e-017 2.77555756e-017 2.77555756e-017 2.77555756e-017
      2.77555756e-017 -1.70752369e-002 -1.18678892e-002 -2.27034271e-001
      -5.02516069e-002 8.02106690e-003 -5.99600114e-002 7.88283627e-003
      1.16038714e-002 -6.15033135e-002 2.77555756e-017 2.77555756e-017
      2.77555756e-017 2.77555756e-017 2.77555756e-017 2.77555756e-017
      2.77555756e-017 2.77555756e-017 2.77555756e-017 -7.07666064e-003
      -8.86326004e-003 7.07833841e-003 1.12652984e-002 2.77555756e-017
      2.77555756e-017 2.77555756e-017 2.77555756e-017 -6.87463209e-003
      7.07833841e-003 2.77555756e-017 2.77555756e-017 3.77013255e-003
      7.56422710e-003 2.77555756e-017 2.77555756e-017 3.77013255e-003
      2.77555756e-017</_>
    <_>
      -5.74433729e-002 -3.38271078e-017 -2.99967080e-002
      -2.47010052e-001 -2.99601376e-001 -7.12126121e-002
      -3.38271078e-017 -1.83020934e-001 -2.16524042e-002
      -1.39097748e-002 -3.15835118e-001 -7.36921877e-002
      -3.38271078e-017 -6.10330813e-002 -2.99499426e-002
      -7.25801452e-004 -2.18244717e-002 -3.38271078e-017
      -3.38271078e-017 -2.80643124e-002 1.79160014e-002 2.35915668e-002
      -6.00059656e-003 -3.38271078e-017 -3.38271078e-017 3.36084794e-003
      2.24169474e-002 5.47296032e-002 7.25238994e-002 -3.38271078e-017
      -3.10661554e-001 -4.55237255e-002 3.12616378e-002 5.63631952e-002
      -3.38271078e-017 2.84132045e-002 -3.38271078e-017 -3.38271078e-017
      -3.38271078e-017 -3.38271078e-017 -3.38271078e-017
      -3.38271078e-017 -3.38271078e-017 -3.38271078e-017
      -3.38271078e-017 -1.37742073e-003 -3.38271078e-017
      -3.38271078e-017 -3.38271078e-017 -3.38271078e-017 8.07870552e-002
      -3.38271078e-017 -3.38271078e-017 -3.38271078e-017
      -3.38271078e-017 -3.38271078e-017 2.76528038e-002 1.97792449e-003
      -3.38271078e-017 -3.38271078e-017 -3.38271078e-017
      -3.38271078e-017 -3.56134051e-003 -3.38271078e-017
      -3.38271078e-017 -3.38271078e-017 -3.38271078e-017
      -3.38271078e-017 -3.38271078e-017 -3.38271078e-017
      -3.38271078e-017 -3.38271078e-017 -1.39868215e-001
      -2.16524042e-002 -3.14870983e-001 -5.12564145e-002 9.19220038e-003
      -1.95168909e-002 9.15694460e-002 2.34457608e-002 2.84132045e-002
      -3.38271078e-017 -3.38271078e-017 -3.38271078e-017
      -3.38271078e-017 -3.38271078e-017 -3.38271078e-017
      -3.38271078e-017 -3.38271078e-017 -3.38271078e-017
      -3.06179989e-002 -5.54694841e-003 4.25944617e-003 4.13818583e-002
      -3.38271078e-017 -3.38271078e-017 -3.38271078e-017
      -3.38271078e-017 -2.85995789e-002 7.43378070e-004 -3.38271078e-017
      -3.38271078e-017 4.25944617e-003 2.89171804e-002 -3.38271078e-017
      -3.38271078e-017 7.43378070e-004 -3.38271078e-017</_>
    <_>
      -3.33066907e-016 -3.33066907e-016 -6.49470806e-001
      -7.26488829e-001 -3.33066907e-016 -3.33066907e-016
      -3.33066907e-016 -3.01947862e-001 -4.44701090e-002
      -8.16691667e-002 -2.68643349e-001 -3.33066907e-016
      -3.33066907e-016 1.79604813e-001 1.75629213e-001 2.77826250e-001
      1.43859372e-001 -3.33066907e-016 -3.33066907e-016 1.81953683e-001
      5.38411617e-001 5.76970696e-001 2.35372737e-001 -3.33066907e-016
      -3.33066907e-016 1.42686278e-001 5.06835461e-001 7.09167004e-001
      -9.00889188e-003 -3.33066907e-016 -3.12391222e-001
      -2.40685090e-001 3.27242285e-001 4.49031770e-001 -3.33066907e-016
      1.05103183e+000 -3.33066907e-016 -3.33066907e-016 -3.33066907e-016
      -3.33066907e-016 -3.33066907e-016 -3.33066907e-016
      -3.33066907e-016 -3.33066907e-016 -3.33066907e-016
      -3.33066907e-016 -3.33066907e-016 -3.33066907e-016
      -3.33066907e-016 -3.33066907e-016 8.17234367e-002 -2.49900785e-003
      -3.33066907e-016 -3.33066907e-016 -3.33066907e-016
      -3.33066907e-016 6.51140213e-002 2.78549306e-002 -3.33066907e-016
      -3.33066907e-016 -3.33066907e-016 -3.33066907e-016
      -3.33066907e-016 -3.33066907e-016 -3.33066907e-016
      -3.33066907e-016 -3.33066907e-016 -3.33066907e-016
      -3.33066907e-016 -3.33066907e-016 -3.33066907e-016
      -3.33066907e-016 -5.56663536e-002 -9.61230025e-002
      -2.64894843e-001 1.90380394e-001 5.01412988e-001 1.93990961e-001
      -1.74521968e-001 3.34596843e-001 -5.32269716e-001 -3.33066907e-016
      -3.33066907e-016 -3.33066907e-016 -3.33066907e-016
      -3.33066907e-016 -3.33066907e-016 -3.33066907e-016
      -3.33066907e-016 -3.33066907e-016 4.56351638e-002 1.71755478e-001
      5.99339828e-002 5.19748814e-002 -3.33066907e-016 -3.33066907e-016
      -3.33066907e-016 -3.33066907e-016 9.11257640e-002 -3.42137809e-003
      -3.33066907e-016 -3.33066907e-016 5.99339828e-002 4.71578129e-002
      -3.33066907e-016 -3.33066907e-016 -3.42137809e-003
      -3.33066907e-016</_>
    <_>
      6.33174069e-017 6.33174069e-017 -5.45067377e-002 4.04316448e-002
      6.33174069e-017 6.33174069e-017 6.33174069e-017 -9.85736549e-002
      -2.45769490e-002 -5.23101762e-002 -1.82728947e-003 6.33174069e-017
      6.33174069e-017 -1.21773422e-001 -2.35798210e-002 -5.55451401e-002
      -8.66328925e-002 -1.81701854e-002 6.33174069e-017 -2.43891269e-001
      7.97946472e-003 -9.73315735e-004 -2.20021680e-001 -1.29516855e-001
      6.33174069e-017 -1.62630230e-002 3.77181619e-002 4.49631512e-002
      -2.30096087e-001 -1.21925719e-001 7.22131357e-002 6.33174069e-017
      3.19926552e-002 6.59284443e-002 -5.53459167e-001 7.18420222e-002
      6.33174069e-017 6.33174069e-017 6.33174069e-017 6.33174069e-017
      6.33174069e-017 6.33174069e-017 6.33174069e-017 6.33174069e-017
      6.33174069e-017 6.33174069e-017 6.33174069e-017 6.33174069e-017
      6.33174069e-017 6.33174069e-017 6.25508651e-002 6.33174069e-017
      6.33174069e-017 6.33174069e-017 6.33174069e-017 6.33174069e-017
      3.84928398e-002 -2.14108918e-002 -1.73038768e-003 6.33174069e-017
      6.33174069e-017 6.33174069e-017 6.33174069e-017 -2.55622357e-001
      -1.15140341e-001 6.33174069e-017 6.33174069e-017 6.33174069e-017
      6.33174069e-017 -2.22957432e-002 -9.70764011e-002 6.33174069e-017
      -9.85736549e-002 -3.02638244e-002 -1.82728947e-003
      -2.62953460e-001 -7.29918364e-004 -2.23409534e-001 5.87741062e-002
      2.73225103e-002 -3.16840231e-001 6.33174069e-017 6.33174069e-017
      6.33174069e-017 6.33174069e-017 6.33174069e-017 6.33174069e-017
      6.33174069e-017 6.33174069e-017 6.33174069e-017 -3.73582467e-002
      -5.55451401e-002 6.90001762e-003 1.29435109e-002 6.33174069e-017
      6.33174069e-017 6.33174069e-017 6.33174069e-017 -4.41965424e-002
      5.07774623e-003 6.33174069e-017 6.33174069e-017 2.96716462e-003
      5.07774623e-003 6.33174069e-017 6.33174069e-017 1.14489277e-003
      6.33174069e-017</_>
    <_>
      2.22044605e-016 2.22044605e-016 2.11815000e-001 -1.99653685e-001
      2.22044605e-016 2.22044605e-016 2.22044605e-016 4.11643833e-001
      1.76237617e-002 3.77094671e-002 2.22044605e-016 2.22044605e-016
      2.22044605e-016 8.86217475e-001 1.63996741e-002 1.03225112e-001
      3.67478609e-001 2.22044605e-016 2.22044605e-016 1.24403350e-001
      1.79481506e-001 2.11263224e-001 3.72558922e-001 2.22044605e-016
      1.32669672e-001 -3.05356830e-001 1.39460906e-001 2.40257934e-001
      2.22044605e-016 2.22044605e-016 -2.31008336e-001 -9.68442440e-001
      1.82566628e-001 1.85620368e-001 2.22044605e-016 4.76309150e-001
      2.22044605e-016 2.22044605e-016 2.22044605e-016 2.22044605e-016
      2.22044605e-016 2.22044605e-016 2.22044605e-016 2.22044605e-016
      2.22044605e-016 2.22044605e-016 2.22044605e-016 2.22044605e-016
      2.22044605e-016 2.22044605e-016 2.13644296e-001 2.22044605e-016
      2.22044605e-016 2.22044605e-016 2.22044605e-016 2.22044605e-016
      1.36136804e-002 2.22044605e-016 2.22044605e-016 2.22044605e-016
      2.22044605e-016 2.22044605e-016 -7.30820745e-002 2.22044605e-016
      2.22044605e-016 2.22044605e-016 2.22044605e-016 2.22044605e-016
      -2.63457522e-002 2.22044605e-016 2.22044605e-016 2.22044605e-016
      4.11643833e-001 1.65787637e-002 2.22044605e-016 1.64627641e-001
      1.70148239e-001 3.67478609e-001 2.03853503e-001 1.43241495e-001
      4.76309150e-001 2.22044605e-016 2.22044605e-016 2.22044605e-016
      2.22044605e-016 2.22044605e-016 2.22044605e-016 2.22044605e-016
      2.22044605e-016 2.22044605e-016 1.07579324e-002 8.99789333e-002
      7.31126219e-002 5.27932383e-002 2.22044605e-016 2.22044605e-016
      2.22044605e-016 2.22044605e-016 3.88188660e-002 4.84969243e-002
      2.22044605e-016 2.22044605e-016 7.31126219e-002 5.27932383e-002
      2.22044605e-016 2.22044605e-016 4.84969243e-002 2.22044605e-016</_>
    <_>
      -9.66828763e-002 -1.00659020e-001 -7.72465067e-003
      -6.50817528e-002 -9.39949453e-002 -8.91047567e-002
      -9.66622159e-002 -3.86388227e-002 -2.77684606e-003
      -3.37988627e-003 -9.35075954e-002 -8.51039663e-002
      -9.44823250e-002 -3.83734368e-002 -1.99441146e-003
      -2.22017244e-003 -5.60509749e-002 -5.00642546e-002
      -4.72532250e-002 -3.27815525e-002 7.82074034e-003 4.46384586e-003
      -4.78025191e-002 -1.04083409e-017 -1.04083409e-017
      -2.64433641e-002 9.19562951e-003 1.13421082e-002 3.06691956e-002
      -1.04083409e-017 -1.00843692e-002 -1.04203830e-002 6.24510366e-003
      1.21886497e-002 -4.50920910e-002 -1.00843692e-002 -1.04083409e-017
      -1.04083409e-017 -1.04083409e-017 -1.04083409e-017
      -1.04083409e-017 -1.04083409e-017 -1.04083409e-017
      -4.48256209e-002 -6.69039087e-004 -1.04083409e-017
      -1.04083409e-017 -1.04083409e-017 -1.04083409e-017
      -4.07009013e-003 1.16653340e-002 -2.68584612e-004 -1.04083409e-017
      -1.04083409e-017 -1.04083409e-017 -1.04083409e-017 3.25233419e-003
      9.44054278e-004 -1.04083409e-017 -1.04083409e-017 -1.04083409e-017
      -1.04083409e-017 -6.69039087e-004 -1.04083409e-017
      -1.04083409e-017 -1.04083409e-017 -1.04083409e-017
      -1.04083409e-017 -1.04083409e-017 -3.78084485e-003
      -1.04083409e-017 -1.04083409e-017 -3.86388227e-002
      -2.77684606e-003 -9.39949453e-002 -3.56189571e-002 3.79710644e-003
      -5.49495779e-002 6.92647928e-003 6.24510366e-003 -1.40924780e-002
      -1.04083409e-017 -1.04083409e-017 -1.04083409e-017
      -1.04083409e-017 -1.04083409e-017 -1.04083409e-017
      -1.04083409e-017 -1.04083409e-017 -1.04083409e-017
      -2.15334841e-003 -2.22017244e-003 5.09680202e-003 5.33197541e-003
      -1.04083409e-017 -1.04083409e-017 -1.04083409e-017
      -1.04083409e-017 -2.15334841e-003 4.66293469e-003 -1.04083409e-017
      -1.04083409e-017 3.25071672e-003 3.10184527e-003 -1.04083409e-017
      -1.04083409e-017 2.87883054e-003 -1.04083409e-017</_>
    <_>
      -2.77555756e-017 -2.77555756e-017 1.09702170e-001 -2.10542139e-002
      -2.77555756e-017 -2.77555756e-017 -1.24738961e-001
      -1.36411518e-001 6.13709986e-002 5.32659031e-002 -1.13157839e-001
      -1.04304269e-001 -2.80816197e-001 -1.27466649e-001 4.67440300e-002
      2.17149965e-002 -1.31026059e-001 -1.19497828e-001 -2.25479230e-001
      -4.56112772e-002 6.79115718e-003 -3.47360922e-003 -3.51944566e-002
      -1.91979438e-001 -2.77555756e-017 1.11852050e-001 8.85156076e-003
      9.82398819e-003 -6.23412468e-002 -1.47711605e-001 1.68836266e-002
      -2.77555756e-017 9.75131057e-003 8.05260800e-003 -2.77555756e-017
      2.26476118e-002 -2.77555756e-017 -2.77555756e-017 -2.77555756e-017
      -2.77555756e-017 -2.77555756e-017 -2.77555756e-017
      -2.77555756e-017 -2.77555756e-017 -2.77555756e-017
      -2.77555756e-017 -2.77555756e-017 -2.77555756e-017
      -2.77555756e-017 -2.77555756e-017 5.92330098e-002 -2.77555756e-017
      -2.77555756e-017 -2.77555756e-017 -2.77555756e-017
      -2.77555756e-017 1.42690763e-002 2.06363644e-003 -2.77555756e-017
      -2.77555756e-017 -2.77555756e-017 -2.77555756e-017
      -2.77555756e-017 -2.77555756e-017 -2.77555756e-017
      -2.77555756e-017 -2.77555756e-017 -2.77555756e-017
      -2.77555756e-017 -2.77555756e-017 -2.77555756e-017
      -2.77555756e-017 -1.37644783e-001 6.09599091e-002 -1.13157839e-001
      -1.19110234e-001 4.63479990e-003 -1.20964535e-001 1.37083113e-001
      1.07222814e-002 -1.25064000e-001 -2.77555756e-017 -2.77555756e-017
      -2.77555756e-017 -2.77555756e-017 -2.77555756e-017
      -2.77555756e-017 -2.77555756e-017 -2.77555756e-017
      -2.77555756e-017 4.71931845e-002 2.17149965e-002 9.01606586e-003
      1.01137199e-002 -2.77555756e-017 -2.77555756e-017 -2.77555756e-017
      -2.77555756e-017 2.90835015e-002 1.01137199e-002 -2.77555756e-017
      -2.77555756e-017 9.01606586e-003 1.01137199e-002 -2.77555756e-017
      -2.77555756e-017 1.01137199e-002 -2.77555756e-017</_>
    <_>
      -2.94902991e-017 -2.94902991e-017 7.94726163e-002 -3.46802473e-002
      -2.94902991e-017 -2.94902991e-017 -2.94902991e-017 1.66119467e-002
      7.91422650e-002 7.48496577e-002 -2.94902991e-017 -2.94902991e-017
      -2.94902991e-017 2.20979527e-002 8.71290118e-002 8.47366154e-002
      4.90393713e-002 -2.94902991e-017 -2.94902991e-017 2.25578118e-002
      1.07773282e-001 1.00355029e-001 -3.82581949e-002 -2.94902991e-017
      -4.83073667e-002 -1.86224643e-003 1.15782879e-001 1.21123560e-001
      -1.45476863e-001 -2.94902991e-017 1.80583226e-003 -9.49740559e-002
      1.10919215e-001 1.10696465e-001 -1.66489452e-001 1.14825316e-001
      -2.94902991e-017 -2.94902991e-017 -2.94902991e-017
      -2.94902991e-017 -2.94902991e-017 -2.94902991e-017
      -2.94902991e-017 -2.94902991e-017 -2.94902991e-017
      -2.94902991e-017 -2.94902991e-017 -2.94902991e-017
      -2.94902991e-017 -2.94902991e-017 -3.36877517e-002
      -2.94902991e-017 -2.94902991e-017 -2.94902991e-017
      -2.94902991e-017 -2.94902991e-017 -8.00723359e-002 5.00972557e-004
      -2.94902991e-017 -2.94902991e-017 -2.94902991e-017
      -2.94902991e-017 -7.49196410e-002 -5.05455257e-003
      -2.94902991e-017 -2.94902991e-017 -2.94902991e-017
      -2.94902991e-017 -2.94902991e-017 -6.26490414e-002
      -2.94902991e-017 -2.94902991e-017 1.66119467e-002 7.91422650e-002
      -2.94902991e-017 2.21149586e-002 1.06654845e-001 4.77283858e-002
      4.87295985e-002 1.10738888e-001 -4.82699685e-002 -2.94902991e-017
      -2.94902991e-017 -2.94902991e-017 -2.94902991e-017
      -2.94902991e-017 -2.94902991e-017 -2.94902991e-017
      -2.94902991e-017 -2.94902991e-017 8.71290118e-002 8.47366154e-002
      1.08629242e-001 1.19264573e-001 -2.94902991e-017 -2.94902991e-017
      -2.94902991e-017 -2.94902991e-017 8.76194686e-002 1.12035163e-001
      -2.94902991e-017 -2.94902991e-017 1.06916167e-001 1.18836306e-001
      -2.94902991e-017 -2.94902991e-017 1.10322088e-001 -2.94902991e-017</_>
    <_>
      -8.32667268e-017 -1.73390005e-002 -6.26653284e-002
      -5.79636395e-002 -3.82479846e-001 -8.32667268e-017
      -8.32667268e-017 -1.86652727e-002 -3.86325009e-002
      -3.71120311e-002 -3.87206584e-001 -1.14961965e-002
      -8.32667268e-017 -1.83083233e-003 -3.07573806e-002 3.02305375e-003
      -2.09145830e-004 -1.18155358e-002 -8.04733764e-003
      -2.09507113e-003 2.14282889e-002 3.76185328e-002 8.52026802e-004
      -1.21987415e-002 -8.32667268e-017 -2.50707427e-003 2.74356157e-002
      3.93641740e-002 1.35101322e-002 -8.32667268e-017 -1.13242324e-002
      -8.32667268e-017 2.02576015e-002 2.34610010e-002 -8.32667268e-017
      -9.90521163e-004 -8.32667268e-017 -8.32667268e-017
      -2.36449391e-003 -1.78764551e-003 -8.32667268e-017
      -8.32667268e-017 -8.32667268e-017 -8.32667268e-017
      -1.91603278e-004 -8.32667268e-017 -8.32667268e-017
      -8.32667268e-017 -8.32667268e-017 -8.32667268e-017 1.87112833e-003
      -8.32667268e-017 -8.32667268e-017 -8.32667268e-017
      -8.32667268e-017 -8.32667268e-017 2.10470357e-003 3.68458161e-004
      -8.32667268e-017 -8.32667268e-017 -8.32667268e-017
      -8.32667268e-017 -8.32667268e-017 -8.32667268e-017
      -8.32667268e-017 -8.32667268e-017 -8.32667268e-017
      -8.32667268e-017 -8.32667268e-017 -8.32667268e-017
      -8.32667268e-017 -8.32667268e-017 -1.45023111e-002
      -3.86325009e-002 -3.87154043e-001 -1.58939639e-003 6.91283587e-003
      2.20722475e-004 -1.38444426e-002 2.03424972e-002 -9.90521163e-004
      -8.32667268e-017 -8.32667268e-017 -8.32667268e-017
      -8.32667268e-017 -8.32667268e-017 -8.32667268e-017
      -8.32667268e-017 -8.32667268e-017 -8.32667268e-017
      -3.07573806e-002 -1.30657693e-002 -5.05490648e-003 7.29793042e-004
      -8.32667268e-017 -8.32667268e-017 -8.32667268e-017
      -8.32667268e-017 -2.18824781e-002 1.11949361e-004 -8.32667268e-017
      -8.32667268e-017 -5.18264109e-003 5.38189313e-004 -8.32667268e-017
      -8.32667268e-017 -1.57851991e-005 -8.32667268e-017</_>
    <_>
      -1.19010158e-001 1.38777878e-017 1.90191567e-002 2.14659702e-002
      8.80341008e-002 1.01865577e-002 1.38777878e-017 -7.51209483e-002
      1.24552883e-002 2.50457716e-003 4.99826819e-002 1.87089164e-002
      1.38777878e-017 -4.72643413e-002 6.59137638e-003 2.99769063e-002
      1.19459689e-001 2.42253214e-001 1.38777878e-017 1.38046563e-001
      4.10712091e-003 1.48493079e-002 2.77680874e-001 2.63601188e-002
      1.38777878e-017 1.08741581e-001 -2.29759933e-003 4.47905762e-003
      4.40749973e-001 1.38777878e-017 -8.72721970e-002 7.39969015e-002
      9.20136645e-003 -7.31362030e-002 3.57981212e-002 -1.26387894e-001
      1.38777878e-017 1.38777878e-017 1.38777878e-017 1.38777878e-017
      1.38777878e-017 1.38777878e-017 1.38777878e-017 1.38777878e-017
      1.38777878e-017 -4.77322377e-003 1.90866128e-001 1.38777878e-017
      1.38777878e-017 1.38777878e-017 -5.58843836e-004 5.68979420e-004
      1.38777878e-017 1.38777878e-017 1.38777878e-017 1.38777878e-017
      1.38777878e-017 1.38777878e-017 1.38777878e-017 1.38777878e-017
      1.38777878e-017 1.38777878e-017 1.38777878e-017 1.38777878e-017
      1.38777878e-017 1.38777878e-017 1.38777878e-017 1.38777878e-017
      1.38777878e-017 1.38777878e-017 1.38777878e-017 1.38777878e-017
      -7.51209483e-002 1.24552883e-002 5.35748266e-002 -2.34036054e-002
      6.42253412e-003 1.24267124e-001 1.50906682e-001 3.20804282e-003
      9.08375606e-002 1.38777878e-017 1.38777878e-017 1.38777878e-017
      1.38777878e-017 1.38777878e-017 1.38777878e-017 1.38777878e-017
      1.38777878e-017 1.38777878e-017 9.87800956e-003 1.61495246e-002
      -3.60907335e-003 -1.23881772e-002 1.38777878e-017 1.38777878e-017
      1.38777878e-017 1.38777878e-017 1.07203247e-002 -1.16471807e-002
      1.38777878e-017 1.38777878e-017 9.91887529e-004 -5.61572192e-003
      1.38777878e-017 1.38777878e-017 -6.20390428e-003 1.38777878e-017</_>
    <_>
      7.63278329e-017 7.63278329e-017 1.70122590e-002 -7.85310462e-004
      3.61521006e-001 2.23027781e-001 7.63278329e-017 5.09767197e-002
      3.98600958e-002 1.89126953e-002 8.90857577e-002 2.15899587e-001
      7.63278329e-017 7.39297941e-002 3.52970697e-002 3.51189934e-002
      8.99752527e-002 2.08861664e-001 7.63278329e-017 7.19468966e-002
      3.01930346e-002 2.23935917e-002 8.90218318e-002 1.39910365e-002
      7.63278329e-017 6.80691823e-002 2.32135132e-002 4.35429392e-003
      8.80889744e-002 6.13800343e-003 -6.47494793e-002 5.03897034e-002
      1.57294143e-002 -1.45606488e-001 7.63278329e-017 -6.72965273e-002
      7.63278329e-017 7.63278329e-017 7.63278329e-017 7.63278329e-017
      7.63278329e-017 7.63278329e-017 7.63278329e-017 7.63278329e-017
      7.63278329e-017 7.63278329e-017 1.91029474e-001 7.63278329e-017
      7.63278329e-017 7.63278329e-017 -9.12875636e-004 -1.91521063e-003
      7.63278329e-017 7.63278329e-017 7.63278329e-017 7.63278329e-017
      -4.56437818e-004 -2.54706386e-003 7.63278329e-017 7.63278329e-017
      7.63278329e-017 7.63278329e-017 7.63278329e-017 7.63278329e-017
      7.63278329e-017 7.63278329e-017 7.63278329e-017 7.63278329e-017
      7.63278329e-017 7.63278329e-017 7.63278329e-017 7.63278329e-017
      5.09767197e-002 3.22189033e-002 9.39943865e-002 7.39297941e-002
      3.13862190e-002 9.22391713e-002 4.30968637e-003 6.81468192e-003
      8.34174752e-002 7.63278329e-017 7.63278329e-017 7.63278329e-017
      7.63278329e-017 7.63278329e-017 7.63278329e-017 7.63278329e-017
      7.63278329e-017 7.63278329e-017 3.79399285e-002 2.52913851e-002
      -5.40499855e-003 -3.16012325e-003 7.63278329e-017 7.63278329e-017
      7.63278329e-017 7.63278329e-017 3.41193229e-002 -7.95204379e-003
      7.63278329e-017 7.63278329e-017 -1.87493884e-003 1.36235380e-003
      7.63278329e-017 7.63278329e-017 -4.42198385e-003 7.63278329e-017</_>
    <_>
      -6.93889390e-017 -6.93889390e-017 -5.51585667e-003 1.90716505e-001
      3.05271089e-001 1.48548812e-001 -6.93889390e-017 -4.04380597e-002
      -3.26975220e-004 -1.93007067e-002 1.11941218e-001 1.47122383e-001
      -6.93889390e-017 -1.61167458e-002 3.43817403e-003 -1.53288031e-002
      8.55532438e-002 5.76955974e-002 -6.93889390e-017 -2.76361909e-002
      -5.41210733e-003 -3.33583318e-002 8.75859037e-002 4.20713276e-002
      -6.93889390e-017 -1.09203933e-002 -6.53714640e-003
      -3.61783765e-002 8.66915137e-002 -3.64040062e-002 -1.43262267e-001
      1.47321850e-001 -4.97453660e-003 -1.58141911e-001 -1.92362025e-001
      -8.90529305e-002 -6.93889390e-017 -6.93889390e-017
      -6.93889390e-017 -6.93889390e-017 -6.93889390e-017
      -6.93889390e-017 -6.93889390e-017 -6.93889390e-017
      -6.93889390e-017 -6.93889390e-017 1.85618084e-002 -6.93889390e-017
      -6.93889390e-017 -6.93889390e-017 -6.93889390e-017 5.44143468e-003
      -6.93889390e-017 -6.93889390e-017 -6.93889390e-017
      -6.93889390e-017 -6.93889390e-017 -3.22888233e-002
      -8.35574716e-002 -6.93889390e-017 -6.93889390e-017
      -6.93889390e-017 -6.93889390e-017 -7.37067685e-002
      -8.35574716e-002 -6.93889390e-017 -6.93889390e-017
      -6.93889390e-017 -6.93889390e-017 -1.02942802e-001
      -6.93889390e-017 -6.93889390e-017 -4.04380597e-002
      -4.78220638e-003 1.13169298e-001 -1.61167458e-002 -8.06115754e-003
      8.82697627e-002 -1.51036158e-002 -1.45516731e-002 2.01956071e-002
      -6.93889390e-017 -6.93889390e-017 -6.93889390e-017
      -6.93889390e-017 -6.93889390e-017 -6.93889390e-017
      -6.93889390e-017 -6.93889390e-017 -6.93889390e-017
      -8.16660409e-004 -1.53288031e-002 -2.19854526e-002
      -3.98990400e-002 -6.93889390e-017 -6.93889390e-017
      -6.93889390e-017 -6.93889390e-017 -3.55189550e-003
      -2.37668175e-002 -6.93889390e-017 -6.93889390e-017
      -1.22473724e-002 -2.22602896e-002 -6.93889390e-017
      -6.93889390e-017 -1.09718498e-002 -6.93889390e-017</_>
    <_>
      -2.08166817e-017 -2.08166817e-017 2.41642054e-002 1.80609226e-002
      1.25861064e-001 7.85757825e-002 -2.08166817e-017 4.76362519e-002
      9.10613872e-003 5.96502051e-003 1.28143027e-001 7.74840713e-002
      -2.08166817e-017 6.51430115e-002 7.51686189e-003 8.42890795e-003
      1.29023328e-001 7.64767379e-002 4.78288537e-004 7.09473668e-003
      3.63655295e-003 5.03646908e-003 1.29920900e-001 5.12493588e-002
      -2.08166817e-017 5.58216777e-003 1.10201072e-003 -1.63041893e-003
      1.30662590e-001 2.20984910e-002 -3.36844362e-002 -6.47830516e-002
      2.80229724e-003 -4.60819416e-002 -2.08166817e-017 -3.36844362e-002
      -2.08166817e-017 -2.08166817e-017 -2.08166817e-017
      -2.08166817e-017 -2.08166817e-017 -2.08166817e-017
      -2.08166817e-017 -2.08166817e-017 -2.08166817e-017
      -2.08166817e-017 2.52311062e-002 -2.08166817e-017 -2.08166817e-017
      -2.08166817e-017 -2.08166817e-017 2.28609843e-003 -2.08166817e-017
      -2.08166817e-017 -2.08166817e-017 -2.08166817e-017
      -4.63150106e-002 -2.08166817e-017 -2.08166817e-017
      -2.08166817e-017 -2.08166817e-017 -2.08166817e-017
      -8.29228200e-003 -2.08166817e-017 -2.08166817e-017
      -2.08166817e-017 -2.08166817e-017 -2.08166817e-017
      -4.62556910e-003 -2.08166817e-017 -2.08166817e-017
      -2.08166817e-017 4.76362519e-002 9.10613872e-003 1.27885133e-001
      1.10262083e-002 5.48274070e-003 1.30772263e-001 2.43168343e-002
      2.12764740e-003 7.67935067e-002 -2.08166817e-017 -2.08166817e-017
      -2.08166817e-017 -2.08166817e-017 -2.08166817e-017
      -2.08166817e-017 -2.08166817e-017 -2.08166817e-017
      -2.08166817e-017 9.73263197e-003 7.05156149e-003 -6.22169289e-004
      -4.89004795e-003 -2.08166817e-017 -2.08166817e-017
      -2.08166817e-017 -2.08166817e-017 9.73263197e-003 -1.25057460e-003
      -2.08166817e-017 -2.08166817e-017 3.74235190e-003 -1.99935725e-003
      -2.08166817e-017 -2.08166817e-017 3.11394641e-003 -2.08166817e-017</_>
    <_>
      -1.84116453e-001 -2.30061248e-001 3.40460986e-003 -1.60341356e-002
      -1.94272697e-002 -3.66445556e-002 -2.22596616e-001
      -1.90491751e-002 4.80611343e-003 -2.60329037e-003 -1.80043820e-002
      -2.92790271e-002 -2.18082637e-001 -1.23054776e-002 1.80635042e-003
      3.45441164e-003 -1.33445645e-002 -2.56469268e-002 -1.13325730e-001
      -1.03867985e-002 5.81858028e-003 4.23459196e-003 -1.66585355e-003
      1.43001303e-002 -3.45768780e-002 -1.34135401e-002 3.15291830e-003
      5.67298569e-003 9.69090685e-002 4.36104229e-003 -6.56064749e-002
      9.22945701e-003 4.43050405e-003 -1.27078244e-003 -7.71035925e-002
      -2.15833429e-002 2.42861287e-017 2.42861287e-017 2.42861287e-017
      2.42861287e-017 2.42861287e-017 2.42861287e-017 2.42861287e-017
      -1.32883430e-001 -1.47258223e-003 2.42861287e-017 1.49220154e-002
      2.42861287e-017 2.42861287e-017 -3.88672650e-002 -3.60598811e-003
      -1.89444679e-003 2.42861287e-017 2.42861287e-017 2.42861287e-017
      2.42861287e-017 -2.45430367e-003 2.42861287e-017 2.42861287e-017
      2.42861287e-017 2.42861287e-017 2.42861287e-017 -1.47258223e-003
      2.42861287e-017 2.42861287e-017 2.42861287e-017 2.42861287e-017
      2.42861287e-017 -1.60408195e-003 -7.19718635e-002 2.42861287e-017
      2.42861287e-017 -1.90491751e-002 4.09318833e-003 -2.01538969e-002
      -1.22514395e-002 3.17793828e-003 -1.50895854e-002 1.33014866e-003
      4.43050405e-003 9.76335034e-002 2.42861287e-017 2.42861287e-017
      2.42861287e-017 2.42861287e-017 2.42861287e-017 2.42861287e-017
      2.42861287e-017 2.42861287e-017 2.42861287e-017 5.01626497e-003
      2.56325374e-003 1.57065841e-003 -7.65374920e-004 2.42861287e-017
      2.42861287e-017 2.42861287e-017 2.42861287e-017 4.30333987e-003
      -2.57255114e-003 2.42861287e-017 2.42861287e-017 1.45805255e-003
      -1.94263086e-003 2.42861287e-017 2.42861287e-017 -2.09326809e-003
      2.42861287e-017</_>
    <_>
      -6.87178150e-002 0. 1.27407342e-001 1.14854142e-001
      1.76065609e-001 1.02126747e-001 -1.53209805e-001 -3.90128344e-002
      4.59533744e-002 3.95055190e-002 1.05737813e-001 4.55608293e-002
      -1.88533798e-001 -3.54537852e-002 2.57582404e-002 7.14799482e-003
      2.51533594e-002 1.07381858e-001 -7.46069625e-002 5.65442033e-002
      -1.17307724e-002 -1.59609374e-002 1.17155798e-001 -1.32532232e-002
      0. 1.38159886e-001 -1.54095720e-002 -2.95487139e-002
      1.85535744e-001 -5.03724068e-002 -6.41957447e-002 5.70481308e-002
      -1.17002679e-002 -8.08844119e-002 -7.81285018e-002
      -4.32040095e-002 0. 0. 0. 0. 0. 0. 0. 0. 0. 0. 6.21886551e-002 0.
      0. 0. 0. 2.05580704e-003 0. 0. 0. 0. 0. 0. 0. 0. 0. 0. 0. 0. 0. 0.
      0. 0. 0. 0. 0. 0. -4.27610762e-002 4.59533744e-002 1.05121642e-001
      -3.54189761e-002 -8.25598463e-003 2.95864455e-002 7.59825632e-002
      -1.52322995e-002 2.01586122e-003 0. 0. 0. 0. 0. 0. 0. 0. 0.
      2.97065992e-002 7.14799482e-003 -9.31293238e-003 -1.88078117e-002
      0. 0. 0. 0. 1.37832360e-002 -9.51747317e-003 0. 0.
      -6.28349325e-003 -1.27865663e-002 0. 0. -5.99410711e-003 0.</_>
    <_>
      -1.38777878e-017 -1.38777878e-017 5.03176041e-002 4.67403866e-002
      1.27361506e-001 7.65672848e-002 -1.38777878e-017 3.54743451e-002
      5.29713444e-002 4.73553650e-002 1.29564613e-001 7.59498477e-002
      -1.38777878e-017 3.31688523e-002 5.25101274e-002 4.80859652e-002
      6.56995401e-002 7.44346827e-002 -1.38777878e-017 2.63197329e-002
      4.69759330e-002 4.27892134e-002 4.14720550e-002 4.35144082e-002
      -8.54951423e-003 2.76027732e-002 4.77617979e-002 4.26476561e-002
      4.25058715e-002 1.90901924e-002 -4.72247861e-002 -2.85414513e-002
      4.39882614e-002 -1.04658548e-002 -7.76057765e-002 8.08769930e-003
      -1.38777878e-017 -1.38777878e-017 -1.38777878e-017
      -1.38777878e-017 -1.38777878e-017 -1.38777878e-017
      -1.38777878e-017 -1.38777878e-017 -1.38777878e-017
      -1.38777878e-017 3.03032864e-002 -1.38777878e-017 -1.38777878e-017
      -1.38777878e-017 -1.43587990e-002 1.96516677e-003 -1.38777878e-017
      -1.38777878e-017 -1.38777878e-017 -1.38777878e-017
      -7.53076822e-002 -1.38777878e-017 -1.38777878e-017
      -1.38777878e-017 -1.38777878e-017 -1.38777878e-017
      -6.80897310e-002 -3.49593908e-002 -1.38777878e-017
      -1.38777878e-017 -1.38777878e-017 -1.38777878e-017
      -1.38777878e-017 -3.03846914e-002 -1.38777878e-017
      -1.38777878e-017 3.54743451e-002 5.29713444e-002 1.29606962e-001
      3.01088225e-002 4.95788753e-002 5.40401936e-002 2.83182003e-002
      4.28957865e-002 4.40197438e-002 -1.38777878e-017 -1.38777878e-017
      -1.38777878e-017 -1.38777878e-017 -1.38777878e-017
      -1.38777878e-017 -1.38777878e-017 -1.38777878e-017
      -1.38777878e-017 5.45845740e-002 4.80859652e-002 4.47400324e-002
      4.21642102e-002 -1.38777878e-017 -1.38777878e-017 -1.38777878e-017
      -1.38777878e-017 5.31361476e-002 4.56677787e-002 -1.38777878e-017
      -1.38777878e-017 4.87503409e-002 4.63684835e-002 -1.38777878e-017
      -1.38777878e-017 4.98683862e-002 -1.38777878e-017</_>
    <_>
      2.77555756e-017 -5.30141771e-001 -1.74071360e-002 6.86467951e-003
      2.77184602e-002 8.70351195e-002 2.77555756e-017 -7.62418136e-002
      -2.21675094e-002 -2.32902933e-002 -1.89321395e-002
      -3.42856906e-002 2.77555756e-017 6.56954348e-002 -2.74414085e-002
      7.43215485e-003 1.03783429e-001 6.01563640e-002 -3.09482247e-001
      8.79057944e-002 -3.62664722e-002 -2.38967706e-002 1.69677794e-001
      -7.83805326e-002 2.77555756e-017 7.04547539e-002 -1.35269640e-002
      -2.86015626e-002 5.79667687e-001 -6.01058686e-003 3.06149833e-002
      9.45985666e-004 -9.05861054e-003 -1.56106486e-003 5.49694374e-002
      -2.03903049e-001 2.77555756e-017 2.77555756e-017 -4.41891849e-002
      -4.46060300e-002 -2.40812585e-001 2.77555756e-017 2.77555756e-017
      2.77555756e-017 -1.54700335e-002 -2.81689078e-001 2.43371800e-001
      2.77555756e-017 2.77555756e-017 2.77555756e-017 2.77555756e-017
      3.30672669e-003 2.77555756e-017 2.77555756e-017 2.77555756e-017
      2.77555756e-017 2.77555756e-017 2.77555756e-017 2.77555756e-017
      2.77555756e-017 2.77555756e-017 2.77555756e-017 2.77555756e-017
      2.77555756e-017 2.77555756e-017 2.77555756e-017 2.77555756e-017
      2.77555756e-017 2.77555756e-017 2.77555756e-017 2.77555756e-017
      2.77555756e-017 -8.13936666e-002 -2.21675094e-002 -1.25269918e-002
      8.27997029e-002 -2.60734092e-002 1.17364384e-001 1.05713956e-001
      -1.16129024e-002 1.42787665e-001 2.77555756e-017 2.77555756e-017
      2.77555756e-017 2.77555756e-017 2.77555756e-017 2.77555756e-017
      2.77555756e-017 2.77555756e-017 2.77555756e-017 -1.97105110e-002
      -9.95720923e-003 -2.81217899e-002 -3.40950489e-002 2.77555756e-017
      2.77555756e-017 2.77555756e-017 2.77555756e-017 -1.84171032e-002
      -3.17042358e-002 2.77555756e-017 2.77555756e-017 -2.02598926e-002
      -2.04351377e-002 2.77555756e-017 2.77555756e-017 -2.25489307e-002
      2.77555756e-017</_>
    <_>
      1.07672885e-001 -1.55000642e-001 3.66511964e-003 -1.33544385e-001
      5.32860160e-001 1.54948458e-001 -1.38777878e-016 2.04260066e-001
      5.32819368e-002 3.85071933e-002 3.62829834e-001 1.59596235e-001
      -1.07191701e-003 1.21220037e-001 1.02254823e-001 5.54729030e-002
      3.53841763e-003 -1.38777878e-016 -1.07191701e-003 5.73488772e-002
      1.00642845e-001 4.82306294e-002 -4.60088886e-002 -1.38777878e-016
      -1.38777878e-016 3.39933783e-002 7.60174245e-002 2.45993845e-002
      -1.96286157e-001 -1.38777878e-016 2.85066158e-001 3.58335041e-002
      3.25646438e-002 1.94290671e-002 -1.38777878e-016 1.03136711e-002
      -1.38777878e-016 -1.38777878e-016 -1.38777878e-016
      -1.38777878e-016 -1.38777878e-016 -1.38777878e-016
      -1.38777878e-016 -1.38777878e-016 -1.06372992e-002 2.99467496e-003
      -1.38777878e-016 -1.38777878e-016 -1.38777878e-016
      -1.38777878e-016 -6.64281659e-003 -1.88736699e-003
      -1.38777878e-016 -1.38777878e-016 -1.38777878e-016
      -1.38777878e-016 -2.95306975e-003 -1.88736699e-003
      -1.38777878e-016 -1.38777878e-016 -1.38777878e-016
      -1.38777878e-016 3.52631509e-003 -1.38777878e-016 -1.38777878e-016
      -1.38777878e-016 -1.38777878e-016 -1.38777878e-016
      -1.38777878e-016 -1.38777878e-016 -1.38777878e-016
      -1.38777878e-016 2.04260066e-001 4.76198345e-002 3.63440841e-001
      1.18674763e-001 9.94237810e-002 3.53841763e-003 -1.09870948e-001
      3.48868221e-002 1.03136711e-002 -1.38777878e-016 -1.38777878e-016
      -1.38777878e-016 -1.38777878e-016 -1.38777878e-016
      -1.38777878e-016 -1.38777878e-016 -1.38777878e-016
      -1.38777878e-016 9.11888406e-002 5.06596789e-002 2.72475760e-002
      2.92848386e-002 -1.38777878e-016 -1.38777878e-016 -1.38777878e-016
      -1.38777878e-016 8.83577839e-002 3.35536599e-002 -1.38777878e-016
      -1.38777878e-016 2.20908318e-002 4.44816984e-002 -1.38777878e-016
      -1.38777878e-016 2.83969156e-002 -1.38777878e-016</_>
    <_>
      6.14540577e-002 -3.29597460e-017 -1.44832684e-002 1.88844398e-001
      2.09693730e-001 7.56498277e-002 -3.29597460e-017 6.04427904e-002
      -9.63015668e-003 -2.46991273e-002 9.37494263e-002 7.95209557e-002
      -3.29597460e-017 7.98603240e-003 5.20979956e-005 -2.82764435e-002
      -5.76910712e-002 -2.56078094e-002 -3.29597460e-017
      -1.30639344e-001 -7.75769539e-003 -3.57759483e-002
      -1.17868416e-001 -5.76309115e-002 -3.29597460e-017
      -1.14580989e-001 -8.06991557e-006 -2.37355344e-002
      -2.09228083e-001 -5.70975356e-002 1.39539689e-001 1.45545423e-001
      -3.37356492e-003 -1.83786191e-002 -2.34900728e-001 2.80560404e-002
      -3.29597460e-017 -3.29597460e-017 -3.29597460e-017
      -3.29597460e-017 -3.29597460e-017 -3.29597460e-017
      -3.29597460e-017 -3.29597460e-017 -3.29597460e-017 2.01313943e-003
      -3.29597460e-017 -3.29597460e-017 -3.29597460e-017
      -3.29597460e-017 4.54655848e-004 -3.29597460e-017 -3.29597460e-017
      -3.29597460e-017 -3.29597460e-017 -3.29597460e-017
      -6.95132985e-005 -3.65319811e-002 -2.40674894e-002
      -3.29597460e-017 -3.29597460e-017 -3.29597460e-017 1.32314023e-003
      -8.43422040e-002 -5.40390648e-002 -3.29597460e-017
      -3.29597460e-017 -3.29597460e-017 -3.29597460e-017
      -4.57809083e-002 -2.98656188e-002 -3.29597460e-017 6.07561842e-002
      -1.31302848e-002 9.30395350e-002 -6.42817700e-003 -6.07895060e-003
      -9.03130695e-002 -1.00044444e-001 -8.28795880e-003
      -1.26915917e-001 -3.29597460e-017 -3.29597460e-017
      -3.29597460e-017 -3.29597460e-017 -3.29597460e-017
      -3.29597460e-017 -3.29597460e-017 -3.29597460e-017
      -3.29597460e-017 -4.13891068e-003 -2.81212870e-002
      -3.39255366e-003 -2.34127287e-002 -3.29597460e-017
      -3.29597460e-017 -3.29597460e-017 -3.29597460e-017
      -6.21797796e-003 3.54990043e-004 -3.29597460e-017 -3.29597460e-017
      -5.50341140e-003 -1.71491168e-002 -3.29597460e-017
      -3.29597460e-017 3.54990043e-004 -3.29597460e-017</_>
    <_>
      3.71078518e-003 -7.63278329e-017 6.32627159e-002 1.15646962e-002
      2.06687093e-001 7.55227730e-002 -7.63278329e-017 2.31684417e-001
      1.27300825e-002 1.22416848e-002 2.20362380e-001 7.56829530e-002
      -7.63278329e-017 2.16581494e-001 2.23336406e-002 1.29007166e-002
      1.01460941e-001 -7.63278329e-017 -7.63278329e-017 -1.49964066e-002
      1.40535338e-002 3.87087674e-003 5.17908158e-003 -7.63278329e-017
      -7.63278329e-017 -1.99507009e-002 2.21227645e-003 -5.11928648e-003
      -7.63278329e-017 -7.63278329e-017 1.30847290e-001 -2.13049408e-002
      4.85438434e-003 -7.01765763e-003 -7.63278329e-017 -1.64917056e-002
      -7.63278329e-017 -7.63278329e-017 -7.63278329e-017
      -7.63278329e-017 -7.63278329e-017 -7.63278329e-017
      -7.63278329e-017 -7.63278329e-017 -7.63278329e-017 1.45287439e-003
      -7.63278329e-017 -7.63278329e-017 -7.63278329e-017
      -7.63278329e-017 -7.63278329e-017 -7.63278329e-017
      -7.63278329e-017 -7.63278329e-017 -7.63278329e-017
      -7.63278329e-017 -7.09001943e-002 -7.63278329e-017
      -7.63278329e-017 -7.63278329e-017 -7.63278329e-017
      -7.63278329e-017 -1.46850366e-002 -7.63278329e-017
      -7.63278329e-017 -7.63278329e-017 -7.63278329e-017
      -7.63278329e-017 -8.78263917e-003 -7.63278329e-017
      -7.63278329e-017 -7.63278329e-017 2.31684417e-001 1.22921076e-002
      2.18936205e-001 9.06189680e-002 1.85221303e-002 1.01460941e-001
      1.54475700e-002 2.27777846e-003 -1.64917056e-002 -7.63278329e-017
      -7.63278329e-017 -7.63278329e-017 -7.63278329e-017
      -7.63278329e-017 -7.63278329e-017 -7.63278329e-017
      -7.63278329e-017 -7.63278329e-017 2.18374580e-002 1.30898254e-002
      1.11524174e-002 -1.05712339e-002 -7.63278329e-017 -7.63278329e-017
      -7.63278329e-017 -7.63278329e-017 2.18374580e-002 1.09260324e-002
      -7.63278329e-017 -7.63278329e-017 1.11524174e-002 -3.76199908e-003
      -7.63278329e-017 -7.63278329e-017 1.09260324e-002 -7.63278329e-017</_>
    <_>
      -1.17197447e-001 -1.88682944e-001 -1.04295723e-002
      -1.07394010e-002 -4.05569039e-002 -8.28570873e-002
      -1.81825608e-001 -9.14426148e-003 -1.27364881e-003
      -7.13026791e-004 -2.30498631e-002 -7.33186007e-002
      -1.79608271e-001 -9.04953294e-003 -1.05416309e-003
      -6.43398520e-003 -5.60073741e-002 -8.43764916e-002
      -9.32960063e-002 -1.28609702e-001 3.28953937e-003 -2.54515512e-003
      -7.63317496e-002 3.46944695e-018 3.46944695e-018 -5.67009076e-002
      1.08119100e-002 7.14728702e-003 3.46944695e-018 3.46944695e-018
      -6.26123929e-003 -3.08480561e-002 2.64383107e-003 -3.03922244e-003
      -8.39528218e-002 3.81904747e-003 3.46944695e-018 3.46944695e-018
      3.46944695e-018 3.46944695e-018 3.46944695e-018 3.46944695e-018
      3.46944695e-018 -8.15369040e-002 -1.21696864e-003 2.02997727e-003
      3.46944695e-018 3.46944695e-018 3.46944695e-018 3.46944695e-018
      -1.81804202e-003 3.46944695e-018 3.46944695e-018 3.46944695e-018
      3.46944695e-018 3.46944695e-018 -1.98705727e-003 3.46944695e-018
      3.46944695e-018 3.46944695e-018 3.46944695e-018 3.46944695e-018
      -1.21696864e-003 3.46944695e-018 3.46944695e-018 3.46944695e-018
      3.46944695e-018 3.46944695e-018 3.46944695e-018 3.46944695e-018
      3.46944695e-018 3.46944695e-018 -9.14426148e-003 -8.53170699e-004
      -2.51404252e-002 -9.04953294e-003 -8.86515889e-004
      -7.22778141e-002 -9.46942940e-002 4.72479127e-003 1.71231329e-002
      3.46944695e-018 3.46944695e-018 3.46944695e-018 3.46944695e-018
      3.46944695e-018 3.46944695e-018 3.46944695e-018 3.46944695e-018
      3.46944695e-018 -1.27891148e-003 -4.82832268e-003 4.44546808e-003
      6.23184815e-003 3.46944695e-018 3.46944695e-018 3.46944695e-018
      3.46944695e-018 -1.27891148e-003 9.54120420e-003 3.46944695e-018
      3.46944695e-018 1.20021810e-003 4.56212135e-003 3.46944695e-018
      3.46944695e-018 6.29595434e-003 3.46944695e-018</_>
    <_>
      1.25358319e-002 2.77555756e-017 1.91587746e-001 1.75022230e-001
      2.14502439e-001 1.03500009e-001 -2.98246235e-001 3.62128392e-002
      6.69793561e-002 5.64338341e-002 1.23169363e-001 -1.83255412e-002
      -3.30766857e-001 1.08839190e-002 4.31504957e-002 -1.07662613e-002
      -4.88658659e-002 -1.41355947e-001 -8.33466426e-002
      -4.13681492e-002 -2.64092963e-002 -4.40417565e-002
      -3.40918228e-002 -2.08130747e-001 2.77555756e-017 -1.03925169e-002
      -1.42661370e-002 -4.29084338e-002 -6.23881370e-002
      -6.67748079e-002 4.83637154e-002 7.14928657e-002 -2.15044264e-002
      -4.80670109e-002 -1.60960093e-001 5.57709709e-002 2.77555756e-017
      2.77555756e-017 2.77555756e-017 2.77555756e-017 2.77555756e-017
      2.77555756e-017 2.77555756e-017 2.77555756e-017 2.77555756e-017
      4.13227407e-003 2.77555756e-017 2.77555756e-017 2.77555756e-017
      2.77555756e-017 2.77555756e-017 2.77555756e-017 2.77555756e-017
      2.77555756e-017 2.77555756e-017 2.77555756e-017 2.77555756e-017
      2.77555756e-017 2.77555756e-017 2.77555756e-017 2.77555756e-017
      2.77555756e-017 6.49935158e-004 2.77555756e-017 2.77555756e-017
      2.77555756e-017 2.77555756e-017 2.77555756e-017 2.77555756e-017
      2.77555756e-017 2.77555756e-017 2.77555756e-017 3.07719223e-002
      6.69793561e-002 1.17477477e-001 1.15297325e-002 -1.12761464e-002
      -4.89388071e-002 -3.48215401e-002 -2.19238438e-002
      -1.02097087e-001 2.77555756e-017 2.77555756e-017 2.77555756e-017
      2.77555756e-017 2.77555756e-017 2.77555756e-017 2.77555756e-017
      2.77555756e-017 2.77555756e-017 4.35305275e-002 -4.36654827e-003
      -5.11563336e-003 -1.55306971e-002 2.77555756e-017 2.77555756e-017
      2.77555756e-017 2.77555756e-017 1.95007436e-002 1.30777166e-003
      2.77555756e-017 2.77555756e-017 -5.11563336e-003 -1.32559268e-002
      2.77555756e-017 2.77555756e-017 1.30777166e-003 2.77555756e-017</_>
    <_>
      3.08077279e-002 4.16333634e-017 5.60661517e-002 2.70824302e-002
      1.12654492e-001 3.43539417e-002 4.16333634e-017 7.98452869e-002
      6.00198247e-002 5.48650585e-002 1.20061472e-001 3.56837735e-002
      4.16333634e-017 2.46931612e-002 6.63398951e-002 5.43859601e-002
      4.45493087e-002 4.16333634e-017 4.16333634e-017 1.82443745e-002
      6.22289442e-002 5.17335720e-002 -4.08654846e-002 4.16333634e-017
      -6.41307756e-002 1.61281675e-002 6.27723932e-002 5.27130365e-002
      -9.29074064e-002 4.16333634e-017 8.09165835e-002 1.78369172e-002
      5.36639579e-002 4.76584360e-002 -9.78405476e-002 5.47446683e-002
      4.16333634e-017 4.16333634e-017 4.16333634e-017 4.16333634e-017
      4.16333634e-017 4.16333634e-017 4.16333634e-017 4.16333634e-017
      4.16333634e-017 6.64915016e-004 4.16333634e-017 4.16333634e-017
      4.16333634e-017 4.16333634e-017 -1.07706815e-001 4.16333634e-017
      4.16333634e-017 4.16333634e-017 4.16333634e-017 4.16333634e-017
      -8.13967586e-002 4.16333634e-017 4.16333634e-017 4.16333634e-017
      4.16333634e-017 4.16333634e-017 -6.29296750e-002 4.16333634e-017
      4.16333634e-017 4.16333634e-017 4.16333634e-017 4.16333634e-017
      4.16333634e-017 -3.12431995e-002 4.16333634e-017 4.16333634e-017
      7.98452869e-002 6.00198247e-002 1.19618200e-001 2.22265869e-002
      6.55177012e-002 4.45493087e-002 2.99408380e-002 5.70170768e-002
      -3.89849283e-002 4.16333634e-017 4.16333634e-017 4.16333634e-017
      4.16333634e-017 4.16333634e-017 4.16333634e-017 4.16333634e-017
      4.16333634e-017 4.16333634e-017 6.67831674e-002 5.68239801e-002
      6.36231378e-002 5.86043596e-002 4.16333634e-017 4.16333634e-017
      4.16333634e-017 4.16333634e-017 6.67831674e-002 6.58395141e-002
      4.16333634e-017 4.16333634e-017 6.36231378e-002 6.28082156e-002
      4.16333634e-017 4.16333634e-017 6.58395141e-002 4.16333634e-017</_>
    <_>
      2.93818742e-001 -6.10058963e-001 -8.58092308e-002 -5.81966154e-002
      -2.28520408e-001 -7.48928869e-003 -1.66533454e-016 3.52135986e-001
      -6.76374584e-002 -6.64323941e-002 -5.03215678e-002 2.24879272e-002
      -1.66533454e-016 3.64653617e-001 -4.59188558e-002 -6.53275251e-002
      1.83313146e-001 -4.54087734e-001 -1.92451738e-002 -1.37272492e-001
      -7.15889707e-002 -5.80023564e-002 4.18039039e-002 -8.10646415e-002
      -1.66533454e-016 -1.18568160e-001 -3.23797954e-004
      -6.60491213e-002 -1.60242226e-002 -3.38787921e-002 4.18766469e-001
      -1.06582223e-002 -3.69918793e-002 2.09094416e-002 -1.66533454e-016
      1.15515523e-001 -1.66533454e-016 -1.66533454e-016 -1.66533454e-016
      -3.24212364e-003 -1.92119762e-001 -1.66533454e-016
      -1.66533454e-016 -1.66533454e-016 -3.23113007e-003
      -1.03716757e-002 -1.66533454e-016 -1.66533454e-016
      -1.66533454e-016 -1.66533454e-016 8.24045017e-003 -1.66533454e-016
      -1.66533454e-016 -1.66533454e-016 -1.66533454e-016
      -1.66533454e-016 -1.66533454e-016 -1.66533454e-016
      -1.66533454e-016 -1.66533454e-016 -1.66533454e-016
      -1.66533454e-016 -1.66533454e-016 -1.66533454e-016
      -1.66533454e-016 -1.66533454e-016 -1.66533454e-016
      -1.66533454e-016 -1.66533454e-016 -1.66533454e-016
      -1.66533454e-016 -1.66533454e-016 3.51894438e-001 -6.76374584e-002
      -6.80072308e-002 3.64653617e-001 -4.56917807e-002 1.83474183e-001
      -2.29810789e-001 -2.43137330e-002 6.56125098e-002 -1.66533454e-016
      -1.66533454e-016 -1.66533454e-016 -1.66533454e-016
      -1.66533454e-016 -1.66533454e-016 -1.66533454e-016
      -1.66533454e-016 -1.66533454e-016 -4.44639176e-002
      -6.28342107e-002 -1.81828521e-003 -1.90011840e-002
      -1.66533454e-016 -1.66533454e-016 -1.66533454e-016
      -1.66533454e-016 -4.44639176e-002 1.35455439e-002 -1.66533454e-016
      -1.66533454e-016 -1.37953358e-002 -1.79193355e-002
      -1.66533454e-016 -1.66533454e-016 1.56849262e-003 -1.66533454e-016</_>
    <_>
      5.89805982e-017 5.89805982e-017 -7.95839727e-003 2.79927731e-001
      5.89805982e-017 5.89805982e-017 5.89805982e-017 -3.05140261e-002
      -3.73355336e-002 -3.81856486e-002 6.15016110e-002 5.89805982e-017
      5.89805982e-017 -9.47130397e-002 -3.97507660e-002 -5.28945960e-002
      -7.49148941e-003 -3.27334702e-002 5.89805982e-017 -2.26765960e-001
      -5.04964441e-002 -4.80880812e-002 -1.17721662e-001
      -1.15100719e-001 5.89805982e-017 -7.74223804e-002 -2.21486725e-002
      -2.57953461e-002 -1.21661820e-001 -1.09521784e-001
      -3.31632346e-002 1.89549729e-001 2.63142330e-003 -1.44970408e-002
      -3.37359875e-001 -3.18146609e-002 5.89805982e-017 5.89805982e-017
      5.89805982e-017 5.89805982e-017 5.89805982e-017 5.89805982e-017
      5.89805982e-017 5.89805982e-017 5.89805982e-017 5.89805982e-017
      5.89805982e-017 5.89805982e-017 5.89805982e-017 5.89805982e-017
      2.38291384e-003 1.35416922e-003 5.89805982e-017 5.89805982e-017
      5.89805982e-017 5.89805982e-017 1.19145692e-003 -1.35557316e-002
      -3.05335782e-002 5.89805982e-017 5.89805982e-017 5.89805982e-017
      5.89805982e-017 -1.29618242e-001 -1.03827626e-001 5.89805982e-017
      5.89805982e-017 5.89805982e-017 5.89805982e-017 -3.79208252e-002
      -7.25017712e-002 5.89805982e-017 -3.05140261e-002 -3.70767191e-002
      5.94703630e-002 -2.25218087e-001 -4.89947908e-002 -1.15302369e-001
      -5.83719201e-002 3.34071554e-003 -1.71936899e-001 5.89805982e-017
      5.89805982e-017 5.89805982e-017 5.89805982e-017 5.89805982e-017
      5.89805982e-017 5.89805982e-017 5.89805982e-017 5.89805982e-017
      -4.14695181e-002 -4.40342836e-002 -1.07780821e-003
      -2.71381512e-002 5.89805982e-017 5.89805982e-017 5.89805982e-017
      5.89805982e-017 -4.40342836e-002 2.65348150e-004 5.89805982e-017
      5.89805982e-017 -1.93446490e-003 -2.47552376e-002 5.89805982e-017
      5.89805982e-017 2.65348150e-004 5.89805982e-017</_>
    <_>
      1.11022302e-016 9.66608301e-002 1.65085122e-001 4.76424024e-002
      1.11022302e-016 1.11022302e-016 1.11022302e-016 6.26099169e-001
      4.71559679e-003 -2.44125202e-002 1.11022302e-016 1.11022302e-016
      1.11022302e-016 6.10609829e-001 -1.40259162e-001 -8.15238580e-002
      1.81977395e-002 1.11022302e-016 1.11022302e-016 5.45911938e-002
      -1.92147940e-001 -1.36707157e-001 1.80323068e-002 1.11022302e-016
      1.11022302e-016 -5.99091887e-001 -1.75976872e-001 -1.38942942e-001
      1.73705705e-002 1.11022302e-016 -1.77726850e-001 -6.03544354e-001
      -4.75683399e-002 -7.79765993e-002 1.11022302e-016 3.17992046e-002
      1.11022302e-016 1.11022302e-016 1.11022302e-016 1.11022302e-016
      1.11022302e-016 1.11022302e-016 1.11022302e-016 1.11022302e-016
      6.63358672e-003 1.11022302e-016 1.11022302e-016 1.11022302e-016
      1.11022302e-016 1.11022302e-016 7.28269108e-003 1.11022302e-016
      1.11022302e-016 1.11022302e-016 1.11022302e-016 1.11022302e-016
      2.90573598e-003 1.65434001e-004 1.11022302e-016 1.11022302e-016
      1.11022302e-016 1.11022302e-016 -1.81949269e-002 1.11022302e-016
      1.11022302e-016 1.11022302e-016 1.11022302e-016 1.11022302e-016
      -3.25822234e-002 1.11022302e-016 1.11022302e-016 1.11022302e-016
      6.26099169e-001 5.29461633e-003 1.11022302e-016 6.18406907e-002
      -1.78379953e-001 1.81977395e-002 1.92126706e-001 -9.02773514e-002
      8.74610841e-001 1.11022302e-016 1.11022302e-016 1.11022302e-016
      1.11022302e-016 1.11022302e-016 1.11022302e-016 1.11022302e-016
      1.11022302e-016 1.11022302e-016 -6.66957274e-002 -7.83677101e-002
      -1.07678331e-001 -1.02834053e-001 1.11022302e-016 1.11022302e-016
      1.11022302e-016 1.11022302e-016 -6.63648620e-002 -6.07379712e-002
      1.11022302e-016 1.11022302e-016 -9.73797888e-002 -9.64990333e-002
      1.11022302e-016 1.11022302e-016 -5.04394285e-002 1.11022302e-016</_>
    <_>
      -1.16152138e-001 -5.43977842e-002 -7.09453179e-003
      -4.90570115e-003 -1.12322465e-001 -1.07003368e-001
      -1.15614876e-001 -4.94272225e-002 -1.07291816e-002
      -1.09067317e-002 -7.31225982e-002 -1.02202103e-001
      -1.05737917e-001 -5.80095239e-002 -1.36353718e-002
      -1.33620529e-002 -6.97869882e-002 -6.22350313e-002
      -5.61608970e-002 -5.58664165e-002 -1.02791134e-002
      -1.00080622e-002 -6.24677911e-002 -1.09939305e-002
      -6.50521303e-018 -4.88337539e-002 -6.51471643e-003
      -5.83723607e-003 3.43216397e-002 -6.50521303e-018 -1.10042922e-003
      -4.05618548e-003 -1.05102165e-002 -4.01438959e-003
      -4.98653911e-002 -9.17185936e-003 -6.50521303e-018
      -6.50521303e-018 -6.50521303e-018 -6.50521303e-018
      -6.50521303e-018 -6.50521303e-018 -6.50521303e-018
      -5.77425845e-002 2.78995978e-003 -6.50521303e-018 -6.50521303e-018
      -6.50521303e-018 -6.50521303e-018 -3.24978493e-003
      -7.45899626e-004 1.45859172e-004 -6.50521303e-018 -6.50521303e-018
      -6.50521303e-018 -6.50521303e-018 -9.49362875e-004 3.60311969e-004
      -6.50521303e-018 -6.50521303e-018 -6.50521303e-018
      -6.50521303e-018 -4.74370667e-004 -6.50521303e-018
      -6.50521303e-018 -6.50521303e-018 -6.50521303e-018
      -6.50521303e-018 -6.50521303e-018 -3.01883556e-003
      -6.50521303e-018 -6.50521303e-018 -4.94272225e-002
      -9.64824483e-003 -7.41571859e-002 -5.05505651e-002
      -1.32517461e-002 -6.97730854e-002 -5.84067358e-003
      -8.61074589e-003 -1.23721557e-002 -6.50521303e-018
      -6.50521303e-018 -6.50521303e-018 -6.50521303e-018
      -6.50521303e-018 -6.50521303e-018 -6.50521303e-018
      -6.50521303e-018 -6.50521303e-018 -1.09130936e-002
      -1.08672222e-002 -5.88145666e-003 -7.86543265e-003
      -6.50521303e-018 -6.50521303e-018 -6.50521303e-018
      -6.50521303e-018 -1.03726247e-002 -5.86757110e-003
      -6.50521303e-018 -6.50521303e-018 -6.29498437e-003
      -9.09564178e-003 -6.50521303e-018 -6.50521303e-018
      -6.23160973e-003 -6.50521303e-018</_>
    <_>
      1.38777878e-017 1.38777878e-017 1.10826582e-001 1.08098991e-001
      1.38777878e-017 1.38777878e-017 -1.25226349e-001 -1.05342425e-001
      5.90460412e-002 6.13537207e-002 -6.90246522e-002 -8.74996036e-002
      -1.95124045e-001 -2.93241441e-001 2.95171458e-002 -1.87432929e-003
      -1.45016775e-001 -1.16747275e-001 -7.84874856e-002
      -1.62188694e-001 -4.47017923e-002 -5.17241620e-002
      -1.13742016e-001 -2.86119342e-001 1.38777878e-017 9.63403359e-002
      -3.49366292e-002 -4.69622537e-002 1.84436403e-002 -1.86321214e-001
      4.85582650e-002 1.06069051e-001 -1.30261807e-002 -3.66419107e-002
      1.38777878e-017 -6.97344691e-002 1.38777878e-017 1.38777878e-017
      1.38777878e-017 1.38777878e-017 1.38777878e-017 1.38777878e-017
      1.38777878e-017 1.38777878e-017 1.38777878e-017 1.38777878e-017
      1.38777878e-017 1.38777878e-017 1.38777878e-017 1.38777878e-017
      1.02122559e-003 3.57530982e-004 1.38777878e-017 1.38777878e-017
      1.38777878e-017 1.38777878e-017 5.35395346e-004 1.83697429e-003
      1.38777878e-017 1.38777878e-017 1.38777878e-017 1.38777878e-017
      3.30433977e-005 1.38777878e-017 1.38777878e-017 1.38777878e-017
      1.38777878e-017 1.38777878e-017 1.38777878e-017 1.38777878e-017
      1.38777878e-017 1.38777878e-017 -1.05620280e-001 6.52040690e-002
      -6.95609450e-002 -1.31326452e-001 -3.91547978e-002
      -1.42296776e-001 1.45886779e-001 -1.41256163e-002 -7.03855604e-002
      1.38777878e-017 1.38777878e-017 1.38777878e-017 1.38777878e-017
      1.38777878e-017 1.38777878e-017 1.38777878e-017 1.38777878e-017
      1.38777878e-017 5.21880873e-002 7.08879996e-003 -6.10874558e-004
      -3.01296227e-002 1.38777878e-017 1.38777878e-017 1.38777878e-017
      1.38777878e-017 3.35526541e-002 6.64303266e-003 1.38777878e-017
      1.38777878e-017 -5.11744409e-004 -2.91414410e-002 1.38777878e-017
      1.38777878e-017 6.74216263e-003 1.38777878e-017</_>
    <_>
      -6.93889390e-017 5.29655963e-002 1.68968663e-001 1.61608651e-001
      -6.93889390e-017 -6.93889390e-017 -6.93889390e-017 7.10029453e-002
      1.06483251e-001 9.21544880e-002 4.76098619e-002 -6.93889390e-017
      -6.93889390e-017 9.46895964e-003 9.45615545e-002 8.18260089e-002
      5.52671738e-002 -6.93889390e-017 9.11759287e-002 1.22199766e-003
      8.94760191e-002 7.70988464e-002 -1.02467231e-001 -6.93889390e-017
      -1.13627926e-001 4.52522002e-003 9.87693742e-002 9.65199918e-002
      -1.61470816e-001 -6.93889390e-017 -8.68896917e-002
      -1.79347489e-002 9.27874073e-002 8.74201879e-002 -2.57241845e-001
      5.55817448e-002 -6.93889390e-017 -6.93889390e-017 -6.93889390e-017
      -6.93889390e-017 -6.93889390e-017 -6.93889390e-017
      -6.93889390e-017 -6.93889390e-017 4.05348931e-003 -6.93889390e-017
      -6.93889390e-017 -6.93889390e-017 -6.93889390e-017
      -6.93889390e-017 -1.86845377e-001 4.42882447e-004 -6.93889390e-017
      -6.93889390e-017 -6.93889390e-017 -6.93889390e-017
      -1.78551599e-001 8.60615866e-004 -6.93889390e-017 -6.93889390e-017
      -6.93889390e-017 -6.93889390e-017 -1.45576879e-001
      -2.06386782e-002 -6.93889390e-017 -6.93889390e-017
      -6.93889390e-017 -6.93889390e-017 -6.93889390e-017
      -9.06939656e-002 -6.93889390e-017 -6.93889390e-017 7.10029453e-002
      1.09273963e-001 4.69455384e-002 3.48624727e-003 9.25744325e-002
      4.75276671e-002 3.28593329e-002 9.14591923e-002 -5.89056313e-002
      -6.93889390e-017 -6.93889390e-017 -6.93889390e-017
      -6.93889390e-017 -6.93889390e-017 -6.93889390e-017
      -6.93889390e-017 -6.93889390e-017 -6.93889390e-017 1.03477187e-001
      9.10973027e-002 9.53632444e-002 1.15256928e-001 -6.93889390e-017
      -6.93889390e-017 -6.93889390e-017 -6.93889390e-017 1.04009539e-001
      1.07024260e-001 -6.93889390e-017 -6.93889390e-017 1.00443214e-001
      1.15996838e-001 -6.93889390e-017 -6.93889390e-017 1.12104230e-001
      -6.93889390e-017</_>
    <_>
      2.01227923e-016 -7.22923651e-002 -2.87651811e-002 -1.20083690e-002
      -5.71400642e-001 -6.05282113e-002 2.01227923e-016 -3.70247033e-003
      -6.53453097e-002 -5.72267920e-002 -2.92681336e-001
      -1.50926322e-001 1.45214759e-002 -2.17841025e-002 -7.39341676e-002
      -4.03996930e-002 1.21585026e-001 -9.18219537e-002 -8.53339732e-002
      -1.96949225e-002 -6.00850098e-002 -3.26396301e-002 1.18457302e-001
      -9.44019184e-002 2.01227923e-016 -1.76631678e-002 -3.13231982e-002
      -2.16758884e-002 2.13680312e-001 2.01227923e-016 3.73014584e-002
      1.48477200e-002 -2.79989280e-002 7.41431937e-002 2.01227923e-016
      -3.63817401e-002 2.01227923e-016 2.01227923e-016 2.01227923e-016
      -2.03328906e-003 -5.47081903e-002 2.01227923e-016 2.01227923e-016
      2.01227923e-016 -2.25378550e-003 -6.32099435e-002 2.01227923e-016
      2.01227923e-016 2.01227923e-016 2.01227923e-016 9.42735176e-004
      2.72429478e-003 2.01227923e-016 2.01227923e-016 2.01227923e-016
      2.01227923e-016 4.71367588e-004 2.72429478e-003 2.01227923e-016
      2.01227923e-016 2.01227923e-016 2.01227923e-016 2.01227923e-016
      2.01227923e-016 2.01227923e-016 2.01227923e-016 2.01227923e-016
      2.01227923e-016 2.01227923e-016 2.01227923e-016 2.01227923e-016
      2.01227923e-016 -4.75241244e-003 -5.71724214e-002 -2.96748370e-001
      -7.26262620e-003 -6.75280765e-002 1.22284994e-001 2.02274844e-002
      -1.82389989e-002 -6.73034117e-002 2.01227923e-016 2.01227923e-016
      2.01227923e-016 2.01227923e-016 2.01227923e-016 2.01227923e-016
      2.01227923e-016 2.01227923e-016 2.01227923e-016 -6.05499521e-002
      -4.97282296e-002 -1.03110457e-002 -1.09595293e-002 2.01227923e-016
      2.01227923e-016 2.01227923e-016 2.01227923e-016 -5.64634986e-002
      -6.26371615e-003 2.01227923e-016 2.01227923e-016 -1.03627797e-002
      -1.06282663e-002 2.01227923e-016 2.01227923e-016 -6.31545018e-003
      2.01227923e-016</_>
    <_>
      0. 0. 7.50057846e-002 -5.93142621e-002 0. 0. 0. 1.33537084e-001
      1.97637174e-002 2.98446380e-002 1.53583838e-002 0. 0.
      9.53272432e-002 1.30792772e-002 3.16720195e-002 8.59458447e-002
      1.54747358e-002 0. 7.25575686e-002 1.47875529e-002 2.16592029e-002
      1.90246880e-001 9.73060578e-002 0. -6.64336309e-002
      2.74102436e-003 9.12526716e-003 1.91718087e-001 9.17905867e-002
      -3.04039288e-002 -1.68509364e-001 7.80654605e-003 7.34517258e-003
      2.08182365e-001 -7.65855482e-004 0. 0. 0. 0. 0. 0. 0. 0. 0. 0. 0.
      0. 0. 0. 0. 0. 0. 0. 0. 0. -1.75743923e-002 3.49054171e-004
      1.45439235e-002 0. 0. 0. -9.80602205e-003 6.45448938e-002
      8.67964625e-002 0. 0. 0. -5.98826353e-003 1.79181136e-002
      7.17009977e-002 0. 1.33537084e-001 2.23905109e-002 1.53583838e-002
      7.24476948e-002 1.77369677e-002 1.90246880e-001 2.95948666e-002
      5.64261712e-003 8.50794166e-002 0. 0. 0. 0. 0. 0. 0. 0. 0.
      1.64931826e-002 2.88928449e-002 6.08128356e-003 5.80530148e-003 0.
      0. 0. 0. 2.05196273e-002 5.46309724e-003 0. 0. 6.08128356e-003
      5.80530148e-003 0. 0. 5.46309724e-003 0.</_>
    <_>
      -1.21023521e-001 -7.96105415e-002 2.49104458e-004 -8.00338164e-002
      -1.24265164e-001 -1.19352505e-001 -1.32970467e-001
      -4.90839668e-002 2.05521332e-003 7.85294920e-003 -8.09067339e-002
      -1.13269515e-001 -1.28598079e-001 -7.91946193e-004 7.09903310e-004
      6.75343629e-003 -3.81054170e-002 -3.65062244e-002 -9.55970660e-002
      5.65015886e-004 4.60008346e-003 1.06010931e-002 -2.81402543e-002
      2.89835315e-002 2.77555756e-017 2.41180649e-004 4.13581263e-004
      1.09825730e-002 4.76230718e-002 2.89835315e-002 -2.14392897e-002
      -4.22269255e-002 -1.30908040e-003 3.93032283e-003 1.68567663e-003
      -2.14392897e-002 2.77555756e-017 2.77555756e-017 2.77555756e-017
      2.77555756e-017 2.77555756e-017 2.77555756e-017 2.77555756e-017
      -3.00332457e-002 -4.48257371e-004 2.77555756e-017 2.77555756e-017
      2.77555756e-017 2.77555756e-017 -2.61583701e-002 -8.37324362e-004
      -2.06852704e-003 2.77555756e-017 2.77555756e-017 2.77555756e-017
      2.77555756e-017 -7.47095619e-004 4.85225953e-003 2.78687794e-002
      2.77555756e-017 2.77555756e-017 2.77555756e-017 -4.48257371e-004
      3.87120917e-002 2.78687794e-002 2.77555756e-017 2.77555756e-017
      2.77555756e-017 2.77555756e-017 9.70629696e-003 2.77555756e-017
      2.77555756e-017 -4.90839668e-002 4.01568413e-003 -8.14711377e-002
      -7.91946193e-004 4.43052547e-003 -3.69063690e-002 2.48095999e-003
      3.29390215e-003 8.19380861e-003 2.77555756e-017 2.77555756e-017
      2.77555756e-017 2.77555756e-017 2.77555756e-017 2.77555756e-017
      2.77555756e-017 2.77555756e-017 2.77555756e-017 1.65911834e-003
      6.75343629e-003 4.46764566e-003 2.86268047e-003 2.77555756e-017
      2.77555756e-017 2.77555756e-017 2.77555756e-017 3.50103923e-003
      2.41442211e-003 2.77555756e-017 2.77555756e-017 3.10495240e-003
      1.36848935e-003 2.77555756e-017 2.77555756e-017 1.21906912e-003
      2.77555756e-017</_>
    <_>
      -5.63280620e-002 -1.38777878e-017 1.75636560e-001 -4.33702357e-002
      -5.39383814e-002 -5.53039126e-002 -1.63122177e-001
      -5.28339148e-002 6.74272776e-002 7.61637539e-002 -1.65026151e-002
      -1.02591693e-001 -2.75547504e-001 4.16884869e-002 4.22202908e-002
      3.95595953e-002 -9.12082419e-002 -1.26572121e-002 -1.34815142e-001
      1.36449590e-001 -9.59867705e-003 4.90194326e-003 2.09669322e-002
      -1.12011410e-001 -1.38777878e-017 1.78986818e-001 -1.46943051e-002
      -7.84175377e-003 1.37799561e-001 -2.00830791e-002 3.72134894e-002
      -1.38777878e-017 -9.53343976e-003 -2.18572542e-002 1.81952596e-001
      3.90085988e-002 -1.38777878e-017 -1.38777878e-017 -1.38777878e-017
      -1.38777878e-017 -1.38777878e-017 -1.38777878e-017
      -1.38777878e-017 -1.38777878e-017 -1.38777878e-017
      -1.38777878e-017 -1.38777878e-017 -1.38777878e-017
      -1.38777878e-017 -1.38777878e-017 -1.38777878e-017
      -1.38777878e-017 -1.38777878e-017 -1.38777878e-017
      -1.38777878e-017 -1.38777878e-017 -1.38777878e-017 2.68237870e-002
      -1.38777878e-017 -1.38777878e-017 -1.38777878e-017
      -1.38777878e-017 -1.38777878e-017 7.90083259e-002 8.38218629e-002
      -1.38777878e-017 -1.38777878e-017 -1.38777878e-017
      -1.38777878e-017 9.75345075e-002 8.36276170e-003 -1.38777878e-017
      -5.59063517e-002 7.03544989e-002 -1.85509082e-002 5.73398359e-002
      4.42377618e-003 -5.47036640e-002 2.16200307e-001 -7.00134784e-003
      -9.53527540e-003 -1.38777878e-017 -1.38777878e-017
      -1.38777878e-017 -1.38777878e-017 -1.38777878e-017
      -1.38777878e-017 -1.38777878e-017 -1.38777878e-017
      -1.38777878e-017 5.32074459e-002 3.75953019e-002 2.29093572e-003
      1.18946552e-003 -1.38777878e-017 -1.38777878e-017 -1.38777878e-017
      -1.38777878e-017 3.68459113e-002 2.00295262e-003 -1.38777878e-017
      -1.38777878e-017 4.23964532e-003 2.00295262e-003 -1.38777878e-017
      -1.38777878e-017 2.40969309e-003 -1.38777878e-017</_>
    <_>
      2.77555756e-017 2.77555756e-017 7.60722831e-002 -5.85287102e-002
      2.77555756e-017 2.77555756e-017 2.77555756e-017 7.20531866e-002
      7.87497833e-002 8.17455128e-002 2.77555756e-017 2.77555756e-017
      2.77555756e-017 5.40853813e-002 7.49476030e-002 8.15116763e-002
      3.80744301e-002 1.89976450e-002 2.77555756e-017 8.83333012e-002
      7.49495924e-002 7.84947053e-002 2.27883533e-002 5.05760461e-002
      -3.92495543e-002 3.83012486e-003 6.88604116e-002 7.38666952e-002
      2.03684568e-002 4.88415770e-002 1.78356636e-002 -7.49419332e-002
      6.63434491e-002 6.49290606e-002 3.56877595e-002 9.03903916e-002
      2.77555756e-017 2.77555756e-017 2.77555756e-017 2.77555756e-017
      2.77555756e-017 2.77555756e-017 2.77555756e-017 2.77555756e-017
      2.77555756e-017 2.77555756e-017 2.77555756e-017 2.77555756e-017
      2.77555756e-017 2.77555756e-017 -6.59191161e-002 2.77555756e-017
      2.77555756e-017 2.77555756e-017 2.77555756e-017 2.77555756e-017
      -1.01838909e-001 2.77555756e-017 2.77555756e-017 2.77555756e-017
      2.77555756e-017 2.77555756e-017 -8.73039290e-002 3.83542217e-002
      4.64043021e-002 2.77555756e-017 2.77555756e-017 2.77555756e-017
      2.77555756e-017 -8.09628330e-003 2.81578880e-002 2.77555756e-017
      7.20531866e-002 8.16331506e-002 2.77555756e-017 8.89497027e-002
      8.01267400e-002 7.43077397e-002 9.37887505e-002 6.57495707e-002
      6.37339577e-002 2.77555756e-017 2.77555756e-017 2.77555756e-017
      2.77555756e-017 2.77555756e-017 2.77555756e-017 2.77555756e-017
      2.77555756e-017 2.77555756e-017 7.96382949e-002 8.15116763e-002
      7.57445842e-002 8.04881006e-002 2.77555756e-017 2.77555756e-017
      2.77555756e-017 2.77555756e-017 8.15116763e-002 7.64624998e-002
      2.77555756e-017 2.77555756e-017 7.57445842e-002 8.04881006e-002
      2.77555756e-017 2.77555756e-017 7.64624998e-002 2.77555756e-017</_>
    <_>
      -3.46944695e-017 -1.50174648e-001 -4.50318726e-003
      -1.83892667e-001 -2.69549489e-001 -2.83652246e-002
      -3.46944695e-017 -1.62797663e-002 -9.86854639e-003 7.13152857e-003
      -1.49778426e-001 -1.27939552e-001 -3.46944695e-017 7.86404908e-002
      -1.07113570e-002 1.32457782e-002 4.37254496e-002 -6.83490783e-002
      -7.59025961e-002 8.27840343e-002 -5.63762989e-003 1.64417140e-002
      8.01584721e-002 -4.13908139e-002 -3.46944695e-017 7.18975067e-002
      -3.80674517e-003 2.34782696e-002 1.37068495e-001 3.50859053e-002
      2.50075851e-002 -4.07454483e-002 -3.29507096e-003 6.85040504e-002
      2.16196939e-001 2.50075851e-002 -3.46944695e-017 -3.46944695e-017
      -5.67148142e-002 -3.79362376e-004 -3.46944695e-017
      -3.46944695e-017 -3.46944695e-017 -3.46944695e-017
      -4.85452497e-003 -5.53180873e-002 -3.46944695e-017
      -3.46944695e-017 -3.46944695e-017 -3.46944695e-017 3.20654857e-004
      -3.46944695e-017 -3.46944695e-017 -3.46944695e-017
      -3.46944695e-017 -3.46944695e-017 -3.46944695e-017 2.11578719e-002
      5.98742738e-002 -3.46944695e-017 -3.46944695e-017 -3.46944695e-017
      -3.46944695e-017 8.57336521e-002 5.98742738e-002 -3.46944695e-017
      -3.46944695e-017 -3.46944695e-017 -3.46944695e-017 7.37651065e-002
      -3.46944695e-017 -3.46944695e-017 -1.90501921e-002
      -5.50988922e-003 -1.48222625e-001 7.86404908e-002 -1.44815631e-003
      4.78671007e-002 -1.12480600e-003 6.96748123e-003 7.07565397e-002
      -3.46944695e-017 -3.46944695e-017 -3.46944695e-017
      -3.46944695e-017 -3.46944695e-017 -3.46944695e-017
      -3.46944695e-017 -3.46944695e-017 -3.46944695e-017
      -5.55004552e-003 9.83151421e-003 1.05567439e-003 1.24258539e-002
      -3.46944695e-017 -3.46944695e-017 -3.46944695e-017
      -3.46944695e-017 -2.03477545e-003 2.85702292e-003 -3.46944695e-017
      -3.46944695e-017 -2.42777649e-004 1.03680026e-002 -3.46944695e-017
      -3.46944695e-017 3.98527249e-004 -3.46944695e-017</_>
    <_>
      -7.67263621e-002 -7.97507986e-002 -1.49789443e-002
      -1.25997718e-002 -7.48552009e-002 -7.11863637e-002
      -7.63950050e-002 -8.11767504e-002 -4.04351205e-003
      -4.39229840e-003 -7.45015666e-002 -6.81905597e-002
      -7.48291314e-002 -4.21677455e-002 -4.20789607e-003
      -5.58295660e-003 -7.18086213e-002 -4.35372666e-002
      -3.89520749e-002 -7.04120798e-003 -1.64306618e-003
      -2.83525605e-003 -6.66008443e-002 -6.80881646e-003 7.37257477e-018
      -5.67724928e-003 4.16573806e-004 6.02594868e-004 -1.68693776e-003
      7.37257477e-018 -4.07806132e-003 2.33469196e-002 -1.83361315e-003
      1.51222560e-003 -3.06031667e-002 2.39440764e-004 7.37257477e-018
      7.37257477e-018 7.37257477e-018 7.37257477e-018 7.37257477e-018
      7.37257477e-018 7.37257477e-018 -4.08250764e-002 -5.03961288e-004
      7.37257477e-018 7.37257477e-018 7.37257477e-018 7.37257477e-018
      -1.73993071e-003 -9.83278966e-004 -1.14817754e-004 7.37257477e-018
      7.37257477e-018 7.37257477e-018 7.37257477e-018 3.01038809e-002
      7.37257477e-018 7.37257477e-018 7.37257477e-018 7.37257477e-018
      7.37257477e-018 4.79825400e-003 7.37257477e-018 7.37257477e-018
      7.37257477e-018 7.37257477e-018 7.37257477e-018 3.01573402e-003
      -1.61628064e-003 7.37257477e-018 7.37257477e-018 -8.11767504e-002
      -4.04351205e-003 -7.48552009e-002 -9.38505773e-003
      -3.71691375e-003 -7.18086213e-002 -2.81985360e-003
      -1.54897745e-003 -1.47399341e-003 7.37257477e-018 7.37257477e-018
      7.37257477e-018 7.37257477e-018 7.37257477e-018 7.37257477e-018
      7.37257477e-018 7.37257477e-018 7.37257477e-018 -4.22299607e-003
      -4.71864967e-003 -1.12218095e-003 4.32713190e-004 7.37257477e-018
      7.37257477e-018 7.37257477e-018 7.37257477e-018 -4.22299607e-003
      -1.22658547e-003 7.37257477e-018 7.37257477e-018 -2.49257428e-003
      -1.49800919e-003 7.37257477e-018 7.37257477e-018 -2.57048220e-003
      7.37257477e-018</_>
    <_>
      0. 0. -1.93323486e-003 2.58023269e-003 0. 0. -7.86452144e-002
      -1.62309185e-001 2.06716303e-002 1.44733628e-002 -7.44395927e-002
      -7.44395927e-002 -1.41750917e-001 -7.97834620e-002 1.80214886e-002
      4.54338500e-003 -1.68280438e-001 -7.69629627e-002 -1.36973158e-001
      -5.98411448e-002 -8.56805500e-003 -1.40462043e-002
      -8.77010003e-002 -7.60445371e-002 0. 6.29895106e-002
      -3.50675220e-003 -8.26942455e-003 -7.10489079e-002
      -7.60445371e-002 0. 1.04663722e-001 -3.38595267e-003
      -3.76361632e-003 0. 0. 0. 0. 0. 0. 0. 0. 0. 0. 0. 0. 0. 0. 0. 0.
      0. 0. 0. 0. 0. 0. 1.92518737e-002 0. 0. 0. 0. 0. 6.90571172e-003
      0. 0. 0. 0. 0. 9.23965927e-005 0. 0. 0. -1.63570866e-001
      2.02510692e-002 -7.44395927e-002 -7.90354759e-002 -9.67818592e-003
      -1.67170301e-001 6.29895106e-002 -3.39125632e-003 -7.60445371e-002
      0. 0. 0. 0. 0. 0. 0. 0. 0. 1.85846779e-002 4.54338500e-003
      -3.39125632e-003 -1.44167326e-003 0. 0. 0. 0. 8.02131370e-003
      -8.32279038e-004 0. 0. -3.39125632e-003 -1.44167326e-003 0. 0.
      -8.32279038e-004 0.</_>
    <_>
      -2.68882139e-017 -2.68882139e-017 3.62380967e-002 3.99995297e-002
      -2.68882139e-017 -2.68882139e-017 -2.68882139e-017
      -8.20334479e-002 7.92220682e-002 5.19398833e-003 -2.68882139e-017
      -2.68882139e-017 -2.68882139e-017 2.81613879e-002 9.39526856e-002
      8.69835392e-002 -1.60963330e-002 -2.68882139e-017 -2.68882139e-017
      3.29776667e-002 1.11613788e-001 1.01686530e-001 -1.07288323e-001
      -2.68882139e-017 -4.81098369e-002 9.57498476e-002 1.16094135e-001
      1.11343950e-001 -2.00771049e-001 -2.68882139e-017 -1.17126585e-003
      3.88631560e-002 1.15519278e-001 1.03350908e-001 -2.00786993e-001
      7.48714879e-002 -2.68882139e-017 -2.68882139e-017 -2.68882139e-017
      -2.68882139e-017 -2.68882139e-017 -2.68882139e-017
      -2.68882139e-017 -2.68882139e-017 -2.68882139e-017
      -2.68882139e-017 -2.68882139e-017 -2.68882139e-017
      -2.68882139e-017 -2.68882139e-017 -8.07998553e-002
      -2.68882139e-017 -2.68882139e-017 -2.68882139e-017
      -2.68882139e-017 -2.68882139e-017 -1.47508876e-002
      -1.47679094e-002 -2.68882139e-017 -2.68882139e-017
      -2.68882139e-017 -2.68882139e-017 -6.73353225e-002
      -2.10888740e-002 -2.68882139e-017 -2.68882139e-017
      -2.68882139e-017 -2.68882139e-017 -1.59301162e-002
      -8.08447152e-002 -2.68882139e-017 -2.68882139e-017
      -8.20334479e-002 7.90677965e-002 -2.68882139e-017 3.13763432e-002
      1.08484015e-001 -4.36459817e-002 4.94751856e-002 1.09903663e-001
      -1.24347337e-001 -2.68882139e-017 -2.68882139e-017
      -2.68882139e-017 -2.68882139e-017 -2.68882139e-017
      -2.68882139e-017 -2.68882139e-017 -9.84527264e-003
      -2.68882139e-017 9.56289023e-002 8.69835392e-002 1.17457494e-001
      1.22924633e-001 -2.68882139e-017 -2.68882139e-017 -2.68882139e-017
      -2.68882139e-017 9.48100165e-002 1.20748706e-001 -2.68882139e-017
      -2.68882139e-017 1.15007840e-001 1.22209378e-001 -2.68882139e-017
      -2.68882139e-017 1.18196204e-001 -2.68882139e-017</_>
    <_>
      -4.85722573e-017 -6.27922490e-002 -2.92090867e-002
      -1.34038683e-002 -3.20724517e-001 -5.05823046e-002
      -4.85722573e-017 -6.42048195e-002 -2.03532204e-002
      -2.42841765e-002 -3.26776952e-001 -7.15939030e-002
      -4.85722573e-017 -6.95650131e-002 -1.35283628e-002
      -7.10602850e-003 -2.23129783e-002 -2.00602245e-002
      -4.85722573e-017 2.07219156e-003 -8.96193014e-005 2.10950617e-003
      -2.19911579e-002 -2.03820486e-002 -4.85722573e-017 8.35324004e-002
      1.14191948e-002 3.53710796e-003 -4.85722573e-017 -4.85722573e-017
      3.26987244e-002 1.25799909e-001 -6.00903248e-003 2.56777424e-002
      -4.85722573e-017 -9.25213024e-002 -4.85722573e-017
      -4.85722573e-017 -3.16420533e-002 -1.03832653e-003
      -4.71777245e-002 -4.85722573e-017 -4.85722573e-017
      -4.85722573e-017 -7.50917534e-004 -1.18001329e-003
      -4.85722573e-017 -4.85722573e-017 -4.85722573e-017
      -4.85722573e-017 -4.85722573e-017 -4.85722573e-017
      -4.85722573e-017 -4.85722573e-017 -4.85722573e-017
      -4.85722573e-017 -4.85722573e-017 -4.85722573e-017
      -4.85722573e-017 -4.85722573e-017 -4.85722573e-017
      -4.85722573e-017 2.50270916e-003 -4.85722573e-017 -4.85722573e-017
      -4.85722573e-017 -4.85722573e-017 -4.85722573e-017 4.63889819e-003
      -4.85722573e-017 -4.85722573e-017 -4.85722573e-017
      -6.52595535e-002 -2.03532204e-002 -3.25966537e-001 8.23684270e-004
      -8.52570403e-003 -2.23129783e-002 -3.30016762e-002 4.42457898e-003
      -9.25213024e-002 -4.85722573e-017 -4.85722573e-017
      -4.85722573e-017 -4.85722573e-017 -4.85722573e-017
      -4.85722573e-017 -4.85722573e-017 -4.85722573e-017
      -4.85722573e-017 -1.39450720e-002 -1.59049463e-002
      -1.62166881e-003 5.33727743e-003 -4.85722573e-017 -4.85722573e-017
      -4.85722573e-017 -4.85722573e-017 -1.39450720e-002 1.22836349e-003
      -4.85722573e-017 -4.85722573e-017 -2.47986033e-003 4.04999033e-003
      -4.85722573e-017 -4.85722573e-017 3.70171940e-004 -4.85722573e-017</_>
    <_>
      1.39423832e-001 2.34233037e-001 1.44313037e-001 1.32841766e-001
      1.29612178e-001 1.20651595e-001 3.27313244e-002 3.72358933e-002
      3.27265672e-002 2.87381336e-002 4.05794419e-002 5.40330820e-002
      6.55111820e-002 3.26376110e-002 1.58118308e-002 4.25462320e-004
      1.61318649e-002 1.40296407e-002 1.07893370e-001 1.25522271e-001
      -1.59710087e-002 -1.66161526e-002 1.15448616e-001 -7.65507892e-002
      4.54280710e-017 5.06399460e-002 -1.73263419e-002 -2.51595881e-002
      1.68261174e-002 4.54280710e-017 5.50936311e-002 1.04003616e-001
      -1.17972326e-002 -3.08962017e-002 5.92749100e-003 5.31363674e-002
      4.54280710e-017 4.54280710e-017 4.54280710e-017 4.54280710e-017
      4.54280710e-017 4.54280710e-017 4.54280710e-017 7.82674029e-002
      1.16817013e-003 4.54280710e-017 4.54280710e-017 4.54280710e-017
      4.54280710e-017 1.71121545e-002 1.94259337e-003 1.14523317e-003
      4.54280710e-017 4.54280710e-017 4.54280710e-017 4.54280710e-017
      1.94695021e-003 4.54280710e-017 4.54280710e-017 4.54280710e-017
      4.54280710e-017 4.54280710e-017 1.16817013e-003 4.54280710e-017
      4.54280710e-017 4.54280710e-017 4.54280710e-017 4.54280710e-017
      4.54280710e-017 1.61213577e-002 4.54280710e-017 4.54280710e-017
      3.24269421e-002 3.27913240e-002 3.84321101e-002 3.25583331e-002
      -5.05098468e-003 1.59286465e-002 9.76252258e-002 -1.59791112e-002
      -4.87249047e-002 4.54280710e-017 4.54280710e-017 4.54280710e-017
      4.54280710e-017 4.54280710e-017 4.54280710e-017 4.54280710e-017
      4.54280710e-017 4.54280710e-017 1.69089008e-002 -9.72304042e-005
      -7.86135904e-003 -1.04343621e-002 4.54280710e-017 4.54280710e-017
      4.54280710e-017 4.54280710e-017 4.91435872e-003 -9.33529995e-003
      4.54280710e-017 4.54280710e-017 -4.48195357e-003 -6.54046144e-003
      4.54280710e-017 4.54280710e-017 -6.22017961e-003 4.54280710e-017</_>
    <_>
      7.50306249e-002 6.49642348e-002 2.65497360e-002 2.46627741e-002
      7.23266378e-002 6.99556470e-002 7.43059590e-002 4.39884998e-002
      2.75403336e-002 2.50763651e-002 7.18398243e-002 6.66780621e-002
      6.03946149e-002 3.26093659e-002 2.61552595e-002 2.58168764e-002
      5.95458262e-002 5.09145111e-002 3.87621783e-002 2.96971165e-002
      2.45233402e-002 2.33687926e-002 2.51426473e-002 8.90034623e-003
      -1.80154946e-002 2.95495000e-002 2.46933233e-002 2.30090749e-002
      -1.58474464e-002 -6.93889390e-018 8.62452853e-003 1.45949759e-002
      2.37784795e-002 1.86316762e-002 -3.88273015e-003 1.95189677e-002
      -6.93889390e-018 -6.93889390e-018 -6.93889390e-018
      -6.93889390e-018 -6.93889390e-018 -6.93889390e-018
      -6.93889390e-018 3.12358737e-002 -5.60070528e-003 -6.93889390e-018
      -6.93889390e-018 -6.93889390e-018 -6.93889390e-018 2.09369622e-002
      -3.27451564e-002 1.64998614e-003 -6.93889390e-018 -6.93889390e-018
      -6.93889390e-018 -6.56366488e-003 -3.72708663e-002
      -6.93889390e-018 -6.93889390e-018 -6.93889390e-018
      -6.93889390e-018 -1.10130347e-002 -2.84948610e-002
      -1.27209527e-002 -6.93889390e-018 -6.93889390e-018
      -6.93889390e-018 -1.05312616e-002 -1.28837917e-002 4.33387049e-003
      -6.93889390e-018 -6.93889390e-018 4.35966402e-002 2.75058784e-002
      7.23266378e-002 3.15784849e-002 2.62799226e-002 4.26385179e-002
      3.37838978e-002 2.33631693e-002 4.08993615e-003 -6.93889390e-018
      -6.93889390e-018 -6.93889390e-018 -6.93889390e-018
      -6.93889390e-018 -6.93889390e-018 -6.93889390e-018
      -7.09576858e-003 -6.93889390e-018 2.76774187e-002 2.59063300e-002
      2.64246333e-002 2.65934598e-002 -6.93889390e-018 -6.93889390e-018
      -6.93889390e-018 -6.93889390e-018 2.74584927e-002 2.82411799e-002
      -6.93889390e-018 -6.93889390e-018 2.74826791e-002 2.80958470e-002
      -6.93889390e-018 -6.93889390e-018 2.89803892e-002 -6.93889390e-018</_>
    <_>
      2.14878827e-001 4.01965603e-002 -7.72633823e-003 1.97124463e-002
      2.88784634e-002 1.41984940e-001 2.76245534e-001 1.97983384e-002
      -1.15996385e-002 -3.52024636e-003 1.38832759e-002 1.83394589e-002
      2.73170859e-001 1.50771402e-002 -1.18961968e-002 -5.63522475e-003
      1.07259518e-002 2.12893561e-002 2.76720282e-002 1.27714295e-002
      -1.70663279e-002 -7.94315245e-003 1.12466671e-001 -5.54233529e-002
      -1.90819582e-017 2.17399057e-002 -9.52856708e-003 -5.43048466e-003
      8.44172761e-003 -9.42021329e-003 8.40329677e-002 1.28590345e-001
      -6.33493531e-003 5.81840314e-002 7.93899447e-002 6.41221553e-002
      -1.90819582e-017 -1.90819582e-017 -1.90819582e-017
      -1.90819582e-017 -1.65629722e-002 -1.90819582e-017
      -1.90819582e-017 1.78678751e-001 -1.57457704e-004 -4.84470725e-002
      5.13742119e-003 -1.90819582e-017 -1.90819582e-017 5.95602067e-003
      6.17908221e-003 2.01661303e-003 -1.90819582e-017 -1.90819582e-017
      -1.90819582e-017 -1.90819582e-017 4.44474490e-003 -1.90819582e-017
      -1.90819582e-017 -1.90819582e-017 -1.90819582e-017
      -1.90819582e-017 2.66684685e-003 -1.90819582e-017 -1.90819582e-017
      -1.90819582e-017 -1.90819582e-017 -1.90819582e-017
      -1.90819582e-017 5.40122166e-002 -1.90819582e-017 -1.90819582e-017
      1.91383492e-002 -1.15996385e-002 1.62748042e-002 1.50771402e-002
      -1.18115144e-002 1.19845076e-002 1.61842108e-002 -6.33493531e-003
      3.43291857e-003 -1.90819582e-017 -1.90819582e-017 -1.90819582e-017
      -1.90819582e-017 -1.90819582e-017 -1.90819582e-017
      -1.90819582e-017 -1.90819582e-017 -1.90819582e-017
      -1.22241220e-002 -6.71134144e-003 -1.38308005e-002
      -5.25715481e-003 -1.90819582e-017 -1.90819582e-017
      -1.90819582e-017 -1.90819582e-017 -1.22241220e-002
      -1.47118084e-002 -1.90819582e-017 -1.90819582e-017
      -1.05774971e-002 -5.15741017e-003 -1.90819582e-017
      -1.90819582e-017 -1.14585049e-002 -1.90819582e-017</_>
    <_>
      1.35369310e-002 -7.45530147e-003 5.36415493e-003 2.68345210e-003
      1.29626365e-002 1.32908039e-002 5.26149720e-002 8.49113017e-002
      3.09349857e-002 2.83579584e-002 4.86649014e-002 4.79221568e-002
      1.19923256e-001 6.80951253e-002 3.96395773e-002 4.96440865e-002
      1.07306436e-001 3.38688940e-002 1.01053141e-001 4.51477766e-002
      6.85953647e-002 6.81439266e-002 -9.59513895e-003 8.18627253e-002
      -3.15082744e-002 -6.28653690e-002 7.01212212e-002 7.20848516e-002
      -3.29534933e-002 7.56877288e-002 -4.32871915e-002 -8.51576924e-002
      6.37073293e-002 6.61272481e-002 -8.44571069e-002 9.68702603e-003
      6.93889390e-018 6.93889390e-018 6.93889390e-018 6.93889390e-018
      6.93889390e-018 6.93889390e-018 6.93889390e-018 6.93889390e-018
      6.93889390e-018 6.93889390e-018 6.93889390e-018 6.93889390e-018
      6.93889390e-018 6.93889390e-018 -5.06814308e-002 6.93889390e-018
      6.93889390e-018 6.93889390e-018 6.93889390e-018 6.93889390e-018
      -7.61750937e-002 6.93889390e-018 6.93889390e-018 6.93889390e-018
      6.93889390e-018 -7.78421201e-003 -6.25962391e-002 -3.56698334e-002
      6.93889390e-018 6.93889390e-018 6.93889390e-018 -8.00348539e-003
      -9.75767430e-003 -4.11201976e-002 6.93889390e-018 6.93889390e-018
      8.61036777e-002 3.08670439e-002 4.91571538e-002 6.55627921e-002
      6.85163587e-002 6.73251078e-002 -5.36168888e-002 6.41768500e-002
      2.02338677e-003 6.93889390e-018 6.93889390e-018 6.93889390e-018
      6.93889390e-018 6.93889390e-018 6.93889390e-018 6.93889390e-018
      -5.15292911e-003 6.93889390e-018 3.96395773e-002 4.96440865e-002
      6.45510033e-002 6.72625527e-002 6.93889390e-018 6.93889390e-018
      6.93889390e-018 6.93889390e-018 4.97984625e-002 6.49642497e-002
      6.93889390e-018 6.93889390e-018 6.45510033e-002 6.72625527e-002
      6.93889390e-018 6.93889390e-018 6.49642497e-002 6.93889390e-018</_>
    <_>
      5.16391471e-002 -1.81522191e-001 -1.51476547e-001 -1.29513949e-001
      -2.42013544e-001 -2.35922858e-002 2.21598074e-001 7.79868141e-002
      -6.69543520e-002 -5.91182075e-002 -1.13643318e-001
      -4.71920669e-002 2.44899899e-001 9.71465334e-002 -3.88257205e-002
      -1.50377946e-002 4.11147811e-002 -6.98852492e-003 -2.61761365e-003
      -4.63259406e-002 3.04879714e-003 7.68023822e-003 -2.61135511e-002
      3.13719995e-002 -5.55111512e-017 -1.40672997e-001 1.12299584e-002
      2.68567223e-002 1.65065657e-002 1.62324309e-002 3.96950580e-002
      -2.17596199e-002 8.38283356e-003 4.53318097e-002 7.44855553e-002
      -1.57303642e-002 -5.55111512e-017 -5.55111512e-017
      -5.55111512e-017 -4.32568224e-004 -4.61061038e-002
      -5.55111512e-017 -5.55111512e-017 -5.55111512e-017
      -2.75794137e-003 -1.82492249e-002 -5.55111512e-017
      -5.55111512e-017 -5.55111512e-017 -5.55111512e-017
      -5.55111512e-017 -5.55111512e-017 -5.55111512e-017
      -5.55111512e-017 -5.55111512e-017 -5.55111512e-017
      -5.55111512e-017 -5.55111512e-017 -5.55111512e-017
      -5.55111512e-017 -5.55111512e-017 -5.55111512e-017
      -5.55111512e-017 -5.55111512e-017 -5.55111512e-017
      -5.55111512e-017 -5.55111512e-017 -5.55111512e-017
      -5.55111512e-017 -5.55111512e-017 -5.55111512e-017
      -5.55111512e-017 8.08840692e-002 -6.68294802e-002 -1.11523010e-001
      9.71465334e-002 -2.94971466e-003 4.03885655e-002 -1.00977942e-001
      1.18089039e-002 5.54823764e-002 -5.55111512e-017 -5.55111512e-017
      -5.55111512e-017 -5.55111512e-017 -5.55111512e-017
      -5.55111512e-017 -5.55111512e-017 -5.55111512e-017
      -5.55111512e-017 -3.97574864e-002 -2.06476264e-002 1.72892702e-004
      6.83812611e-003 -5.55111512e-017 -5.55111512e-017 -5.55111512e-017
      -5.55111512e-017 -2.72453669e-002 5.20471367e-004 -5.55111512e-017
      -5.55111512e-017 -1.69334700e-003 4.25802171e-003 -5.55111512e-017
      -5.55111512e-017 -1.34576834e-003 -5.55111512e-017</_>
    <_>
      1.73472348e-018 -6.95185065e-002 -6.92020282e-002 -6.08269982e-002
      -1.35964781e-001 -2.87892800e-002 1.73472348e-018 -1.54999103e-002
      -5.76681308e-002 -5.19754514e-002 -1.40690848e-001
      -6.05848655e-002 1.73472348e-018 3.84717854e-003 -5.61508201e-002
      -4.76107635e-002 -1.78264920e-002 -3.19184586e-002
      -2.77487524e-002 7.54414685e-003 -5.27185947e-002 -4.59971800e-002
      2.96957847e-002 -3.26683149e-002 3.32340226e-002 7.49857351e-003
      -4.99215983e-002 -4.63936813e-002 5.94619215e-002 1.73472348e-018
      -1.10889832e-002 4.66937609e-002 -4.91680205e-002 -5.03597409e-003
      8.40081573e-002 -5.69278933e-002 1.73472348e-018 1.73472348e-018
      -2.56365724e-002 -2.26804361e-004 -2.68515404e-002 1.73472348e-018
      1.73472348e-018 1.73472348e-018 -1.55615772e-003 -2.15195473e-002
      1.73472348e-018 1.73472348e-018 1.73472348e-018 1.73472348e-018
      5.58161102e-002 1.73472348e-018 1.73472348e-018 1.73472348e-018
      1.73472348e-018 1.73472348e-018 6.05569072e-002 1.73472348e-018
      1.73472348e-018 1.73472348e-018 1.73472348e-018 1.73472348e-018
      5.02077825e-002 9.96624492e-003 1.73472348e-018 1.73472348e-018
      1.73472348e-018 1.73472348e-018 1.73472348e-018 2.97657717e-002
      1.73472348e-018 1.73472348e-018 -1.67027730e-002 -5.76681308e-002
      -1.40064701e-001 5.90402633e-003 -5.49461246e-002 -1.38569437e-002
      -4.10118513e-002 -4.79167178e-002 2.04204652e-003 1.73472348e-018
      1.73472348e-018 1.73472348e-018 1.73472348e-018 1.73472348e-018
      1.73472348e-018 1.73472348e-018 1.73472348e-018 1.73472348e-018
      -5.67982532e-002 -5.06208725e-002 -5.38102314e-002
      -5.45784645e-002 1.73472348e-018 1.73472348e-018 1.73472348e-018
      1.73472348e-018 -5.63310832e-002 -5.51597103e-002 1.73472348e-018
      1.73472348e-018 -5.41004464e-002 -5.53896353e-002 1.73472348e-018
      1.73472348e-018 -5.54499254e-002 1.73472348e-018</_></support_vectors>
  <decision_functions>
    <_>
      <sv_count>1</sv_count>
      <rho>4.3165392239779093e-001</rho>
      <alpha>
        1.</alpha>
      <index>
        0</index></_>
    <_>
      <sv_count>1</sv_count>
      <rho>3.9335486055101865e-001</rho>
      <alpha>
        1.</alpha>
      <index>
        1</index></_>
    <_>
      <sv_count>1</sv_count>
      <rho>3.2550614617648446e+000</rho>
      <alpha>
        1.</alpha>
      <index>
        2</index></_>
    <_>
      <sv_count>1</sv_count>
      <rho>3.5496277763886058e-001</rho>
      <alpha>
        1.</alpha>
      <index>
        3</index></_>
    <_>
      <sv_count>1</sv_count>
      <rho>-1.3754911914364520e-001</rho>
      <alpha>
        1.</alpha>
      <index>
        4</index></_>
    <_>
      <sv_count>1</sv_count>
      <rho>1.4222387735548361e-001</rho>
      <alpha>
        1.</alpha>
      <index>
        5</index></_>
    <_>
      <sv_count>1</sv_count>
      <rho>1.0360561827208876e+000</rho>
      <alpha>
        1.</alpha>
      <index>
        6</index></_>
    <_>
      <sv_count>1</sv_count>
      <rho>1.6012996827966255e+000</rho>
      <alpha>
        1.</alpha>
      <index>
        7</index></_>
    <_>
      <sv_count>1</sv_count>
      <rho>1.7231324561186925e-001</rho>
      <alpha>
        1.</alpha>
      <index>
        8</index></_>
    <_>
      <sv_count>1</sv_count>
      <rho>3.5494798987174656e-002</rho>
      <alpha>
        1.</alpha>
      <index>
        9</index></_>
    <_>
      <sv_count>1</sv_count>
      <rho>-1.7806221336789463e-001</rho>
      <alpha>
        1.</alpha>
      <index>
        10</index></_>
    <_>
      <sv_count>1</sv_count>
      <rho>-8.8157007226022752e-002</rho>
      <alpha>
        1.</alpha>
      <index>
        11</index></_>
    <_>
      <sv_count>1</sv_count>
      <rho>-2.7271844121919159e-001</rho>
      <alpha>
        1.</alpha>
      <index>
        12</index></_>
    <_>
      <sv_count>1</sv_count>
      <rho>3.8726082771287007e-001</rho>
      <alpha>
        1.</alpha>
      <index>
        13</index></_>
    <_>
      <sv_count>1</sv_count>
      <rho>3.4093473740855240e-001</rho>
      <alpha>
        1.</alpha>
      <index>
        14</index></_>
    <_>
      <sv_count>1</sv_count>
      <rho>6.0066489481381058e-001</rho>
      <alpha>
        1.</alpha>
      <index>
        15</index></_>
    <_>
      <sv_count>1</sv_count>
      <rho>8.0596580091360059e-001</rho>
      <alpha>
        1.</alpha>
      <index>
        16</index></_>
    <_>
      <sv_count>1</sv_count>
      <rho>7.7468520500167770e-001</rho>
      <alpha>
        1.</alpha>
      <index>
        17</index></_>
    <_>
      <sv_count>1</sv_count>
      <rho>-1.1594587406189324e-001</rho>
      <alpha>
        1.</alpha>
      <index>
        18</index></_>
    <_>
      <sv_count>1</sv_count>
      <rho>-2.4012976428451704e-001</rho>
      <alpha>
        1.</alpha>
      <index>
        19</index></_>
    <_>
      <sv_count>1</sv_count>
      <rho>4.4542270978012700e-002</rho>
      <alpha>
        1.</alpha>
      <index>
        20</index></_>
    <_>
      <sv_count>1</sv_count>
      <rho>7.5235915216893856e-001</rho>
      <alpha>
        1.</alpha>
      <index>
        21</index></_>
    <_>
      <sv_count>1</sv_count>
      <rho>9.1166846306114591e-001</rho>
      <alpha>
        1.</alpha>
      <index>
        22</index></_>
    <_>
      <sv_count>1</sv_count>
      <rho>-1.3150465722420396e-001</rho>
      <alpha>
        1.</alpha>
      <index>
        23</index></_>
    <_>
      <sv_count>1</sv_count>
      <rho>-2.1565884215487099e-001</rho>
      <alpha>
        1.</alpha>
      <index>
        24</index></_>
    <_>
      <sv_count>1</sv_count>
      <rho>-2.4864597838547646e+000</rho>
      <alpha>
        1.</alpha>
      <index>
        25</index></_>
    <_>
      <sv_count>1</sv_count>
      <rho>-1.3845043261890455e-001</rho>
      <alpha>
        1.</alpha>
      <index>
        26</index></_>
    <_>
      <sv_count>1</sv_count>
      <rho>4.8438983677870756e-001</rho>
      <alpha>
        1.</alpha>
      <index>
        27</index></_>
    <_>
      <sv_count>1</sv_count>
      <rho>1.5960026129977689e+000</rho>
      <alpha>
        1.</alpha>
      <index>
        28</index></_>
    <_>
      <sv_count>1</sv_count>
      <rho>-3.2765754927558849e-001</rho>
      <alpha>
        1.</alpha>
      <index>
        29</index></_>
    <_>
      <sv_count>1</sv_count>
      <rho>-4.1240846193515246e-001</rho>
      <alpha>
        1.</alpha>
      <index>
        30</index></_>
    <_>
      <sv_count>1</sv_count>
      <rho>3.6740650834991818e-002</rho>
      <alpha>
        1.</alpha>
      <index>
        31</index></_>
    <_>
      <sv_count>1</sv_count>
      <rho>6.9868385520991261e-001</rho>
      <alpha>
        1.</alpha>
      <index>
        32</index></_>
    <_>
      <sv_count>1</sv_count>
      <rho>1.1638360556946601e+000</rho>
      <alpha>
        1.</alpha>
      <index>
        33</index></_>
    <_>
      <sv_count>1</sv_count>
      <rho>2.1478651800658174e-001</rho>
      <alpha>
        1.</alpha>
      <index>
        34</index></_>
    <_>
      <sv_count>1</sv_count>
      <rho>1.4438085676581430e-001</rho>
      <alpha>
        1.</alpha>
      <index>
        35</index></_>
    <_>
      <sv_count>1</sv_count>
      <rho>6.9843732523773250e-001</rho>
      <alpha>
        1.</alpha>
      <index>
        36</index></_>
    <_>
      <sv_count>1</sv_count>
      <rho>1.9068734853972680e+000</rho>
      <alpha>
        1.</alpha>
      <index>
        37</index></_>
    <_>
      <sv_count>1</sv_count>
      <rho>4.1418191276464678e-001</rho>
      <alpha>
        1.</alpha>
      <index>
        38</index></_>
    <_>
      <sv_count>1</sv_count>
      <rho>1.8496986866682169e-001</rho>
      <alpha>
        1.</alpha>
      <index>
        39</index></_>
    <_>
      <sv_count>1</sv_count>
      <rho>3.8631092402538864e-001</rho>
      <alpha>
        1.</alpha>
      <index>
        40</index></_>
    <_>
      <sv_count>1</sv_count>
      <rho>-2.5231095630783223e-001</rho>
      <alpha>
        1.</alpha>
      <index>
        41</index></_>
    <_>
      <sv_count>1</sv_count>
      <rho>7.2660399502442707e-001</rho>
      <alpha>
        1.</alpha>
      <index>
        42</index></_>
    <_>
      <sv_count>1</sv_count>
      <rho>-2.8434296717747148e-001</rho>
      <alpha>
        1.</alpha>
      <index>
        43</index></_>
    <_>
      <sv_count>1</sv_count>
      <rho>-6.0016708532358831e-001</rho>
      <alpha>
        1.</alpha>
      <index>
        44</index></_></decision_functions></my_svm>
</opencv_storage>
