<?xml version="1.0"?>
<opencv_storage>
<my_svm type_id="opencv-ml-svm">
  <svm_type>C_SVC</svm_type>
  <kernel><type>LINEAR</type></kernel>
  <C>1.</C>
  <term_criteria><epsilon>2.2204460492503131e-016</epsilon>
    <iterations>100</iterations></term_criteria>
  <var_all>14</var_all>
  <var_count>14</var_count>
  <class_count>10</class_count>
  <class_labels type_id="opencv-matrix">
    <rows>1</rows>
    <cols>10</cols>
    <dt>i</dt>
    <data>
      1 2 3 4 5 6 7 8 9 10</data></class_labels>
  <sv_total>45</sv_total>
  <support_vectors>
    <_>
      1.38676095e+000 -3.41643754e-004 -2.98023224e-006 -8.58306885e-006
      0. 0. 0. 1.38676095e+000 -3.41643754e-004 -2.98023224e-006
      -8.58306885e-006 0. 0. 0.</_>
    <_>
      7.56646443e-007 -7.50151958e-005 -3.01305704e-006 -3.82180133e-006
      5.55111512e-016 5.55111512e-016 5.55111512e-016 7.56646443e-007
      -7.50151958e-005 -3.01305704e-006 -3.82180133e-006 5.55111512e-016
      5.55111512e-016 5.55111512e-016</_>
    <_>
      1.46803248e+000 1.87808857e-003 -3.18300977e-007 -9.94229822e-007
      0. 0. 0. 1.46803248e+000 1.87808857e-003 -3.18300977e-007
      -9.94229822e-007 0. 0. 0.</_>
    <_>
      1.42224956e+000 -1.88887119e-004 -1.01327896e-006 -5.36441803e-006
      0. 0. 0. 1.42224956e+000 -1.88887119e-004 -1.01327896e-006
      -5.36441803e-006 0. 0. 0.</_>
    <_>
      -1.37286913e+000 6.28155190e-004 -1.65377526e-006 -1.62690253e-006
      4.44089210e-016 4.44089210e-016 4.44089210e-016 -1.37286913e+000
      6.28155190e-004 -1.65377526e-006 -1.62690253e-006 4.44089210e-016
      4.44089210e-016 4.44089210e-016</_>
    <_>
      1.38684070e+000 9.74507595e-004 -2.26497650e-006 -9.02990607e-008
      0. 0. 0. 1.38684070e+000 9.74507595e-004 -2.26497650e-006
      -9.02990607e-008 0. 0. 0.</_>
    <_>
      1.05368972e+000 -2.48754025e-003 -1.19209290e-007 -3.57627869e-007
      0. 0. 0. 1.05368972e+000 -2.48754025e-003 -1.19209290e-007
      -3.57627869e-007 0. 0. 0.</_>
    <_>
      1.11673164e+000 2.08133459e-003 -1.01327896e-006 -3.03983688e-006
      0. 0. 0. 1.11673164e+000 2.08133459e-003 -1.01327896e-006
      -3.03983688e-006 0. 0. 0.</_>
    <_>
      -1.85896545e-006 2.14995747e-003 -3.78308391e-006 -3.76903358e-006
      -1.77635684e-015 -1.77635684e-015 -1.77635684e-015
      -1.85896545e-006 2.14995747e-003 -3.78308391e-006 -3.76903358e-006
      -1.77635684e-015 -1.77635684e-015 -1.77635684e-015</_>
    <_>
      -1.31615174e+000 3.63499246e-004 1.65200879e-006 6.53535926e-006
      0. 0. 0. -1.31615174e+000 3.63499246e-004 1.65200879e-006
      6.53535926e-006 0. 0. 0.</_>
    <_>
      2.85801351e-001 2.45624781e-003 2.80141830e-006 7.92741776e-006 0.
      0. 0. 2.85801351e-001 2.45624781e-003 2.80141830e-006
      7.92741776e-006 0. 0. 0.</_>
    <_>
      -6.86050117e-001 -5.29885292e-005 2.08616257e-006 3.39746475e-006
      0. 0. 0. -6.86050117e-001 -5.29885292e-005 2.08616257e-006
      3.39746475e-006 0. 0. 0.</_>
    <_>
      -1.93141329e+000 7.21149903e-004 2.59572261e-007 4.25693997e-006
      0. 0. 0. -1.93141329e+000 7.21149903e-004 2.59572261e-007
      4.25693997e-006 0. 0. 0.</_>
    <_>
      1.77848387e+000 1.61515072e-003 4.24179831e-007 7.88507077e-006
      -1.77635684e-015 -1.77635684e-015 -1.77635684e-015 1.77848387e+000
      1.61515072e-003 4.24179831e-007 7.88507077e-006 -1.77635684e-015
      -1.77635684e-015 -1.77635684e-015</_>
    <_>
      -1.23923314e+000 -2.08919612e-003 2.74181366e-006 8.14330724e-006
      -1.77635684e-015 -1.77635684e-015 -1.77635684e-015
      -1.23923314e+000 -2.08919612e-003 2.74181366e-006 8.14330724e-006
      -1.77635684e-015 -1.77635684e-015 -1.77635684e-015</_>
    <_>
      -1.25789511e+000 2.11153273e-003 1.90929563e-006 5.42596945e-006
      0. 0. 0. -1.25789511e+000 2.11153273e-003 1.90929563e-006
      5.42596945e-006 0. 0. 0.</_>
    <_>
      -1.13070500e+000 1.92528509e-003 9.40033431e-007 5.89681576e-006
      -1.77635684e-015 -1.77635684e-015 -1.77635684e-015
      -1.13070500e+000 1.92528509e-003 9.40033431e-007 5.89681576e-006
      -1.77635684e-015 -1.77635684e-015 -1.77635684e-015</_>
    <_>
      1.38034070e+000 1.83804845e-003 8.11966515e-007 8.25881273e-007 0.
      0. 0. 1.38034070e+000 1.83804845e-003 8.11966515e-007
      8.25881273e-007 0. 0. 0.</_>
    <_>
      1.34051776e+000 -2.36267384e-004 6.58878093e-007 -2.87658850e-006
      0. 0. 0. 1.34051776e+000 -2.36267384e-004 6.58878093e-007
      -2.87658850e-006 0. 0. 0.</_>
    <_>
      -1.29509032e+000 1.10470410e-003 1.30514866e-006 2.16050739e-006
      8.88178420e-016 8.88178420e-016 8.88178420e-016 -1.29509032e+000
      1.10470410e-003 1.30514866e-006 2.16050739e-006 8.88178420e-016
      8.88178420e-016 8.88178420e-016</_>
    <_>
      1.38956273e+000 7.17328163e-004 -1.89823072e-006 5.61889976e-007
      0. 0. 0. 1.38956273e+000 7.17328163e-004 -1.89823072e-006
      5.61889976e-007 0. 0. 0.</_>
    <_>
      6.38377547e-001 -2.58833170e-003 2.62260437e-006 3.15904617e-006
      0. 0. 0. 6.38377547e-001 -2.58833170e-003 2.62260437e-006
      3.15904617e-006 0. 0. 0.</_>
    <_>
      1.23847818e+000 2.19244557e-003 1.26942018e-006 3.80199303e-008 0.
      0. 0. 1.23847818e+000 2.19244557e-003 1.26942018e-006
      3.80199303e-008 0. 0. 0.</_>
    <_>
      2.27000475e-001 2.40886211e-003 -6.55651093e-007 1.78813934e-007
      0. 0. 0. 2.27000475e-001 2.40886211e-003 -6.55651093e-007
      1.78813934e-007 0. 0. 0.</_>
    <_>
      -9.71851468e-001 -2.50923634e-003 -7.15255737e-007
      -4.52995300e-006 0. 0. 0. -9.71851468e-001 -2.50923634e-003
      -7.15255737e-007 -4.52995300e-006 0. 0. 0.</_>
    <_>
      -1.67376661e+000 -6.31663541e-004 -6.35738274e-007
      -1.09219442e-007 0. 0. 0. -1.67376661e+000 -6.31663541e-004
      -6.35738274e-007 -1.09219442e-007 0. 0. 0.</_>
    <_>
      1.63091874e+000 -5.02827694e-004 -2.24422047e-006 8.16372221e-007
      3.55271368e-015 3.55271368e-015 3.55271368e-015 1.63091874e+000
      -5.02827694e-004 -2.24422047e-006 8.16372221e-007 3.55271368e-015
      3.55271368e-015 3.55271368e-015</_>
    <_>
      -1.31356168e+000 -4.26888466e-003 5.96046448e-008 4.76837158e-007
      0. 0. 0. -1.31356168e+000 -4.26888466e-003 5.96046448e-008
      4.76837158e-007 0. 0. 0.</_>
    <_>
      -1.30906868e+000 -2.42780487e-004 -7.35192941e-007
      -2.34451841e-006 -1.77635684e-015 -1.77635684e-015
      -1.77635684e-015 -1.30906868e+000 -2.42780487e-004
      -7.35192941e-007 -2.34451841e-006 -1.77635684e-015
      -1.77635684e-015 -1.77635684e-015</_>
    <_>
      -1.16801155e+000 -3.97799857e-004 -1.50190158e-006
      -1.60683283e-006 4.44089210e-016 4.44089210e-016 4.44089210e-016
      -1.16801155e+000 -3.97799857e-004 -1.50190158e-006
      -1.60683283e-006 4.44089210e-016 4.44089210e-016 4.44089210e-016</_>
    <_>
      -2.06379795e+000 6.34379801e-004 -5.24157599e-007 2.73818068e-006
      0. 0. 0. -2.06379795e+000 6.34379801e-004 -5.24157599e-007
      2.73818068e-006 0. 0. 0.</_>
    <_>
      1.98538828e+000 1.31905079e-003 -1.60932541e-006 3.99351120e-006
      0. 0. 0. 1.98538828e+000 1.31905079e-003 -1.60932541e-006
      3.99351120e-006 0. 0. 0.</_>
    <_>
      -1.17173147e+000 -2.34903884e-003 7.74860382e-007 4.82797623e-006
      -1.77635684e-015 -1.77635684e-015 -1.77635684e-015
      -1.17173147e+000 -2.34903884e-003 7.74860382e-007 4.82797623e-006
      -1.77635684e-015 -1.77635684e-015 -1.77635684e-015</_>
    <_>
      -1.01616025e+000 2.07161903e-003 -1.78813934e-007 2.02655792e-006
      0. 0. 0. -1.01616025e+000 2.07161903e-003 -1.78813934e-007
      2.02655792e-006 0. 0. 0.</_>
    <_>
      -1.13736224e+000 1.96880568e-003 -1.42485453e-006 2.35294851e-006
      0. 0. 0. -1.13736224e+000 1.96880568e-003 -1.42485453e-006
      2.35294851e-006 0. 0. 0.</_>
    <_>
      1.61310005e+000 1.33938462e-004 -4.01282392e-007 6.39700943e-007
      -1.11022302e-016 -1.11022302e-016 -1.11022302e-016 1.61310005e+000
      1.33938462e-004 -4.01282392e-007 6.39700943e-007 -1.11022302e-016
      -1.11022302e-016 -1.11022302e-016</_>
    <_>
      1.39184177e+000 -2.84377160e-003 1.46974207e-006 1.11211421e-006
      5.55111512e-016 5.55111512e-016 5.55111512e-016 1.39184177e+000
      -2.84377160e-003 1.46974207e-006 1.11211421e-006 5.55111512e-016
      5.55111512e-016 5.55111512e-016</_>
    <_>
      1.49430585e+000 2.36151507e-004 5.71515955e-007 2.45433426e-007 0.
      0. 0. 1.49430585e+000 2.36151507e-004 5.71515955e-007
      2.45433426e-007 0. 0. 0.</_>
    <_>
      1.16512370e+000 7.07743398e-004 -1.64698690e-006 -1.18112132e-006
      8.88178420e-016 8.88178420e-016 8.88178420e-016 1.16512370e+000
      7.07743398e-004 -1.64698690e-006 -1.18112132e-006 8.88178420e-016
      8.88178420e-016 8.88178420e-016</_>
    <_>
      -1.64817309e+000 -2.73662806e-003 2.08616257e-006 -5.96046448e-008
      0. 0. 0. -1.64817309e+000 -2.73662806e-003 2.08616257e-006
      -5.96046448e-008 0. 0. 0.</_>
    <_>
      -1.44764340e+000 5.52060897e-004 1.70646092e-006 -2.90517050e-006
      4.44089210e-016 4.44089210e-016 4.44089210e-016 -1.44764340e+000
      5.52060897e-004 1.70646092e-006 -2.90517050e-006 4.44089210e-016
      4.44089210e-016 4.44089210e-016</_>
    <_>
      -1.15453553e+000 2.21655282e-004 1.45713580e-006 -1.67933968e-006
      0. 0. 0. -1.15453553e+000 2.21655282e-004 1.45713580e-006
      -1.67933968e-006 0. 0. 0.</_>
    <_>
      9.60901678e-001 4.98276949e-003 -9.53674316e-007 -2.80141830e-006
      0. 0. 0. 9.60901678e-001 4.98276949e-003 -9.53674316e-007
      -2.80141830e-006 0. 0. 0.</_>
    <_>
      -3.31798792e-001 4.68450785e-003 -3.15904617e-006 -3.15904617e-006
      0. 0. 0. -3.31798792e-001 4.68450785e-003 -3.15904617e-006
      -3.15904617e-006 0. 0. 0.</_>
    <_>
      -1.08401513e+000 -2.46403448e-004 -2.04356775e-006
      -2.76725871e-007 1.77635684e-015 1.77635684e-015 1.77635684e-015
      -1.08401513e+000 -2.46403448e-004 -2.04356775e-006
      -2.76725871e-007 1.77635684e-015 1.77635684e-015 1.77635684e-015</_></support_vectors>
  <decision_functions>
    <_>
      <sv_count>1</sv_count>
      <rho>6.4791646595867092e-001</rho>
      <alpha>
        1.</alpha>
      <index>
        0</index></_>
    <_>
      <sv_count>1</sv_count>
      <rho>1.0001620871908055e+000</rho>
      <alpha>
        1.</alpha>
      <index>
        1</index></_>
    <_>
      <sv_count>1</sv_count>
      <rho>7.3225966868623082e-001</rho>
      <alpha>
        1.</alpha>
      <index>
        2</index></_>
    <_>
      <sv_count>1</sv_count>
      <rho>7.2677850723266624e-001</rho>
      <alpha>
        1.</alpha>
      <index>
        3</index></_>
    <_>
      <sv_count>1</sv_count>
      <rho>-1.1942311923459108e+000</rho>
      <alpha>
        1.</alpha>
      <index>
        4</index></_>
    <_>
      <sv_count>1</sv_count>
      <rho>5.1886888794711483e-001</rho>
      <alpha>
        1.</alpha>
      <index>
        5</index></_>
    <_>
      <sv_count>1</sv_count>
      <rho>7.6836776733398438e-001</rho>
      <alpha>
        1.</alpha>
      <index>
        6</index></_>
    <_>
      <sv_count>1</sv_count>
      <rho>7.0860004425048828e-001</rho>
      <alpha>
        1.</alpha>
      <index>
        7</index></_>
    <_>
      <sv_count>1</sv_count>
      <rho>9.9571201827452049e-001</rho>
      <alpha>
        1.</alpha>
      <index>
        8</index></_>
    <_>
      <sv_count>1</sv_count>
      <rho>-6.6591539443393721e-001</rho>
      <alpha>
        1.</alpha>
      <index>
        9</index></_>
    <_>
      <sv_count>1</sv_count>
      <rho>6.0618400573730469e-002</rho>
      <alpha>
        1.</alpha>
      <index>
        10</index></_>
    <_>
      <sv_count>1</sv_count>
      <rho>-1.3956117630004883e-001</rho>
      <alpha>
        1.</alpha>
      <index>
        11</index></_>
    <_>
      <sv_count>1</sv_count>
      <rho>-1.8812848133358420e+000</rho>
      <alpha>
        1.</alpha>
      <index>
        12</index></_>
    <_>
      <sv_count>1</sv_count>
      <rho>2.0974166646019454e-001</rho>
      <alpha>
        1.</alpha>
      <index>
        13</index></_>
    <_>
      <sv_count>1</sv_count>
      <rho>-6.6540701332277941e-001</rho>
      <alpha>
        1.</alpha>
      <index>
        14</index></_>
    <_>
      <sv_count>1</sv_count>
      <rho>-6.4860800135327468e-001</rho>
      <alpha>
        1.</alpha>
      <index>
        15</index></_>
    <_>
      <sv_count>1</sv_count>
      <rho>-7.3335894936700963e-001</rho>
      <alpha>
        1.</alpha>
      <index>
        16</index></_>
    <_>
      <sv_count>1</sv_count>
      <rho>7.4270329373118515e-001</rho>
      <alpha>
        1.</alpha>
      <index>
        17</index></_>
    <_>
      <sv_count>1</sv_count>
      <rho>7.3308350694983004e-001</rho>
      <alpha>
        1.</alpha>
      <index>
        18</index></_>
    <_>
      <sv_count>1</sv_count>
      <rho>-1.0721558006199696e+000</rho>
      <alpha>
        1.</alpha>
      <index>
        19</index></_>
    <_>
      <sv_count>1</sv_count>
      <rho>5.1844202682080198e-001</rho>
      <alpha>
        1.</alpha>
      <index>
        20</index></_>
    <_>
      <sv_count>1</sv_count>
      <rho>-7.7941894531250000e-002</rho>
      <alpha>
        1.</alpha>
      <index>
        21</index></_>
    <_>
      <sv_count>1</sv_count>
      <rho>6.7409059213761635e-001</rho>
      <alpha>
        1.</alpha>
      <index>
        22</index></_>
    <_>
      <sv_count>1</sv_count>
      <rho>1.3663005828857422e-001</rho>
      <alpha>
        1.</alpha>
      <index>
        23</index></_>
    <_>
      <sv_count>1</sv_count>
      <rho>-2.2548770904541016e-001</rho>
      <alpha>
        1.</alpha>
      <index>
        24</index></_>
    <_>
      <sv_count>1</sv_count>
      <rho>-1.3955580066113717e+000</rho>
      <alpha>
        1.</alpha>
      <index>
        25</index></_>
    <_>
      <sv_count>1</sv_count>
      <rho>2.2037165635488806e-001</rho>
      <alpha>
        1.</alpha>
      <index>
        26</index></_>
    <_>
      <sv_count>1</sv_count>
      <rho>-7.3353672027587891e-001</rho>
      <alpha>
        1.</alpha>
      <index>
        27</index></_>
    <_>
      <sv_count>1</sv_count>
      <rho>-7.1077718906199538e-001</rho>
      <alpha>
        1.</alpha>
      <index>
        28</index></_>
    <_>
      <sv_count>1</sv_count>
      <rho>-7.8459098789652892e-001</rho>
      <alpha>
        1.</alpha>
      <index>
        29</index></_>
    <_>
      <sv_count>1</sv_count>
      <rho>-2.0784987767595546e+000</rho>
      <alpha>
        1.</alpha>
      <index>
        30</index></_>
    <_>
      <sv_count>1</sv_count>
      <rho>2.0496273040771409e-001</rho>
      <alpha>
        1.</alpha>
      <index>
        31</index></_>
    <_>
      <sv_count>1</sv_count>
      <rho>-7.4527799223024638e-001</rho>
      <alpha>
        1.</alpha>
      <index>
        32</index></_>
    <_>
      <sv_count>1</sv_count>
      <rho>-7.8193664550781250e-001</rho>
      <alpha>
        1.</alpha>
      <index>
        33</index></_>
    <_>
      <sv_count>1</sv_count>
      <rho>-7.7707061845722292e-001</rho>
      <alpha>
        1.</alpha>
      <index>
        34</index></_>
    <_>
      <sv_count>1</sv_count>
      <rho>1.1020338296742049e+000</rho>
      <alpha>
        1.</alpha>
      <index>
        35</index></_>
    <_>
      <sv_count>1</sv_count>
      <rho>1.1092205018368806e+000</rho>
      <alpha>
        1.</alpha>
      <index>
        36</index></_>
    <_>
      <sv_count>1</sv_count>
      <rho>1.2579225112243262e+000</rho>
      <alpha>
        1.</alpha>
      <index>
        37</index></_>
    <_>
      <sv_count>1</sv_count>
      <rho>8.7287729163651884e-001</rho>
      <alpha>
        1.</alpha>
      <index>
        38</index></_>
    <_>
      <sv_count>1</sv_count>
      <rho>-4.0192174911499023e-001</rho>
      <alpha>
        1.</alpha>
      <index>
        39</index></_>
    <_>
      <sv_count>1</sv_count>
      <rho>-4.7389898843856065e-001</rho>
      <alpha>
        1.</alpha>
      <index>
        40</index></_>
    <_>
      <sv_count>1</sv_count>
      <rho>-5.9066540724011785e-001</rho>
      <alpha>
        1.</alpha>
      <index>
        41</index></_>
    <_>
      <sv_count>1</sv_count>
      <rho>5.8286190032958984e-001</rho>
      <alpha>
        1.</alpha>
      <index>
        42</index></_>
    <_>
      <sv_count>1</sv_count>
      <rho>4.4950866699218750e-001</rho>
      <alpha>
        1.</alpha>
      <index>
        43</index></_>
    <_>
      <sv_count>1</sv_count>
      <rho>-7.1808000483311440e-001</rho>
      <alpha>
        1.</alpha>
      <index>
        44</index></_></decision_functions></my_svm>
</opencv_storage>
